{"learner":{"attributes":{"scikit_learn":"{\"_estimator_type\": \"regressor\"}"},"feature_names":["age","srt","dot_rt","dot_acc","stroop_rt","stroop_acc","add_rt","add_acc","mult_rt","mult_acc"],"feature_types":["int","float","float","float","float","float","float","float","float","float"],"gradient_booster":{"model":{"gbtree_model_param":{"num_parallel_tree":"1","num_trees":"200"},"iteration_indptr":[0,1,2,3,4,5,6,7,8,9,10,11,12,13,14,15,16,17,18,19,20,21,22,23,24,25,26,27,28,29,30,31,32,33,34,35,36,37,38,39,40,41,42,43,44,45,46,47,48,49,50,51,52,53,54,55,56,57,58,59,60,61,62,63,64,65,66,67,68,69,70,71,72,73,74,75,76,77,78,79,80,81,82,83,84,85,86,87,88,89,90,91,92,93,94,95,96,97,98,99,100,101,102,103,104,105,106,107,108,109,110,111,112,113,114,115,116,117,118,119,120,121,122,123,124,125,126,127,128,129,130,131,132,133,134,135,136,137,138,139,140,141,142,143,144,145,146,147,148,149,150,151,152,153,154,155,156,157,158,159,160,161,162,163,164,165,166,167,168,169,170,171,172,173,174,175,176,177,178,179,180,181,182,183,184,185,186,187,188,189,190,191,192,193,194,195,196,197,198,199,200],"tree_info":[0,0,0,0,0,0,0,0,0,0,0,0,0,0,0,0,0,0,0,0,0,0,0,0,0,0,0,0,0,0,0,0,0,0,0,0,0,0,0,0,0,0,0,0,0,0,0,0,0,0,0,0,0,0,0,0,0,0,0,0,0,0,0,0,0,0,0,0,0,0,0,0,0,0,0,0,0,0,0,0,0,0,0,0,0,0,0,0,0,0,0,0,0,0,0,0,0,0,0,0,0,0,0,0,0,0,0,0,0,0,0,0,0,0,0,0,0,0,0,0,0,0,0,0,0,0,0,0,0,0,0,0,0,0,0,0,0,0,0,0,0,0,0,0,0,0,0,0,0,0,0,0,0,0,0,0,0,0,0,0,0,0,0,0,0,0,0,0,0,0,0,0,0,0,0,0,0,0,0,0,0,0,0,0,0,0,0,0,0,0,0,0,0,0,0,0,0,0,0,0],"trees":[{"base_weights":[-3.5694852E-2,9.209471E-2,-2.3430035E0,2.2145648E0,-1.0892667E-2,-1.5435696E-1,-1.8265623E0,2.7457294E0,1.5423613E0,8.1156546E-1,-2.0855333E-1,-1.3373882E0,-2.6179166E0,7.728516E-2,1.5218751E-1,-3.020827E-3,8.3650015E-2,1.5293528E-1,3.2930996E-2,7.74241E-3,-2.9411657E-2,-7.932528E-2,-1.8169634E-2,-1.3635044E-1,-2.7265621E-2],"categories":[],"categories_nodes":[],"categories_segments":[],"categories_sizes":[],"default_left":[0,0,0,0,0,0,0,0,0,0,0,0,0,0,0,0,0,0,0,0,0,0,0,0,0],"id":0,"left_children":[1,3,5,7,9,-1,11,13,15,17,19,21,23,-1,-1,-1,-1,-1,-1,-1,-1,-1,-1,-1,-1],"loss_changes":[3.7644437E2,2.645152E2,2.0109375E1,1.5759918E1,1.8793486E2,0E0,1.2757446E1,6.024246E0,5.7544785E0,7.497208E1,1.286849E2,6.2173767E0,1.9045105E0,0E0,0E0,0E0,0E0,0E0,0E0,0E0,0E0,0E0,0E0,0E0,0E0],"parents":[2147483647,0,0,1,1,2,2,3,3,4,4,6,6,7,7,8,8,9,9,10,10,11,11,12,12],"right_children":[2,4,6,8,10,-1,12,14,16,18,20,22,24,-1,-1,-1,-1,-1,-1,-1,-1,-1,-1,-1,-1],"split_conditions":[4.507458E3,1.2362563E3,9.1733694E-1,1.2001106E3,-1.3381885E2,-1.5435696E-1,4.699705E3,9.043561E-1,2.1698666E2,2.8507346E3,2.1939705E3,9.441722E-1,9.5169634E-1,7.728516E-2,1.5218751E-1,-3.020827E-3,8.3650015E-2,1.5293528E-1,3.2930996E-2,7.74241E-3,-2.9411657E-2,-7.932528E-2,-1.8169634E-2,-1.3635044E-1,-2.7265621E-2],"split_indices":[2,2,3,2,8,0,2,3,1,2,2,3,3,0,0,0,0,0,0,0,0,0,0,0,0],"split_type":[0,0,0,0,0,0,0,0,0,0,0,0,0,0,0,0,0,0,0,0,0,0,0,0,0],"sum_hessian":[1.275E3,1.209E3,6.6E1,5.5E1,1.154E3,2.5E1,4.1E1,2.9E1,2.6E1,2.23E2,9.31E2,2.7E1,1.4E1,7E0,2.2E1,2E0,2.4E1,1.3E1,2.1E2,4.76E2,4.55E2,2.1E1,6E0,1.3E1,1E0],"tree_param":{"num_deleted":"0","num_feature":"10","num_nodes":"25","size_leaf_vector":"1"}},{"base_weights":[-1.0884665E-2,1.1889468E-1,-2.0342746E0,2.0406208E0,2.3553481E-2,-1.5678483E0,-1.5204579E-1,2.9025946E0,1.5904629E0,6.9540286E-1,-2.1682428E-1,-2.270883E0,-1.2120737E0,7.6337084E-2,1.6571636E-1,8.211023E-3,8.523774E-2,1.3601024E-1,2.7388168E-2,4.7355564E-3,-3.162351E-2,-6.0883876E-2,-1.3041228E-1,-1.1417158E-1,-5.2750107E-2],"categories":[],"categories_nodes":[],"categories_segments":[],"categories_sizes":[],"default_left":[0,0,0,0,0,0,0,0,0,0,0,0,0,0,0,0,0,0,0,0,0,0,0,0,0],"id":1,"left_children":[1,3,5,7,9,11,-1,13,15,17,19,21,23,-1,-1,-1,-1,-1,-1,-1,-1,-1,-1,-1,-1],"loss_changes":[3.3111057E2,2.1706723E2,3.0916107E1,1.7112885E1,1.8264313E2,1.0754105E1,0E0,5.1365814E0,6.0773544E0,8.7594345E1,1.0792374E2,2.8643036E0,3.9856071E0,0E0,0E0,0E0,0E0,0E0,0E0,0E0,0E0,0E0,0E0,0E0,0E0],"parents":[2147483647,0,0,1,1,2,2,3,3,4,4,5,5,7,7,8,8,9,9,10,10,11,11,12,12],"right_children":[2,4,6,8,10,12,-1,14,16,18,20,22,24,-1,-1,-1,-1,-1,-1,-1,-1,-1,-1,-1,-1],"split_conditions":[4.432642E3,1.2362563E3,4.699705E3,1.1673911E3,1.5479967E1,9.043561E-1,-1.5204579E-1,9.005978E-1,2.1698666E2,2.8887031E3,2.1939705E3,4.4881426E3,5.283419E3,7.6337084E-2,1.6571636E-1,8.211023E-3,8.523774E-2,1.3601024E-1,2.7388168E-2,4.7355564E-3,-3.162351E-2,-6.0883876E-2,-1.3041228E-1,-1.1417158E-1,-5.2750107E-2],"split_indices":[2,2,2,2,8,3,0,3,1,2,2,2,6,0,0,0,0,0,0,0,0,0,0,0,0],"split_type":[0,0,0,0,0,0,0,0,0,0,0,0,0,0,0,0,0,0,0,0,0,0,0,0,0],"sum_hessian":[1.259E3,1.184E3,7.5E1,5.5E1,1.129E3,5.3E1,2.2E1,1.7E1,3.8E1,2.97E2,8.32E2,1.6E1,3.7E1,5E0,1.2E1,3E0,3.5E1,1.9E1,2.78E2,4.76E2,3.56E2,5E0,1.1E1,3E0,3.4E1],"tree_param":{"num_deleted":"0","num_feature":"10","num_nodes":"25","size_leaf_vector":"1"}},{"base_weights":[-6.865888E-3,1.1143309E-1,-2.1025975E0,2.039302E0,1.7748863E-2,-2.3997638E0,-1.0053945E0,2.7606075E0,1.548253E0,5.8193946E-1,-2.0310333E-1,-1.9608314E0,-1.5020071E-1,-3.0547705E-1,-1.8616487E0,7.315638E-2,1.5373121E-1,8.2505785E-2,1.7314488E-2,1.274182E-1,2.0666031E-2,4.7320644E-3,-3.0146746E-2,-1.2443506E-1,-7.918869E-2,-3.0920905E-4,-3.0176654E-2,-1.01001896E-1,-2.2782838E-2],"categories":[],"categories_nodes":[],"categories_segments":[],"categories_sizes":[],"default_left":[0,0,0,0,0,0,0,0,0,0,0,0,0,0,0,0,0,0,0,0,0,0,0,0,0,0,0,0,0],"id":2,"left_children":[1,3,5,7,9,11,13,15,17,19,21,23,-1,25,27,-1,-1,-1,-1,-1,-1,-1,-1,-1,-1,-1,-1,-1,-1],"loss_changes":[3.1088168E2,2.1434895E2,1.943277E1,1.5206665E1,1.4129308E2,7.9013367E0,9.020226E0,4.05748E0,3.7138062E0,1.04719536E2,9.708093E1,2.6266937E0,0E0,8.8832796E-1,6.384163E-1,0E0,0E0,0E0,0E0,0E0,0E0,0E0,0E0,0E0,0E0,0E0,0E0,0E0,0E0],"parents":[2147483647,0,0,1,1,2,2,3,3,4,4,5,5,6,6,7,7,8,8,9,9,10,10,11,11,13,13,14,14],"right_children":[2,4,6,8,10,12,14,16,18,20,22,24,-1,26,28,-1,-1,-1,-1,-1,-1,-1,-1,-1,-1,-1,-1,-1,-1],"split_conditions":[4.507458E3,1.2362563E3,9.4363046E-1,1.1839408E3,1.5479967E1,4.699705E3,4.699705E3,9.005978E-1,8.9275885E-1,2.8887031E3,2.202187E3,9.043561E-1,-1.5020071E-1,4.6424287E3,9.523685E-1,7.315638E-2,1.5373121E-1,8.2505785E-2,1.7314488E-2,1.274182E-1,2.0666031E-2,4.7320644E-3,-3.0146746E-2,-1.2443506E-1,-7.918869E-2,-3.0920905E-4,-3.0176654E-2,-1.01001896E-1,-2.2782838E-2],"split_indices":[2,2,3,2,8,2,2,3,9,2,2,3,0,2,3,0,0,0,0,0,0,0,0,0,0,0,0,0,0],"split_type":[0,0,0,0,0,0,0,0,0,0,0,0,0,0,0,0,0,0,0,0,0,0,0,0,0,0,0,0,0],"sum_hessian":[1.252E3,1.186E3,6.6E1,5.4E1,1.132E3,5.1E1,1.5E1,2E1,3.4E1,3.18E2,8.14E2,3.2E1,1.9E1,9E0,6E0,5E0,1.5E1,3.1E1,3E0,2.4E1,2.94E2,4.67E2,3.47E2,1.1E1,2.1E1,5E0,4E0,5E0,1E0],"tree_param":{"num_deleted":"0","num_feature":"10","num_nodes":"29","size_leaf_vector":"1"}},{"base_weights":[1.8990071E-2,1.2898761E-1,-1.8574326E0,1.8765352E0,3.4659836E-2,-9.1627395E-1,-2.1836967E0,2.3039277E0,1.3107462E0,1.1202694E0,-1.1326591E-1,-1.0182092E0,7.624626E-4,-1.2570279E0,-2.3484175E0,1.22378565E-1,7.001107E-2,7.2773024E-2,3.240035E-2,8.5010506E-2,3.636049E-2,-3.2743745E-4,-3.4108043E-2,-3.3333026E-2,-7.377029E-2,5.420923E-4,-4.8490762E-4,1.0506272E-3,-7.006835E-2,-6.2048465E-2,-1.23073876E-1],"categories":[],"categories_nodes":[],"categories_segments":[],"categories_sizes":[],"default_left":[0,0,0,0,0,0,0,0,0,0,0,0,0,0,0,0,0,0,0,0,0,0,0,0,0,0,0,0,0,0,0],"id":3,"left_children":[1,3,5,7,9,11,13,15,17,19,21,23,25,27,29,-1,-1,-1,-1,-1,-1,-1,-1,-1,-1,-1,-1,-1,-1,-1,-1],"loss_changes":[2.646404E2,1.9955896E2,1.9800842E1,1.1972595E1,1.8480493E2,1.8703442E0,4.9853363E0,9.864502E-1,1.8381767E0,3.0220856E1,6.1495625E1,1.9094906E0,4.2145557E-4,1.8741598E0,2.3293457E0,0E0,0E0,0E0,0E0,0E0,0E0,0E0,0E0,0E0,0E0,0E0,0E0,0E0,0E0,0E0,0E0],"parents":[2147483647,0,0,1,1,2,2,3,3,4,4,5,5,6,6,7,7,8,8,9,9,10,10,11,11,12,12,13,13,14,14],"right_children":[2,4,6,8,10,12,14,16,18,20,22,24,26,28,30,-1,-1,-1,-1,-1,-1,-1,-1,-1,-1,-1,-1,-1,-1,-1,-1],"split_conditions":[4.432642E3,1.2362563E3,4.544882E3,1.2001106E3,-3.174335E2,6.503236E3,5.508986E3,8.8991374E-1,8.901902E-1,-5.6982904E2,1.4E1,8.0419636E-1,4.4881426E3,-5.0254025E2,1.5352681E3,1.22378565E-1,7.001107E-2,7.2773024E-2,3.240035E-2,8.5010506E-2,3.636049E-2,-3.2743745E-4,-3.4108043E-2,-3.3333026E-2,-7.377029E-2,5.420923E-4,-4.8490762E-4,1.0506272E-3,-7.006835E-2,-6.2048465E-2,-1.23073876E-1],"split_indices":[2,2,2,2,8,6,6,9,9,8,0,5,2,8,4,0,0,0,0,0,0,0,0,0,0,0,0,0,0,0,0],"split_type":[0,0,0,0,0,0,0,0,0,0,0,0,0,0,0,0,0,0,0,0,0,0,0,0,0,0,0,0,0,0,0],"sum_hessian":[1.28E3,1.21E3,7E1,6.1E1,1.149E3,1.9E1,5.1E1,3.3E1,2.8E1,1.37E2,1.012E3,1.7E1,2E0,9E0,4.2E1,2.7E1,6E0,2.2E1,6E0,5.4E1,8.3E1,8.53E2,1.59E2,1.1E1,6E0,1E0,1E0,1E0,8E0,5E0,3.7E1],"tree_param":{"num_deleted":"0","num_feature":"10","num_nodes":"31","size_leaf_vector":"1"}},{"base_weights":[6.126294E-2,1.6462453E-1,-1.8890294E0,1.8341768E0,8.484136E-2,-2.1512935E0,-8.8888043E-1,9.773316E-1,2.160643E0,7.2068024E-1,-1.2281736E-1,-1.7887825E0,-1.4049153E-1,-1.5654267E-1,-1.7034746E0,5.8069408E-2,1.5165917E-2,1.2943728E-1,6.917247E-2,1.333008E-1,2.8160391E-2,8.107259E-3,-2.2980405E-2,-1.1461065E-1,-7.132308E-2,1.5862465E-3,-1.999042E-2,-9.254883E-2,-2.046156E-2],"categories":[],"categories_nodes":[],"categories_segments":[],"categories_sizes":[],"default_left":[0,0,0,0,0,0,0,0,0,0,0,0,0,0,0,0,0,0,0,0,0,0,0,0,0,0,0,0,0],"id":4,"left_children":[1,3,5,7,9,11,13,15,17,19,21,23,-1,25,27,-1,-1,-1,-1,-1,-1,-1,-1,-1,-1,-1,-1,-1,-1],"loss_changes":[2.5632434E2,1.606194E2,1.4875153E1,1.327356E1,1.5232774E2,6.9101715E0,8.681704E0,1.756691E0,9.394623E0,8.549811E1,8.357081E1,3.1143646E0,0E0,4.2487544E-1,5.788479E-1,0E0,0E0,0E0,0E0,0E0,0E0,0E0,0E0,0E0,0E0,0E0,0E0,0E0,0E0],"parents":[2147483647,0,0,1,1,2,2,3,3,4,4,5,5,6,6,7,7,8,8,9,9,10,10,11,11,13,13,14,14],"right_children":[2,4,6,8,10,12,14,16,18,20,22,24,-1,26,28,-1,-1,-1,-1,-1,-1,-1,-1,-1,-1,-1,-1,-1,-1],"split_conditions":[4.507458E3,1.2362563E3,9.4363046E-1,9.084244E-1,-4.7684265E1,4.699705E3,4.699705E3,1.6916475E3,1.2019873E3,2.8507346E3,2.1939705E3,9.043561E-1,-1.4049153E-1,4.6424287E3,9.523685E-1,5.8069408E-2,1.5165917E-2,1.2943728E-1,6.917247E-2,1.333008E-1,2.8160391E-2,8.107259E-3,-2.2980405E-2,-1.1461065E-1,-7.132308E-2,1.5862465E-3,-1.999042E-2,-9.254883E-2,-2.046156E-2],"split_indices":[2,2,3,3,8,2,2,8,2,2,2,3,0,2,3,0,0,0,0,0,0,0,0,0,0,0,0,0,0],"split_type":[0,0,0,0,0,0,0,0,0,0,0,0,0,0,0,0,0,0,0,0,0,0,0,0,0,0,0,0,0],"sum_hessian":[1.269E3,1.206E3,6.3E1,5.4E1,1.152E3,4.9E1,1.4E1,1.6E1,3.8E1,2.83E2,8.69E2,3.4E1,1.5E1,8E0,6E0,1.2E1,4E0,2.3E1,1.5E1,2E1,2.63E2,4.71E2,3.98E2,1.2E1,2.2E1,5E0,3E0,5E0,1E0],"tree_param":{"num_deleted":"0","num_feature":"10","num_nodes":"29","size_leaf_vector":"1"}},{"base_weights":[1.0588571E-2,1.1442022E-1,-1.6590544E0,1.7930036E0,2.772252E-2,-1.8270897E0,-7.041841E-1,1.0595146E0,2.160792E0,9.342671E-1,-9.826285E-2,-1.2654529E0,-2.0719483E0,1.742351E-2,-9.224087E-1,2.326541E-2,5.644234E-2,1.22172035E-1,7.037691E-2,1.2779787E-1,1.8996008E-2,2.728827E-3,-8.219315E-2,-8.503219E-2,-2.2394178E-2,-1.2398449E-1,-8.8247746E-2,2.599891E-3,-2.1574856E-3,-5.1463753E-2,9.847045E-4],"categories":[],"categories_nodes":[],"categories_segments":[],"categories_sizes":[],"default_left":[0,0,0,0,0,0,0,0,0,0,0,0,0,0,0,0,0,0,0,0,0,0,0,0,0,0,0,0,0,0,0],"id":5,"left_children":[1,3,5,7,9,11,13,15,17,19,21,23,25,27,29,-1,-1,-1,-1,-1,-1,-1,-1,-1,-1,-1,-1,-1,-1,-1,-1],"loss_changes":[2.2504005E2,1.7778711E2,1.0907745E1,1.3896759E1,1.329196E2,6.179428E0,2.0632148E0,3.8108826E-1,4.86409E0,1.2668395E2,2.415153E2,7.06588E0,1.0059509E0,1.0620799E-2,1.0270605E0,0E0,0E0,0E0,0E0,0E0,0E0,0E0,0E0,0E0,0E0,0E0,0E0,0E0,0E0,0E0,0E0],"parents":[2147483647,0,0,1,1,2,2,3,3,4,4,5,5,6,6,7,7,8,8,9,9,10,10,11,11,12,12,13,13,14,14],"right_children":[2,4,6,8,10,12,14,16,18,20,22,24,26,28,30,-1,-1,-1,-1,-1,-1,-1,-1,-1,-1,-1,-1,-1,-1,-1,-1],"split_conditions":[4.432642E3,1.2362563E3,4.47602E2,9.096487E-1,7E0,4.5562104E3,4.507458E3,2.1698666E2,1.2019873E3,4.0669636E3,3.899532E3,9.2670184E-1,9.1733694E-1,4.6290695E2,9.367271E-1,2.326541E-2,5.644234E-2,1.22172035E-1,7.037691E-2,1.2779787E-1,1.8996008E-2,2.728827E-3,-8.219315E-2,-8.503219E-2,-2.2394178E-2,-1.2398449E-1,-8.8247746E-2,2.599891E-3,-2.1574856E-3,-5.1463753E-2,9.847045E-4],"split_indices":[2,2,1,3,0,2,2,1,2,2,2,3,3,1,3,0,0,0,0,0,0,0,0,0,0,0,0,0,0,0,0],"split_type":[0,0,0,0,0,0,0,0,0,0,0,0,0,0,0,0,0,0,0,0,0,0,0,0,0,0,0,0,0,0,0],"sum_hessian":[1.296E3,1.221E3,7.5E1,5.9E1,1.162E3,6.3E1,1.2E1,2.1E1,3.8E1,1.41E2,1.021E3,2.1E1,4.2E1,3E0,9E0,3E0,1.8E1,2.6E1,1.2E1,3.5E1,1.06E2,9.3E2,9.1E1,1.3E1,8E0,1.5E1,2.7E1,2E0,1E0,8E0,1E0],"tree_param":{"num_deleted":"0","num_feature":"10","num_nodes":"31","size_leaf_vector":"1"}},{"base_weights":[4.7575547E-3,1.0724111E-1,-1.4621729E0,1.9862616E0,3.3234846E-2,-9.3169576E-1,-2.0091434E0,1.1715128E0,2.2154005E0,9.964917E-1,-9.124235E-2,-9.039267E-2,-6.208301E-1,-1.1169361E-1,-8.3099407E-1,1.2733447E-2,6.1585527E-2,1.3515654E-1,8.4404014E-2,1.3855676E-1,2.6533216E-2,3.2372188E-3,-7.667959E-2,-2.2774003E-2,-1.08881034E-1,4.6697855E-3,-5.7734497E-2],"categories":[],"categories_nodes":[],"categories_segments":[],"categories_sizes":[],"default_left":[0,0,0,0,0,0,0,0,0,0,0,0,0,0,0,0,0,0,0,0,0,0,0,0,0,0,0],"id":6,"left_children":[1,3,5,7,9,11,13,15,17,19,21,-1,23,-1,25,-1,-1,-1,-1,-1,-1,-1,-1,-1,-1,-1,-1],"loss_changes":[1.9108383E2,1.6513641E2,2.2210983E1,5.8056946E0,1.3726053E2,1.08617935E1,8.734222E0,3.4862518E-1,4.181366E0,1.0682422E2,2.2823648E2,0E0,7.7602615E0,0E0,2.5016117E0,0E0,0E0,0E0,0E0,0E0,0E0,0E0,0E0,0E0,0E0,0E0,0E0],"parents":[2147483647,0,0,1,1,2,2,3,3,4,4,5,5,6,6,7,7,8,8,9,9,10,10,12,12,14,14],"right_children":[2,4,6,8,10,12,14,16,18,20,22,-1,24,-1,26,-1,-1,-1,-1,-1,-1,-1,-1,-1,-1,-1,-1],"split_conditions":[4.405641E3,1.220619E3,4.615366E3,9.083185E-1,7E0,8.9822555E-1,9.4525933E-1,2.1203369E2,1.1839408E3,4.019298E3,3.8882935E3,-9.039267E-2,7E0,-1.1169361E-1,4.6813286E3,1.2733447E-2,6.1585527E-2,1.3515654E-1,8.4404014E-2,1.3855676E-1,2.6533216E-2,3.2372188E-3,-7.667959E-2,-2.2774003E-2,-1.08881034E-1,4.6697855E-3,-5.7734497E-2],"split_indices":[2,2,2,3,0,3,3,1,2,2,2,0,0,0,2,0,0,0,0,0,0,0,0,0,0,0,0],"split_type":[0,0,0,0,0,0,0,0,0,0,0,0,0,0,0,0,0,0,0,0,0,0,0,0,0,0,0],"sum_hessian":[1.269E3,1.187E3,8.2E1,4.4E1,1.143E3,4.3E1,3.9E1,1.1E1,3.3E1,1.3E2,1.013E3,1E1,3.3E1,3.2E1,7E0,1E0,1E1,1.5E1,1.8E1,2.6E1,1.04E2,9.15E2,9.8E1,3.1E1,2E0,2E0,5E0],"tree_param":{"num_deleted":"0","num_feature":"10","num_nodes":"27","size_leaf_vector":"1"}},{"base_weights":[2.9279772E-2,1.3730253E-1,-1.4683064E0,1.6332945E0,6.2118694E-2,-1.1549225E0,-2.22976E0,8.727459E-1,1.9347091E0,1.1403822E0,-4.420497E-2,-1.6468266E0,-7.1434695E-1,-1.14917874E-1,-1.6300464E-2,5.218001E-2,1.0990234E-2,1.23974524E-1,7.341047E-2,9.757843E-2,3.2430287E-2,3.5563994E-2,-6.378026E-3,-9.2026465E-2,-4.5414533E-2,-2.8313702E-2,-1.0525167E-1],"categories":[],"categories_nodes":[],"categories_segments":[],"categories_sizes":[],"default_left":[0,0,0,0,0,0,0,0,0,0,0,0,0,0,0,0,0,0,0,0,0,0,0,0,0,0,0],"id":7,"left_children":[1,3,5,7,9,11,13,15,17,19,21,23,25,-1,-1,-1,-1,-1,-1,-1,-1,-1,-1,-1,-1,-1,-1],"loss_changes":[2.0678624E2,1.3396803E2,1.7946762E1,1.137822E1,1.3028705E2,1.2477013E1,2.3849335E0,1.7786531E0,6.5252075E0,3.942427E1,6.5268684E1,2.4769058E0,6.01528E0,0E0,0E0,0E0,0E0,0E0,0E0,0E0,0E0,0E0,0E0,0E0,0E0,0E0,0E0],"parents":[2147483647,0,0,1,1,2,2,3,3,4,4,5,5,6,6,7,7,8,8,9,9,10,10,11,11,12,12],"right_children":[2,4,6,8,10,12,14,16,18,20,22,24,26,-1,-1,-1,-1,-1,-1,-1,-1,-1,-1,-1,-1,-1,-1],"split_conditions":[4.405641E3,1.2362563E3,4.699705E3,9.084244E-1,-3.5919025E2,9.1402024E-1,9.523685E-1,1.6916475E3,1.1839408E3,3.553575E3,7E0,6.731364E-1,7E0,-1.14917874E-1,-1.6300464E-2,5.218001E-2,1.0990234E-2,1.23974524E-1,7.341047E-2,9.757843E-2,3.2430287E-2,3.5563994E-2,-6.378026E-3,-9.2026465E-2,-4.5414533E-2,-2.8313702E-2,-1.0525167E-1],"split_indices":[2,2,2,3,8,3,3,8,2,2,0,7,0,0,0,0,0,0,0,0,0,0,0,0,0,0,0],"split_type":[0,0,0,0,0,0,0,0,0,0,0,0,0,0,0,0,0,0,0,0,0,0,0,0,0,0,0],"sum_hessian":[1.276E3,1.191E3,8.5E1,5.6E1,1.135E3,6.2E1,2.3E1,1.7E1,3.9E1,1.01E2,1.034E3,2.8E1,3.4E1,2.2E1,1E0,1.3E1,4E0,1.6E1,2.3E1,3.7E1,6.4E1,1.02E2,9.32E2,2.1E1,7E0,3.2E1,2E0],"tree_param":{"num_deleted":"0","num_feature":"10","num_nodes":"27","size_leaf_vector":"1"}},{"base_weights":[1.5889795E-2,8.532578E-2,-1.5220906E0,1.3528179E0,8.032675E-3,-1.6517388E0,-3.9711142E-1,1.9774073E0,9.1464764E-1,5.940964E-1,-1.7970534E-1,-9.697006E-1,-1.8236524E0,-2.3681896E-2,1.551187E-3,7.661831E-2,1.2215493E-1,-3.991735E-3,5.2380074E-2,1.2138011E-1,2.3293141E-2,6.1477437E-3,-2.6252747E-2,-5.337119E-3,-6.2274653E-2,-6.556728E-2,-9.7989276E-2],"categories":[],"categories_nodes":[],"categories_segments":[],"categories_sizes":[],"default_left":[0,0,0,0,0,0,0,0,0,0,0,0,0,0,0,0,0,0,0,0,0,0,0,0,0,0,0],"id":8,"left_children":[1,3,5,7,9,11,13,15,17,19,21,23,25,-1,-1,-1,-1,-1,-1,-1,-1,-1,-1,-1,-1,-1,-1],"loss_changes":[1.3596825E2,1.1931466E2,7.3659134E0,1.734871E1,1.26527145E2,3.976944E0,2.440399E-1,2.0593338E0,5.769108E0,6.446673E1,9.11046E1,2.7230234E0,8.023071E-2,0E0,0E0,0E0,0E0,0E0,0E0,0E0,0E0,0E0,0E0,0E0,0E0,0E0,0E0],"parents":[2147483647,0,0,1,1,2,2,3,3,4,4,5,5,6,6,7,7,8,8,9,9,10,10,11,11,12,12],"right_children":[2,4,6,8,10,12,14,16,18,20,22,24,26,-1,-1,-1,-1,-1,-1,-1,-1,-1,-1,-1,-1,-1,-1],"split_conditions":[4.507458E3,1.2546731E3,4.47602E2,1.1910635E3,-2.6739065E1,4.590633E3,4.615366E3,2.3638905E2,2.2207405E2,2.8507346E3,2.1939705E3,1.5815592E3,4.142269E2,-2.3681896E-2,1.551187E-3,7.661831E-2,1.2215493E-1,-3.991735E-3,5.2380074E-2,1.2138011E-1,2.3293141E-2,6.1477437E-3,-2.6252747E-2,-5.337119E-3,-6.2274653E-2,-6.556728E-2,-9.7989276E-2],"split_indices":[2,2,1,2,8,2,2,1,1,2,2,4,1,0,0,0,0,0,0,0,0,0,0,0,0,0,0],"split_type":[0,0,0,0,0,0,0,0,0,0,0,0,0,0,0,0,0,0,0,0,0,0,0,0,0,0,0],"sum_hessian":[1.271E3,1.217E3,5.4E1,6.9E1,1.148E3,4.8E1,6E0,2.7E1,4.2E1,2.78E2,8.7E2,1.1E1,3.7E1,5E0,1E0,1.6E1,1.1E1,5E0,3.7E1,1.7E1,2.61E2,4.64E2,4.06E2,3E0,8E0,1E1,2.7E1],"tree_param":{"num_deleted":"0","num_feature":"10","num_nodes":"27","size_leaf_vector":"1"}},{"base_weights":[-1.2042745E-2,8.0255695E-2,-1.4383168E0,1.4605298E0,1.4631195E-2,-1.111388E0,-2.1575677E0,8.1673753E-1,1.7101071E0,5.0818866E-1,-1.9833086E-1,-1.3504169E0,-3.1491622E-1,-1.1364924E-1,-3.1522956E-2,4.425884E-2,-6.957245E-3,1.1366735E-1,7.1387954E-2,8.889733E-2,1.5524021E-2,4.7940663E-3,-3.3069134E-2,-4.2185422E-2,-7.624884E-2,-7.121011E-3,-6.393411E-2],"categories":[],"categories_nodes":[],"categories_segments":[],"categories_sizes":[],"default_left":[0,0,0,0,0,0,0,0,0,0,0,0,0,0,0,0,0,0,0,0,0,0,0,0,0,0,0],"id":9,"left_children":[1,3,5,7,9,11,13,15,17,19,21,23,25,-1,-1,-1,-1,-1,-1,-1,-1,-1,-1,-1,-1,-1,-1],"loss_changes":[1.667753E2,1.07768585E2,1.5708176E1,7.279808E0,1.1960974E2,1.0045624E1,2.6208344E0,1.2353058E0,2.7973251E0,8.555525E1,1.0837063E2,2.428299E0,2.145331E0,0E0,0E0,0E0,0E0,0E0,0E0,0E0,0E0,0E0,0E0,0E0,0E0,0E0,0E0],"parents":[2147483647,0,0,1,1,2,2,3,3,4,4,5,5,6,6,7,7,8,8,9,9,10,10,11,11,12,12],"right_children":[2,4,6,8,10,12,14,16,18,20,22,24,26,-1,-1,-1,-1,-1,-1,-1,-1,-1,-1,-1,-1,-1,-1],"split_conditions":[4.432642E3,1.2362563E3,4.699705E3,9.096487E-1,8.456173E1,9.377616E-1,9.5169634E-1,9.003709E-1,1.1673911E3,2.9743423E3,2.202187E3,4.507458E3,7E0,-1.1364924E-1,-3.1522956E-2,4.425884E-2,-6.957245E-3,1.1366735E-1,7.1387954E-2,8.889733E-2,1.5524021E-2,4.7940663E-3,-3.3069134E-2,-4.2185422E-2,-7.624884E-2,-7.121011E-3,-6.393411E-2],"split_indices":[2,2,2,3,8,3,3,7,2,2,2,2,0,0,0,0,0,0,0,0,0,0,0,0,0,0,0],"split_type":[0,0,0,0,0,0,0,0,0,0,0,0,0,0,0,0,0,0,0,0,0,0,0,0,0,0,0],"sum_hessian":[1.265E3,1.189E3,7.6E1,5.3E1,1.136E3,5.4E1,2.2E1,1.6E1,3.7E1,3.42E2,7.94E2,4.1E1,1.3E1,2E1,2E0,1.5E1,1E0,1E1,2.7E1,4.5E1,2.97E2,4.86E2,3.08E2,1.2E1,2.9E1,1.2E1,1E0],"tree_param":{"num_deleted":"0","num_feature":"10","num_nodes":"27","size_leaf_vector":"1"}},{"base_weights":[5.237659E-2,1.537879E-1,-1.1020547E0,1.1394868E0,5.26648E-2,-7.0425206E-1,-1.6630477E0,1.3590841E0,2.5929317E-1,1.467669E0,-3.0374875E-2,-1.3047342E0,-2.0374481E-1,-1.8127725E0,-4.6257028E-1,5.0517198E-2,1.17176406E-1,-1.0458375E-2,4.4460442E-2,8.866105E-2,4.740941E-2,4.4297297E-2,-5.578632E-3,-6.9576524E-2,-2.1803707E-2,-1.0944065E-1,-8.5550005E-4,-1.10206686E-1,-7.544731E-2,-4.0169712E-2,7.302586E-3],"categories":[],"categories_nodes":[],"categories_segments":[],"categories_sizes":[],"default_left":[0,0,0,0,0,0,0,0,0,0,0,0,0,0,0,0,0,0,0,0,0,0,0,0,0,0,0,0,0,0,0],"id":10,"left_children":[1,3,5,7,9,11,13,15,17,19,21,23,25,27,29,-1,-1,-1,-1,-1,-1,-1,-1,-1,-1,-1,-1,-1,-1,-1,-1],"loss_changes":[1.4931969E2,1.16761345E2,2.1814743E1,2.0716003E1,1.2506617E2,1.8368002E1,6.710594E0,2.7500656E1,6.9730806E0,7.683632E0,7.494846E1,1.5042915E0,1.2929449E1,1.0736084E0,1.3619347E0,0E0,0E0,0E0,0E0,0E0,0E0,0E0,0E0,0E0,0E0,0E0,0E0,0E0,0E0,0E0,0E0],"parents":[2147483647,0,0,1,1,2,2,3,3,4,4,5,5,6,6,7,7,8,8,9,9,10,10,11,11,12,12,13,13,14,14],"right_children":[2,4,6,8,10,12,14,16,18,20,22,24,26,28,30,-1,-1,-1,-1,-1,-1,-1,-1,-1,-1,-1,-1,-1,-1,-1,-1],"split_conditions":[4.3479937E3,-3.5919025E2,4.615366E3,4.0669636E3,1.2362563E3,9.13279E-1,9.500119E-1,4.157694E2,9.1305935E-1,1.2001106E3,7.2098523E-1,4.426884E2,1.4326145E3,9.127245E-1,8.195773E-1,5.0517198E-2,1.17176406E-1,-1.0458375E-2,4.4460442E-2,8.866105E-2,4.740941E-2,4.4297297E-2,-5.578632E-3,-6.9576524E-2,-2.1803707E-2,-1.0944065E-1,-8.5550005E-4,-1.10206686E-1,-7.544731E-2,-4.0169712E-2,7.302586E-3],"split_indices":[2,8,2,2,2,3,3,1,3,2,7,1,4,3,5,0,0,0,0,0,0,0,0,0,0,0,0,0,0,0,0],"split_type":[0,0,0,0,0,0,0,0,0,0,0,0,0,0,0,0,0,0,0,0,0,0,0,0,0,0,0,0,0,0,0],"sum_hessian":[1.273E3,1.171E3,1.02E2,1.08E2,1.063E3,6.1E1,4.1E1,8.6E1,2.2E1,5.8E1,1.005E3,2.7E1,3.4E1,3.6E1,5E0,6.5E1,2.1E1,1.3E1,9E0,3.5E1,2.3E1,8.1E1,9.24E2,2.4E1,3E0,2E0,3.2E1,1.3E1,2.3E1,3E0,2E0],"tree_param":{"num_deleted":"0","num_feature":"10","num_nodes":"31","size_leaf_vector":"1"}},{"base_weights":[-7.1623633E-3,4.2224178E-1,-1.3610788E-1,1.6130561E0,3.3410168E-1,1.3127092E-1,-5.1538366E-1,1.8509872E0,1.9858456E-1,6.5144193E-1,-6.3354924E-2,7.861411E-1,-4.3169886E-2,-2.4315198E-1,-9.669064E-1,1.0375656E-1,5.6636096E-3,3.884956E-2,-1.2660734E-2,1.78481E-2,4.687308E-2,-4.8292805E-2,1.1267568E-2,7.163948E-2,1.4727156E-2,5.538549E-3,-4.061531E-2,-2.0474074E-2,1.2339137E-2,-3.985816E-2,-1.2320421E-1],"categories":[],"categories_nodes":[],"categories_segments":[],"categories_sizes":[],"default_left":[0,0,0,0,0,0,0,0,0,0,0,0,0,0,0,0,0,0,0,0,0,0,0,0,0,0,0,0,0,0,0],"id":11,"left_children":[1,3,5,7,9,11,13,15,17,19,21,23,25,27,29,-1,-1,-1,-1,-1,-1,-1,-1,-1,-1,-1,-1,-1,-1,-1,-1],"loss_changes":[7.048777E1,3.0318867E1,9.9348335E1,6.3633575E0,3.4726746E1,6.571968E1,4.954702E1,6.3864174E0,1.2420402E0,1.2552101E1,3.2266262E1,3.80428E1,5.396266E1,2.0799664E1,3.6664383E1,0E0,0E0,0E0,0E0,0E0,0E0,0E0,0E0,0E0,0E0,0E0,0E0,0E0,0E0,0E0,0E0],"parents":[2147483647,0,0,1,1,2,2,3,3,4,4,5,5,6,6,7,7,8,8,9,9,10,10,11,11,12,12,13,13,14,14],"right_children":[2,4,6,8,10,12,14,16,18,20,22,24,26,28,30,-1,-1,-1,-1,-1,-1,-1,-1,-1,-1,-1,-1,-1,-1,-1,-1],"split_conditions":[-2.6739065E1,-8.403849E2,6.7499146E2,6.138552E3,4.9508755E3,8.02834E-1,4.2637527E2,7.544295E-1,1.4488088E3,4.381351E3,1.3010375E3,3.4249E3,5.8205273E2,4.1745425E2,9.17624E-1,1.0375656E-1,5.6636096E-3,3.884956E-2,-1.2660734E-2,1.78481E-2,4.687308E-2,-4.8292805E-2,1.1267568E-2,7.163948E-2,1.4727156E-2,5.538549E-3,-4.061531E-2,-2.0474074E-2,1.2339137E-2,-3.985816E-2,-1.2320421E-1],"split_indices":[8,8,4,6,6,9,8,7,4,6,4,8,4,1,5,0,0,0,0,0,0,0,0,0,0,0,0,0,0,0,0],"split_type":[0,0,0,0,0,0,0,0,0,0,0,0,0,0,0,0,0,0,0,0,0,0,0,0,0,0,0,0,0,0,0],"sum_hessian":[1.271E3,2.93E2,9.78E2,1.9E1,2.74E2,5.74E2,4.04E2,1.6E1,3E0,1.52E2,1.22E2,1.2E2,4.54E2,2.53E2,1.51E2,1.4E1,2E0,1E0,2E0,7.6E1,7.6E1,2.9E1,9.3E1,5.1E1,6.9E1,3.79E2,7.5E1,1.89E2,6.4E1,1.37E2,1.4E1],"tree_param":{"num_deleted":"0","num_feature":"10","num_nodes":"31","size_leaf_vector":"1"}},{"base_weights":[-1.0095192E-2,7.3941626E-2,-1.1934936E0,7.163189E-1,-4.4329733E-2,-7.573386E-1,-1.6116166E0,1.069565E0,3.667262E-1,1.2352258E0,-1.2586959E-1,-9.2553204E-1,-3.816754E-1,-1.3293012E0,-9.742961E-2,8.9673415E-2,1.9185223E-2,4.9408954E-2,-3.5454974E-2,8.066563E-2,4.3849695E-2,8.3236926E-4,-4.161229E-2,-5.469622E-2,-2.4809707E-2,-3.1404596E-2,-7.380489E-3,-3.228003E-2,-7.1213245E-2],"categories":[],"categories_nodes":[],"categories_segments":[],"categories_sizes":[],"default_left":[0,0,0,0,0,0,0,0,0,0,0,0,0,0,0,0,0,0,0,0,0,0,0,0,0,0,0,0,0],"id":12,"left_children":[1,3,5,7,9,11,13,15,17,19,21,23,25,27,-1,-1,-1,-1,-1,-1,-1,-1,-1,-1,-1,-1,-1,-1,-1],"loss_changes":[1.2599073E2,8.990997E1,1.4098251E1,2.2330353E1,1.0449026E2,2.3636608E0,1.4053268E0,4.4493027E1,6.3546757E1,6.7117004E0,9.474489E1,1.5538216E0,7.724519E-1,7.68589E-1,0E0,0E0,0E0,0E0,0E0,0E0,0E0,0E0,0E0,0E0,0E0,0E0,0E0,0E0,0E0],"parents":[2147483647,0,0,1,1,2,2,3,3,4,4,5,5,6,6,7,7,8,8,9,9,10,10,11,11,12,12,13,13],"right_children":[2,4,6,8,10,12,14,16,18,20,22,24,26,28,-1,-1,-1,-1,-1,-1,-1,-1,-1,-1,-1,-1,-1,-1,-1],"split_conditions":[4.405641E3,-2.0789479E2,4.615366E3,3.7572673E3,1.2546731E3,4.3228876E2,4.728549E3,8E0,7E0,1.2001106E3,1.4E1,6.242631E3,6.484814E-1,5.508986E3,-9.742961E-2,8.9673415E-2,1.9185223E-2,4.9408954E-2,-3.5454974E-2,8.066563E-2,4.3849695E-2,8.3236926E-4,-4.161229E-2,-5.469622E-2,-2.4809707E-2,-3.1404596E-2,-7.380489E-3,-3.228003E-2,-7.1213245E-2],"split_indices":[2,8,2,2,2,1,2,0,0,2,0,6,7,6,0,0,0,0,0,0,0,0,0,0,0,0,0,0,0],"split_type":[0,0,0,0,0,0,0,0,0,0,0,0,0,0,0,0,0,0,0,0,0,0,0,0,0,0,0,0,0],"sum_hessian":[1.265E3,1.182E3,8.3E1,1.83E2,9.99E2,4.2E1,4.1E1,9E1,9.3E1,5.9E1,9.4E2,2.8E1,1.4E1,2.5E1,1.6E1,4.3E1,4.7E1,5.9E1,3.4E1,2.7E1,3.2E1,7.83E2,1.57E2,1.9E1,9E0,6E0,8E0,4E0,2.1E1],"tree_param":{"num_deleted":"0","num_feature":"10","num_nodes":"29","size_leaf_vector":"1"}},{"base_weights":[6.1467723E-3,6.4265855E-2,-1.5248653E0,4.906439E-1,-1.11117676E-1,-6.587194E-1,-1.685646E0,1.741252E0,3.0248764E-1,1.890227E-1,-6.1497813E-1,2.033174E-3,-7.5122523E-1,-6.563111E-2,-1.0046088E-1,1.167863E-1,6.2722E-2,6.313489E-2,7.3023723E-3,-4.355192E-3,6.0701575E-2,-6.746439E-2,-9.251468E-4,-4.2430162E-2,-1.530304E-2],"categories":[],"categories_nodes":[],"categories_segments":[],"categories_sizes":[],"default_left":[0,0,0,0,0,0,0,0,0,0,0,0,0,0,0,0,0,0,0,0,0,0,0,0,0],"id":13,"left_children":[1,3,5,7,9,11,13,15,17,19,21,-1,23,-1,-1,-1,-1,-1,-1,-1,-1,-1,-1,-1,-1],"loss_changes":[1.1434961E2,9.2631775E1,5.4348297E0,8.44201E1,1.3289519E2,6.128197E-1,2.069954E0,1.0671646E1,4.7133446E1,1.5605646E2,1.4363821E2,0E0,8.706999E-2,0E0,0E0,0E0,0E0,0E0,0E0,0E0,0E0,0E0,0E0,0E0,0E0],"parents":[2147483647,0,0,1,1,2,2,3,3,4,4,5,5,6,6,7,7,8,8,9,9,10,10,12,12],"right_children":[2,4,6,8,10,12,14,16,18,20,22,-1,24,-1,-1,-1,-1,-1,-1,-1,-1,-1,-1,-1,-1],"split_conditions":[4.590633E3,8.456173E1,5.508986E3,2.9743423E3,2.2117751E3,-5.0254025E2,4.699705E3,2.8507346E3,-6.135089E2,2.7383413E3,3.826468E2,2.033174E-3,5.459395E3,-6.563111E-2,-1.0046088E-1,1.167863E-1,6.2722E-2,6.313489E-2,7.3023723E-3,-4.355192E-3,6.0701575E-2,-6.746439E-2,-9.251468E-4,-4.2430162E-2,-1.530304E-2],"split_indices":[2,8,6,2,2,8,2,2,8,6,1,0,6,0,0,0,0,0,0,0,0,0,0,0,0],"split_type":[0,0,0,0,0,0,0,0,0,0,0,0,0,0,0,0,0,0,0,0,0,0,0,0,0],"sum_hessian":[1.283E3,1.237E3,4.6E1,3.6E2,8.77E2,8E0,3.8E1,4.6E1,3.14E2,5.5E2,3.27E2,1E0,7E0,2E1,1.8E1,1.9E1,2.7E1,4.3E1,2.71E2,4.34E2,1.16E2,1.46E2,1.81E2,5E0,2E0],"tree_param":{"num_deleted":"0","num_feature":"10","num_nodes":"25","size_leaf_vector":"1"}},{"base_weights":[2.5589403E-2,5.0382656E-1,-6.114293E-2,1.0765239E0,3.4332252E-1,1.22374974E-1,-2.6440954E-1,1.3392035E0,-7.227542E-1,2.586963E-1,1.668598E0,9.8285097E-1,-9.8501295E-3,-2.0737685E-2,-8.0405766E-1,9.27647E-2,1.2185319E-2,-6.720822E-2,1.7335542E-2,8.446688E-2,8.694298E-3,4.4299256E-2,9.561201E-2,1.0075485E-1,3.5645388E-2,8.576392E-3,-1.6959628E-2,2.5652394E-2,-6.4076367E-3,-3.3935294E-2,-9.019082E-2],"categories":[],"categories_nodes":[],"categories_segments":[],"categories_sizes":[],"default_left":[0,0,0,0,0,0,0,0,0,0,0,0,0,0,0,0,0,0,0,0,0,0,0,0,0,0,0,0,0,0,0],"id":14,"left_children":[1,3,5,7,9,11,13,15,17,19,21,23,25,27,29,-1,-1,-1,-1,-1,-1,-1,-1,-1,-1,-1,-1,-1,-1,-1,-1],"loss_changes":[5.24183E1,1.7462936E1,3.9946632E1,2.0818527E1,1.6727758E1,6.4065865E1,6.678383E1,2.0466743E1,4.453495E0,1.7299559E1,2.188301E-2,1.9462006E1,2.926882E1,2.0190897E1,1.8576546E1,0E0,0E0,0E0,0E0,0E0,0E0,0E0,0E0,0E0,0E0,0E0,0E0,0E0,0E0,0E0,0E0],"parents":[2147483647,0,0,1,1,2,2,3,3,4,4,5,5,6,6,7,7,8,8,9,9,10,10,11,11,12,12,13,13,14,14],"right_children":[2,4,6,8,10,12,14,16,18,20,22,24,26,28,30,-1,-1,-1,-1,-1,-1,-1,-1,-1,-1,-1,-1,-1,-1,-1,-1],"split_conditions":[-2.7142096E2,-6.646469E2,6.7499146E2,8.0048496E-1,8.9407915E-1,9.0296686E-1,3.8204477E2,1.5186016E3,4.0478903E2,8.931359E2,9.706687E2,5.6451355E2,9.458402E-1,1.0089709E3,9.1474974E-1,9.27647E-2,1.2185319E-2,-6.720822E-2,1.7335542E-2,8.446688E-2,8.694298E-3,4.4299256E-2,9.561201E-2,1.0075485E-1,3.5645388E-2,8.576392E-3,-1.6959628E-2,2.5652394E-2,-6.4076367E-3,-3.3935294E-2,-9.019082E-2],"split_indices":[8,8,4,7,5,5,8,4,1,4,4,4,5,4,5,0,0,0,0,0,0,0,0,0,0,0,0,0,0,0,0],"split_type":[0,0,0,0,0,0,0,0,0,0,0,0,0,0,0,0,0,0,0,0,0,0,0,0,0,0,0,0,0,0,0],"sum_hessian":[1.262E3,1.93E2,1.069E3,4.1E1,1.52E2,5.62E2,5.07E2,3.6E1,5E0,1.44E2,8E0,7.4E1,4.88E2,3.5E2,1.57E2,2.4E1,1.2E1,3E0,2E0,7E0,1.37E2,3E0,5E0,1.4E1,6E1,3.15E2,1.73E2,5.8E1,2.92E2,1.41E2,1.6E1],"tree_param":{"num_deleted":"0","num_feature":"10","num_nodes":"31","size_leaf_vector":"1"}},{"base_weights":[-8.538345E-3,6.483116E-2,-1.1238325E0,1.4693484E0,1.0148265E-2,-8.859E-1,-1.7000258E0,1.6825604E0,8.150912E-1,1.1815047E-1,-6.132922E-1,-1.1091566E0,-5.2340496E-1,-9.452005E-1,-1.8664331E0,9.288231E-2,4.516058E-2,-1.093694E-2,4.5973595E-2,1.1039078E-1,-7.344787E-4,6.9070765E-4,-1.11027E-1,-6.058214E-2,-2.0593328E-2,-5.808493E-2,-1.8845059E-2,-1.0599828E-2,-5.2472096E-2,-9.873761E-2,-3.5134684E-2],"categories":[],"categories_nodes":[],"categories_segments":[],"categories_sizes":[],"default_left":[0,0,0,0,0,0,0,0,0,0,0,0,0,0,0,0,0,0,0,0,0,0,0,0,0,0,0,0,0,0,0],"id":15,"left_children":[1,3,5,7,9,11,13,15,17,19,21,23,25,27,29,-1,-1,-1,-1,-1,-1,-1,-1,-1,-1,-1,-1,-1,-1,-1,-1],"loss_changes":[1.0473161E2,9.222558E1,9.324455E0,4.9058533E0,7.7976685E1,4.113369E0,9.9922943E-1,2.8250961E0,1.6039791E0,2.7401498E2,1.7238422E2,2.0021515E0,1.8064532E0,2.3610401E-1,7.552948E-1,0E0,0E0,0E0,0E0,0E0,0E0,0E0,0E0,0E0,0E0,0E0,0E0,0E0,0E0,0E0,0E0],"parents":[2147483647,0,0,1,1,2,2,3,3,4,4,5,5,6,6,7,7,8,8,9,9,10,10,11,11,12,12,13,13,14,14],"right_children":[2,4,6,8,10,12,14,16,18,20,22,24,26,28,30,-1,-1,-1,-1,-1,-1,-1,-1,-1,-1,-1,-1,-1,-1,-1,-1],"split_conditions":[4.432642E3,1.220619E3,4.699705E3,1.2001106E3,1.4E1,4.314201E2,5.508986E3,8.875531E-1,2.1698666E2,1.7082706E3,1.3809991E3,6.503236E3,1.4872673E3,4.0478903E2,6.7595796E3,9.288231E-2,4.516058E-2,-1.093694E-2,4.5973595E-2,1.1039078E-1,-7.344787E-4,6.9070765E-4,-1.11027E-1,-6.058214E-2,-2.0593328E-2,-5.808493E-2,-1.8845059E-2,-1.0599828E-2,-5.2472096E-2,-9.873761E-2,-3.5134684E-2],"split_indices":[2,2,2,2,0,1,6,9,1,2,2,6,4,1,6,0,0,0,0,0,0,0,0,0,0,0,0,0,0,0,0],"split_type":[0,0,0,0,0,0,0,0,0,0,0,0,0,0,0,0,0,0,0,0,0,0,0,0,0,0,0,0,0,0,0],"sum_hessian":[1.278E3,1.2E3,7.8E1,4.4E1,1.156E3,5.7E1,2.1E1,3.2E1,1.2E1,9.86E2,1.7E2,3.4E1,2.3E1,5E0,1.6E1,2.5E1,7E0,1E0,1.1E1,5.8E1,9.28E2,1.23E2,4.7E1,2.9E1,5E0,3E0,2E1,1E0,4E0,1.4E1,2E0],"tree_param":{"num_deleted":"0","num_feature":"10","num_nodes":"31","size_leaf_vector":"1"}},{"base_weights":[-3.623566E-3,7.000253E-2,-1.1107651E0,7.952463E-1,-2.2180086E-2,-8.4944034E-1,-1.710102E0,2.1089988E0,3.6241215E-1,1.16358005E-1,-1.4233688E0,-1.278502E0,-5.2158976E-1,-9.021103E-2,-2.406191E-2,6.504983E-2,1.3550282E-1,2.122463E-3,7.002615E-2,4.8778053E-2,-2.0626415E-3,-4.315396E-2,-1.0007181E-1,-1.5526541E-2,-6.761921E-2,-1.9276787E-2,-8.994849E-2],"categories":[],"categories_nodes":[],"categories_segments":[],"categories_sizes":[],"default_left":[0,0,0,0,0,0,0,0,0,0,0,0,0,0,0,0,0,0,0,0,0,0,0,0,0,0,0],"id":16,"left_children":[1,3,5,7,9,11,13,15,17,19,21,23,25,-1,-1,-1,-1,-1,-1,-1,-1,-1,-1,-1,-1,-1,-1],"loss_changes":[1.0327513E2,7.9441216E1,1.0920479E1,7.543302E1,2.0496011E2,7.351227E0,1.791893E0,1.25008545E1,3.3820557E1,1.3017857E2,2.9041687E1,1.2964287E0,5.2153854E0,0E0,0E0,0E0,0E0,0E0,0E0,0E0,0E0,0E0,0E0,0E0,0E0,0E0,0E0],"parents":[2147483647,0,0,1,1,2,2,3,3,4,4,5,5,6,6,7,7,8,8,9,9,10,10,11,11,12,12],"right_children":[2,4,6,8,10,12,14,16,18,20,22,24,26,-1,-1,-1,-1,-1,-1,-1,-1,-1,-1,-1,-1,-1,-1],"split_conditions":[4.405641E3,7E0,4.699705E3,4.0669636E3,3.899532E3,9.0953785E-1,9.5169634E-1,8.9681613E-1,9.2353046E-1,8E0,4.03451E3,7.608714E-1,7E0,-9.021103E-2,-2.406191E-2,6.504983E-2,1.3550282E-1,2.122463E-3,7.002615E-2,4.8778053E-2,-2.0626415E-3,-4.315396E-2,-1.0007181E-1,-1.5526541E-2,-6.761921E-2,-1.9276787E-2,-8.994849E-2],"split_indices":[2,0,2,2,2,3,3,3,3,0,2,5,0,0,0,0,0,0,0,0,0,0,0,0,0,0,0],"split_type":[0,0,0,0,0,0,0,0,0,0,0,0,0,0,0,0,0,0,0,0,0,0,0,0,0,0,0],"sum_hessian":[1.265E3,1.187E3,7.8E1,1.33E2,1.054E3,5.6E1,2.2E1,3.2E1,1.01E2,9.6E2,9.4E1,2.3E1,3.3E1,2E1,2E0,1.5E1,1.7E1,7.8E1,2.3E1,1.48E2,8.12E2,4.9E1,4.5E1,2E0,2.1E1,3.1E1,2E0],"tree_param":{"num_deleted":"0","num_feature":"10","num_nodes":"27","size_leaf_vector":"1"}},{"base_weights":[1.0706642E-4,1.2571254E0,-6.093342E-2,6.1426795E-1,1.5243734E0,1.178825E0,-1.1404404E-1,7.000915E-1,2.3394375E-1,1.0102328E-1,1.2218854E0,1.5105845E0,-2.9927123E-1,2.3263454E-2,-6.4952564E-1,4.7206286E-2,1.4316003E-2,-4.885833E-3,2.4381144E-2,4.798565E-2,7.457363E-2,8.251032E-2,-4.04015E-2,-3.527227E-2,2.4317568E-2,3.445578E-2,-6.7736316E-3,-1.0616671E-2,-8.173956E-2],"categories":[],"categories_nodes":[],"categories_segments":[],"categories_sizes":[],"default_left":[0,0,0,0,0,0,0,0,0,0,0,0,0,0,0,0,0,0,0,0,0,0,0,0,0,0,0,0,0],"id":17,"left_children":[1,3,5,7,9,11,13,15,17,-1,19,21,23,25,27,-1,-1,-1,-1,-1,-1,-1,-1,-1,-1,-1,-1,-1,-1],"loss_changes":[9.775263E1,9.199966E0,8.0135315E1,4.563923E-1,3.6837616E0,2.4970688E1,8.5746E1,1.2442937E0,4.6832556E-1,0E0,5.476036E-1,1.46063385E1,3.53409E0,9.828378E1,1.0217147E2,0E0,0E0,0E0,0E0,0E0,0E0,0E0,0E0,0E0,0E0,0E0,0E0,0E0,0E0],"parents":[2147483647,0,0,1,1,2,2,3,3,4,4,5,5,6,6,7,7,8,8,10,10,11,11,12,12,13,13,14,14],"right_children":[2,4,6,8,10,12,14,16,18,-1,20,22,24,26,28,-1,-1,-1,-1,-1,-1,-1,-1,-1,-1,-1,-1,-1,-1],"split_conditions":[1.2362563E3,9.096487E-1,-6.135089E2,1.6916475E3,1.1673911E3,4.220904E3,3.9753672E3,4.5437042E2,1.7008635E3,1.0102328E-1,9.3572456E-1,9.4673437E-1,9.4286484E-1,8E0,7E0,4.7206286E-2,1.4316003E-2,-4.885833E-3,2.4381144E-2,4.798565E-2,7.457363E-2,8.251032E-2,-4.04015E-2,-3.527227E-2,2.4317568E-2,3.445578E-2,-6.7736316E-3,-1.0616671E-2,-8.173956E-2],"split_indices":[2,3,8,8,2,2,2,4,8,0,3,3,3,0,0,0,0,0,0,0,0,0,0,0,0,0,0,0,0],"split_type":[0,0,0,0,0,0,0,0,0,0,0,0,0,0,0,0,0,0,0,0,0,0,0,0,0,0,0,0,0],"sum_hessian":[1.272E3,5.8E1,1.214E3,1.8E1,4E1,4.9E1,1.165E3,1.4E1,4E0,1.3E1,2.7E1,4E1,9E0,9.28E2,2.37E2,8E0,6E0,2E0,2E0,1.6E1,1.1E1,3.8E1,2E0,6E0,3E0,1.78E2,7.5E2,1.65E2,7.2E1],"tree_param":{"num_deleted":"0","num_feature":"10","num_nodes":"29","size_leaf_vector":"1"}},{"base_weights":[3.5260876E-3,1.0551467E0,-6.14987E-2,1.6902404E0,8.5426974E-1,-8.956303E-1,2.166794E-2,1.7363567E0,2.3809457E-2,-9.794119E-2,1.0055566E0,3.3134878E-2,-1.2605019E0,1.711177E-1,-5.347099E-1,8.938166E-2,2.4180233E-2,2.1494547E-2,-3.0309254E-2,4.2416707E-2,6.999367E-2,4.9468722E-2,-1.4813431E-3,-8.78375E-2,-2.177242E-2,9.760364E-2,5.700446E-3,-9.451249E-3,-9.015249E-2],"categories":[],"categories_nodes":[],"categories_segments":[],"categories_sizes":[],"default_left":[0,0,0,0,0,0,0,0,0,0,0,0,0,0,0,0,0,0,0,0,0,0,0,0,0,0,0,0,0],"id":18,"left_children":[1,3,5,7,9,11,13,15,-1,17,19,21,23,25,27,-1,-1,-1,-1,-1,-1,-1,-1,-1,-1,-1,-1,-1,-1],"loss_changes":[8.807176E1,8.12426E0,8.416754E1,1.2495422E-1,8.597847E0,3.7318573E1,9.188968E1,1.6328049E-1,0E0,2.6750002E0,1.974205E0,1.9498001E0,3.1580086E1,8.836524E1,1.0225552E2,0E0,0E0,0E0,0E0,0E0,0E0,0E0,0E0,0E0,0E0,0E0,0E0,0E0,0E0],"parents":[2147483647,0,0,1,1,2,2,3,3,4,4,5,5,6,6,7,7,9,9,10,10,11,11,12,12,13,13,14,14],"right_children":[2,4,6,8,10,12,14,16,-1,18,20,22,24,26,28,-1,-1,-1,-1,-1,-1,-1,-1,-1,-1,-1,-1,-1,-1],"split_conditions":[1.2546731E3,1.1673911E3,2.5500562E2,4.5734897E2,2.2207405E2,1.3183064E3,4.03451E3,9.634311E-1,2.3809457E-2,1.2019873E3,2.5652686E2,8.594419E-1,1.9135098E3,7E0,7E0,8.938166E-2,2.4180233E-2,2.1494547E-2,-3.0309254E-2,4.2416707E-2,6.999367E-2,4.9468722E-2,-1.4813431E-3,-8.78375E-2,-2.177242E-2,9.760364E-2,5.700446E-3,-9.451249E-3,-9.015249E-2],"split_indices":[2,2,1,4,1,2,2,5,0,2,1,7,8,0,0,0,0,0,0,0,0,0,0,0,0,0,0,0,0],"split_type":[0,0,0,0,0,0,0,0,0,0,0,0,0,0,0,0,0,0,0,0,0,0,0,0,0,0,0,0,0],"sum_hessian":[1.286E3,7.4E1,1.212E3,1.6E1,5.8E1,1.09E2,1.103E3,1.5E1,1E0,8E0,5E1,3.1E1,7.8E1,8.7E2,2.33E2,1.4E1,1E0,4E0,4E0,3.8E1,1.2E1,1E0,3E1,4.8E1,3E1,2.6E1,8.44E2,1.84E2,4.9E1],"tree_param":{"num_deleted":"0","num_feature":"10","num_nodes":"29","size_leaf_vector":"1"}},{"base_weights":[1.25282435E-2,5.015793E-1,-5.065544E-2,6.584315E-1,-1.3209184E-1,1.1677245E-1,-2.2185937E-1,1.9659628E0,5.8317816E-1,-6.356277E-1,9.3854266E-1,6.6687036E-1,-6.1394017E-2,9.241094E-2,-5.632431E-1,1.0612631E-1,2.9578662E-2,7.846613E-2,2.5162527E-2,-5.750458E-3,-6.585035E-2,-2.6908863E-2,5.8121007E-2,4.8150487E-2,8.596177E-3,5.538732E-3,-3.4027748E-2,1.11349815E-4,2.716426E-2,-5.509345E-2,-2.1941673E-2],"categories":[],"categories_nodes":[],"categories_segments":[],"categories_sizes":[],"default_left":[0,0,0,0,0,0,0,0,0,0,0,0,0,0,0,0,0,0,0,0,0,0,0,0,0,0,0,0,0,0,0],"id":19,"left_children":[1,3,5,7,9,11,13,15,17,19,21,23,25,27,29,-1,-1,-1,-1,-1,-1,-1,-1,-1,-1,-1,-1,-1,-1,-1,-1],"loss_changes":[3.970107E1,1.46977005E1,3.2645897E1,1.0464218E1,1.676965E1,5.6494133E1,6.0454502E1,3.544426E-2,8.116928E0,7.2980433E0,3.931631E0,2.0501255E1,4.6553036E1,1.1953305E1,1.760923E1,0E0,0E0,0E0,0E0,0E0,0E0,0E0,0E0,0E0,0E0,0E0,0E0,0E0,0E0,0E0,0E0],"parents":[2147483647,0,0,1,1,2,2,3,3,4,4,5,5,6,6,7,7,8,8,9,9,10,10,11,11,12,12,13,13,14,14],"right_children":[2,4,6,8,10,12,14,16,18,20,22,24,26,28,30,-1,-1,-1,-1,-1,-1,-1,-1,-1,-1,-1,-1,-1,-1,-1,-1],"split_conditions":[-3.174335E2,1.5485355E3,6.7499146E2,-1.1859169E3,9.1305935E-1,8.2784253E-1,1.99384E2,9.3473047E-1,9.316599E2,5.9766914E3,4.142269E2,3.5954246E3,5.586762E2,8.3227676E-1,8.9100844E-1,1.0612631E-1,2.9578662E-2,7.846613E-2,2.5162527E-2,-5.750458E-3,-6.585035E-2,-2.6908863E-2,5.8121007E-2,4.8150487E-2,8.596177E-3,5.538732E-3,-3.4027748E-2,1.11349815E-4,2.716426E-2,-5.509345E-2,-2.1941673E-2],"split_indices":[8,4,4,8,3,9,8,3,4,6,1,8,4,7,3,0,0,0,0,0,0,0,0,0,0,0,0,0,0,0,0],"split_type":[0,0,0,0,0,0,0,0,0,0,0,0,0,0,0,0,0,0,0,0,0,0,0,0,0,0,0,0,0,0,0],"sum_hessian":[1.283E3,1.46E2,1.137E3,1.17E2,2.9E1,5.75E2,5.62E2,5E0,1.12E2,2E1,9E0,1.4E2,4.35E2,2.93E2,2.69E2,4E0,1E0,7E0,1.05E2,1.2E1,8E0,1E0,8E0,8.7E1,5.3E1,3.41E2,9.4E1,2.45E2,4.8E1,4.9E1,2.2E2],"tree_param":{"num_deleted":"0","num_feature":"10","num_nodes":"31","size_leaf_vector":"1"}},{"base_weights":[3.2853592E-2,1.4735554E-1,-5.05299E-1,1.8875287E0,9.73531E-2,-1.8708599E-1,-1.7013296E0,6.185584E-1,2.1165805E0,1.0447503E0,3.1515993E-2,2.2210269E-1,-1.0883261E0,-2.0322108E0,-7.526031E-1,3.9251805E-3,4.3447997E-2,1.108404E-1,5.1809173E-2,2.4250539E-2,6.422637E-2,8.473693E-3,-3.7258804E-2,-7.033503E-3,3.975225E-2,-7.618036E-2,-3.7452966E-2,-8.27623E-2,-1.3521013E-1,-5.7485723E-3,-4.9807932E-2],"categories":[],"categories_nodes":[],"categories_segments":[],"categories_sizes":[],"default_left":[0,0,0,0,0,0,0,0,0,0,0,0,0,0,0,0,0,0,0,0,0,0,0,0,0,0,0,0,0,0,0],"id":20,"left_children":[1,3,5,7,9,11,13,15,17,19,21,23,25,27,29,-1,-1,-1,-1,-1,-1,-1,-1,-1,-1,-1,-1,-1,-1,-1,-1],"loss_changes":[8.042631E1,9.3442116E1,8.683738E1,7.410576E0,6.5272545E1,6.735918E1,1.3538513E1,7.431667E-1,4.101181E-1,8.5034485E0,1.05134056E2,2.6300667E1,7.2762833E0,4.389969E0,2.0596523E0,0E0,0E0,0E0,0E0,0E0,0E0,0E0,0E0,0E0,0E0,0E0,0E0,0E0,0E0,0E0,0E0],"parents":[2147483647,0,0,1,1,2,2,3,3,4,4,5,5,6,6,7,7,8,8,9,9,10,10,11,11,12,12,13,13,14,14],"right_children":[2,4,6,8,10,12,14,16,18,20,22,24,26,28,30,-1,-1,-1,-1,-1,-1,-1,-1,-1,-1,-1,-1,-1,-1,-1,-1],"split_conditions":[4.03451E3,7E0,7E0,8.8022405E-1,1.2546731E3,4.544882E3,9.406289E-1,1.5693511E3,1.6322694E3,9.096487E-1,1.4E1,9.147672E-1,9.214297E-1,4.133889E3,7.822093E-1,3.9251805E-3,4.3447997E-2,1.108404E-1,5.1809173E-2,2.4250539E-2,6.422637E-2,8.473693E-3,-3.7258804E-2,-7.033503E-3,3.975225E-2,-7.618036E-2,-3.7452966E-2,-8.27623E-2,-1.3521013E-1,-5.7485723E-3,-4.9807932E-2],"split_indices":[2,0,0,3,2,2,3,4,4,3,0,3,3,2,7,0,0,0,0,0,0,0,0,0,0,0,0,0,0,0,0],"split_type":[0,0,0,0,0,0,0,0,0,0,0,0,0,0,0,0,0,0,0,0,0,0,0,0,0,0,0,0,0,0,0],"sum_hessian":[1.303E3,1.075E3,2.28E2,2.9E1,1.046E3,1.81E2,4.7E1,5E0,2.4E1,6.7E1,9.79E2,1.25E2,5.6E1,3.4E1,1.3E1,2E0,3E0,2.1E1,3E0,2.1E1,4.6E1,8.32E2,1.47E2,7.7E1,4.8E1,2.3E1,3.3E1,2.4E1,1E1,4E0,9E0],"tree_param":{"num_deleted":"0","num_feature":"10","num_nodes":"31","size_leaf_vector":"1"}},{"base_weights":[5.6080904E-2,1.279112E-1,-8.3564776E-1,8.32961E-1,4.6667937E-2,-5.4019445E-1,-1.2188121E0,1.7852131E0,4.6396616E-1,1.681179E-1,-1.2148408E0,-4.1733098E-1,-1.0165434E-1,-1.2612628E0,1.1980343E-2,9.933969E-2,5.5137035E-2,8.144012E-3,3.5078865E-2,4.4601887E-2,1.7268682E-3,-3.6612876E-2,-8.310305E-2,-3.061977E-2,5.882931E-3,-5.3868175E-2,-8.240731E-2],"categories":[],"categories_nodes":[],"categories_segments":[],"categories_sizes":[],"default_left":[0,0,0,0,0,0,0,0,0,0,0,0,0,0,0,0,0,0,0,0,0,0,0,0,0,0,0],"id":21,"left_children":[1,3,5,7,9,11,13,15,17,19,21,23,-1,25,-1,-1,-1,-1,-1,-1,-1,-1,-1,-1,-1,-1,-1],"loss_changes":[8.247921E1,6.818225E1,1.0209496E1,4.2390984E1,1.6398592E2,9.423155E0,2.8405533E0,2.4865723E0,6.3244514E0,9.4349945E1,1.9070114E1,5.6029987E0,0E0,1.0702438E0,0E0,0E0,0E0,0E0,0E0,0E0,0E0,0E0,0E0,0E0,0E0,0E0,0E0],"parents":[2147483647,0,0,1,1,2,2,3,3,4,4,5,5,6,6,7,7,8,8,9,9,10,10,11,11,13,13],"right_children":[2,4,6,8,10,12,14,16,18,20,22,24,-1,26,-1,-1,-1,-1,-1,-1,-1,-1,-1,-1,-1,-1,-1],"split_conditions":[4.3479937E3,7E0,4.615366E3,4.0669636E3,3.8882935E3,7E0,7.2098523E-1,4.019298E3,6.457883E-1,8E0,4.03451E3,4.426884E2,-1.0165434E-1,4.777994E3,1.1980343E-2,9.933969E-2,5.5137035E-2,8.144012E-3,3.5078865E-2,4.4601887E-2,1.7268682E-3,-3.6612876E-2,-8.310305E-2,-3.061977E-2,5.882931E-3,-5.3868175E-2,-8.240731E-2],"split_indices":[2,0,2,2,2,0,7,2,7,0,2,1,0,2,0,0,0,0,0,0,0,0,0,0,0,0,0],"split_type":[0,0,0,0,0,0,0,0,0,0,0,0,0,0,0,0,0,0,0,0,0,0,0,0,0,0,0],"sum_hessian":[1.285E3,1.19E3,9.5E1,1.22E2,1.068E3,5.5E1,4E1,3.3E1,8.9E1,9.75E2,9.3E1,5.2E1,3E0,3.9E1,1E0,2.4E1,9E0,4E1,4.9E1,1.51E2,8.24E2,4.6E1,4.7E1,3.8E1,1.4E1,2.9E1,1E1],"tree_param":{"num_deleted":"0","num_feature":"10","num_nodes":"27","size_leaf_vector":"1"}},{"base_weights":[7.134956E-3,4.609566E-1,-5.3571112E-2,7.0655525E-1,1.7368737E-1,-1.8100746E-2,-5.377835E-1,-2.4279308E-2,7.995382E-1,7.9834735E-1,-2.876172E-1,-7.912198E-2,3.9817262E-1,-5.1456038E-2,-9.9785167E-1,-4.509167E-2,2.4032434E-2,6.2909864E-2,2.6927957E-2,4.6615724E-2,-3.5906386E-2,-4.159179E-2,1.1010027E-2,-1.666598E-3,-2.5245128E-2,3.6059644E-2,-2.1417845E-2,-4.3179456E-2,1.556989E-2,-6.413735E-2,4.7163325E-3],"categories":[],"categories_nodes":[],"categories_segments":[],"categories_sizes":[],"default_left":[0,0,0,0,0,0,0,0,0,0,0,0,0,0,0,0,0,0,0,0,0,0,0,0,0,0,0,0,0,0,0],"id":22,"left_children":[1,3,5,7,9,11,13,15,17,19,21,23,25,27,29,-1,-1,-1,-1,-1,-1,-1,-1,-1,-1,-1,-1,-1,-1,-1,-1],"loss_changes":[3.479245E1,1.0389664E1,1.9123426E1,5.455826E0,2.0400715E1,2.6423676E1,1.6953182E1,4.8644814E0,7.8211174E0,6.7642536E0,1.151409E1,1.7666494E1,3.5818035E1,1.1466972E1,1.22561E1,0E0,0E0,0E0,0E0,0E0,0E0,0E0,0E0,0E0,0E0,0E0,0E0,0E0,0E0,0E0,0E0],"parents":[2147483647,0,0,1,1,2,2,3,3,4,4,5,5,6,6,7,7,8,8,9,9,10,10,11,11,12,12,13,13,14,14],"right_children":[2,4,6,8,10,12,14,16,18,20,22,24,26,28,30,-1,-1,-1,-1,-1,-1,-1,-1,-1,-1,-1,-1,-1,-1,-1,-1],"split_conditions":[-3.267476E2,5.0356147E3,3.6863088E3,8.809686E-1,-6.135089E2,2.98915E3,3.128136E3,7.414733E-1,9.005978E-1,7.753961E-1,9.050988E-1,2.2358323E3,3.1648933E3,8.715627E-1,8.112534E-1,-4.509167E-2,2.4032434E-2,6.2909864E-2,2.6927957E-2,4.6615724E-2,-3.5906386E-2,-4.159179E-2,1.1010027E-2,-1.666598E-3,-2.5245128E-2,3.6059644E-2,-2.1417845E-2,-4.3179456E-2,1.556989E-2,-6.413735E-2,4.7163325E-3],"split_indices":[8,6,8,3,8,8,6,7,3,7,3,8,6,7,9,0,0,0,0,0,0,0,0,0,0,0,0,0,0,0,0],"split_type":[0,0,0,0,0,0,0,0,0,0,0,0,0,0,0,0,0,0,0,0,0,0,0,0,0,0,0,0,0,0,0],"sum_hessian":[1.261E3,1.48E2,1.113E3,7.9E1,6.9E1,1.038E3,7.5E1,9E0,7E1,2.9E1,4E1,9.06E2,1.32E2,3.7E1,3.8E1,3E0,6E0,2.4E1,4.6E1,2.7E1,2E0,1.9E1,2.1E1,8.19E2,8.7E1,9.5E1,3.7E1,1.1E1,2.6E1,3E1,8E0],"tree_param":{"num_deleted":"0","num_feature":"10","num_nodes":"31","size_leaf_vector":"1"}},{"base_weights":[4.0997318E-5,6.761265E-2,-8.081164E-1,-7.5672E-3,7.812281E-1,-1.168907E0,-5.3758544E-1,1.0895602E0,-6.5079145E-2,1.2452474E0,3.719661E-1,-9.5294E-1,-7.6638706E-2,-2.8142264E-1,-6.7043215E-2,8.068209E-2,4.1321497E-2,-4.2049985E-2,7.328584E-4,8.0230616E-2,2.5885997E-2,-1.1931075E-2,3.568774E-2,-5.9882253E-2,-2.7981896E-2,-8.989739E-2,-6.690291E-3],"categories":[],"categories_nodes":[],"categories_segments":[],"categories_sizes":[],"default_left":[0,0,0,0,0,0,0,0,0,0,0,0,0,0,0,0,0,0,0,0,0,0,0,0,0,0,0],"id":23,"left_children":[1,3,5,7,9,11,13,15,17,19,21,23,-1,25,-1,-1,-1,-1,-1,-1,-1,-1,-1,-1,-1,-1,-1],"loss_changes":[7.077268E1,6.417072E1,9.132126E0,6.8405975E1,2.1186035E1,1.8398514E0,1.1763092E1,6.113121E0,6.3737446E1,1.3025986E1,1.3109218E1,2.120802E0,0E0,1.0057196E1,0E0,0E0,0E0,0E0,0E0,0E0,0E0,0E0,0E0,0E0,0E0,0E0,0E0],"parents":[2147483647,0,0,1,1,2,2,3,3,4,4,5,5,6,6,7,7,8,8,9,9,10,10,11,11,13,13],"right_children":[2,4,6,8,10,12,14,16,18,20,22,24,-1,26,-1,-1,-1,-1,-1,-1,-1,-1,-1,-1,-1,-1,-1],"split_conditions":[4.3479937E3,4.1983582E2,9.1402024E-1,1.2362563E3,4.0507766E3,4.590633E3,4.728549E3,1.1673911E3,2.484448E2,8.314704E-1,8.9743173E-1,8.9743173E-1,-7.6638706E-2,1.4684266E3,-6.7043215E-2,8.068209E-2,4.1321497E-2,-4.2049985E-2,7.328584E-4,8.0230616E-2,2.5885997E-2,-1.1931075E-2,3.568774E-2,-5.9882253E-2,-2.7981896E-2,-8.989739E-2,-6.690291E-3],"split_indices":[2,1,3,2,2,2,2,2,1,5,3,3,0,4,0,0,0,0,0,0,0,0,0,0,0,0,0],"split_type":[0,0,0,0,0,0,0,0,0,0,0,0,0,0,0,0,0,0,0,0,0,0,0,0,0,0,0],"sum_hessian":[1.294E3,1.195E3,9.9E1,1.082E3,1.13E2,4.1E1,5.8E1,5.3E1,1.029E3,5.2E1,6.1E1,2.8E1,1.3E1,4.5E1,1.3E1,1.6E1,3.7E1,9.5E1,9.34E2,3.4E1,1.8E1,2.2E1,3.9E1,1.6E1,1.2E1,3E0,4.2E1],"tree_param":{"num_deleted":"0","num_feature":"10","num_nodes":"27","size_leaf_vector":"1"}},{"base_weights":[5.520055E-3,6.1913127E-1,-5.8106743E-2,7.739454E-1,-6.313E-3,1.4441057E-1,-1.6634122E-1,1.6771218E0,6.73917E-1,5.0236475E-1,-5.1450515E-1,-2.525028E-1,6.0356194E-1,-1.2296922E0,-8.0132216E-2,9.227728E-2,8.243263E-3,1.17741125E-2,4.7686342E-2,-1.7380019E-3,4.212064E-2,-5.0772764E-2,2.45053E-2,2.6801934E-3,-3.873398E-2,1.108671E-1,2.5050962E-2,-2.8123582E-2,-1.0306179E-1,1.6472828E-2,-8.277989E-3],"categories":[],"categories_nodes":[],"categories_segments":[],"categories_sizes":[],"default_left":[0,0,0,0,0,0,0,0,0,0,0,0,0,0,0,0,0,0,0,0,0,0,0,0,0,0,0,0,0,0,0],"id":24,"left_children":[1,3,5,7,9,11,13,15,17,19,21,23,25,27,29,-1,-1,-1,-1,-1,-1,-1,-1,-1,-1,-1,-1,-1,-1,-1,-1],"loss_changes":[5.0283176E1,1.1721031E1,2.5603909E1,7.6330605E0,6.7211204E0,7.432543E1,6.966266E1,1.9880352E0,1.069379E1,2.403709E0,7.040061E0,3.504688E1,3.016504E1,3.0465515E1,2.4722616E1,0E0,0E0,0E0,0E0,0E0,0E0,0E0,0E0,0E0,0E0,0E0,0E0,0E0,0E0,0E0,0E0],"parents":[2147483647,0,0,1,1,2,2,3,3,4,4,5,5,6,6,7,7,8,8,9,9,10,10,11,11,12,12,13,13,14,14],"right_children":[2,4,6,8,10,12,14,16,18,20,22,24,26,28,30,-1,-1,-1,-1,-1,-1,-1,-1,-1,-1,-1,-1,-1,-1,-1,-1],"split_conditions":[-3.5919025E2,1.5352681E3,5.8205273E2,9.316599E2,-6.135089E2,1.844618E3,2.7769019E3,3.9060248E2,4.743703E3,1.5612721E3,4.3454044E2,1.8330701E3,1.8167504E3,2.0916868E3,3.1648933E3,9.227728E-2,8.243263E-3,1.17741125E-2,4.7686342E-2,-1.7380019E-3,4.212064E-2,-5.0772764E-2,2.45053E-2,2.6801934E-3,-3.873398E-2,1.108671E-1,2.5050962E-2,-2.8123582E-2,-1.0306179E-1,1.6472828E-2,-8.277989E-3],"split_indices":[8,4,4,4,8,8,6,1,6,4,1,6,6,6,6,0,0,0,0,0,0,0,0,0,0,0,0,0,0,0,0],"split_type":[0,0,0,0,0,0,0,0,0,0,0,0,0,0,0,0,0,0,0,0,0,0,0,0,0,0,0,0,0,0,0],"sum_hessian":[1.286E3,1.2E2,1.166E3,9.6E1,2.4E1,4.06E2,7.6E2,8E0,8.8E1,1.2E1,1.2E1,2.18E2,1.88E2,5.6E1,7.04E2,7E0,1E0,3.5E1,5.3E1,5E0,7E0,8E0,4E0,1.38E2,8E1,1E1,1.78E2,3.2E1,2.4E1,1.21E2,5.83E2],"tree_param":{"num_deleted":"0","num_feature":"10","num_nodes":"31","size_leaf_vector":"1"}},{"base_weights":[-3.8050006E-3,1.8836527E-1,-6.975537E-2,8.012723E-1,-1.6932878E-1,1.5133295E-2,-8.244741E-1,1.4174074E0,3.6581054E-1,8.3414376E-2,-6.3548833E-1,4.854798E-1,-6.914687E-2,-5.7549554E-1,-2.5816107E0,-2.530604E-2,7.959403E-2,8.222533E-2,5.822144E-3,1.098144E-2,-3.942233E-2,2.3169367E-2,-5.652204E-2,-3.692394E-2,3.1154132E-2,-1.7832251E-2,7.7503207E-3,-4.3102548E-2,1.359078E-2,-1.3670515E-1,-2.2604955E-2],"categories":[],"categories_nodes":[],"categories_segments":[],"categories_sizes":[],"default_left":[0,0,0,0,0,0,0,0,0,0,0,0,0,0,0,0,0,0,0,0,0,0,0,0,0,0,0,0,0,0,0],"id":25,"left_children":[1,3,5,7,9,11,13,15,17,19,21,23,25,27,29,-1,-1,-1,-1,-1,-1,-1,-1,-1,-1,-1,-1,-1,-1,-1,-1],"loss_changes":[1.6666382E1,7.379803E1,6.2734135E1,3.27511E1,2.5148378E1,3.4957188E1,4.1825745E1,1.7921486E1,2.3404552E1,1.668081E1,4.1315674E1,2.3028437E1,4.8259136E1,2.1600859E1,2.6607285E0,0E0,0E0,0E0,0E0,0E0,0E0,0E0,0E0,0E0,0E0,0E0,0E0,0E0,0E0,0E0,0E0],"parents":[2147483647,0,0,1,1,2,2,3,3,4,4,5,5,6,6,7,7,8,8,9,9,10,10,11,11,12,12,13,13,14,14],"right_children":[2,4,6,8,10,12,14,16,18,20,22,24,26,28,30,-1,-1,-1,-1,-1,-1,-1,-1,-1,-1,-1,-1,-1,-1,-1,-1],"split_conditions":[5.5273456E2,1.4E1,8.4747285E-1,1.9296228E3,1.8330701E3,3.128136E3,6.301281E2,9.082933E-1,9.105854E-1,9.045896E-1,4.3399817E2,8.594419E-1,3.9418015E2,2.8926614E2,9.306793E-1,-2.530604E-2,7.959403E-2,8.222533E-2,5.822144E-3,1.098144E-2,-3.942233E-2,2.3169367E-2,-5.652204E-2,-3.692394E-2,3.1154132E-2,-1.7832251E-2,7.7503207E-3,-4.3102548E-2,1.359078E-2,-1.3670515E-1,-2.2604955E-2],"split_indices":[4,0,9,6,6,6,4,5,5,7,4,7,1,1,7,0,0,0,0,0,0,0,0,0,0,0,0,0,0,0,0],"split_type":[0,0,0,0,0,0,0,0,0,0,0,0,0,0,0,0,0,0,0,0,0,0,0,0,0,0,0,0,0,0,0],"sum_hessian":[1.313E3,3.35E2,9.78E2,1.23E2,2.12E2,8.8E2,9.8E1,5E1,7.3E1,1.38E2,7.4E1,1.33E2,7.47E2,8.7E1,1.1E1,4E0,4.6E1,1.1E1,6.2E1,1.2E2,1.8E1,2.3E1,5.1E1,1.3E1,1.2E2,3.27E2,4.2E2,6.5E1,2.2E1,1E1,1E0],"tree_param":{"num_deleted":"0","num_feature":"10","num_nodes":"31","size_leaf_vector":"1"}},{"base_weights":[-1.2221355E-2,1.017324E-1,-5.027912E-1,1.8268529E0,6.0475323E-2,-1.5525244E-1,-1.4924543E0,6.303254E-2,1.10448696E-1,7.017857E-1,-2.7175955E-2,4.6936283E-1,-7.712025E-1,-1.9111385E0,-6.443403E-1,1.0047382E-2,4.6000037E-2,6.3413116E-3,-6.2634826E-2,4.930267E-3,5.7992864E-2,-1.4384942E-2,-5.441053E-2,-8.083402E-2,-1.2836176E-1,-1.9574845E-2,-7.128543E-2],"categories":[],"categories_nodes":[],"categories_segments":[],"categories_sizes":[],"default_left":[0,0,0,0,0,0,0,0,0,0,0,0,0,0,0,0,0,0,0,0,0,0,0,0,0,0,0],"id":26,"left_children":[1,3,5,7,9,11,13,-1,-1,15,17,19,21,23,25,-1,-1,-1,-1,-1,-1,-1,-1,-1,-1,-1,-1],"loss_changes":[7.087934E1,7.312699E1,8.1971466E1,2.4078445E0,5.6568016E1,6.884424E1,2.0784271E1,0E0,0E0,1.3039265E1,1.6737617E2,2.2670166E1,1.3481632E1,3.770523E0,3.7882433E0,0E0,0E0,0E0,0E0,0E0,0E0,0E0,0E0,0E0,0E0,0E0,0E0],"parents":[2147483647,0,0,1,1,2,2,3,3,4,4,5,5,6,6,9,9,10,10,11,11,12,12,13,13,14,14],"right_children":[2,4,6,8,10,12,14,-1,-1,16,18,20,22,24,26,-1,-1,-1,-1,-1,-1,-1,-1,-1,-1,-1,-1],"split_conditions":[4.0045105E3,7E0,7E0,8.970918E-1,1.3123293E3,4.3479937E3,9.406289E-1,6.303254E-2,1.10448696E-1,9.114443E-1,1.4E1,9.1705203E-1,4.544882E3,4.133889E3,4.1683516E3,1.0047382E-2,4.6000037E-2,6.3413116E-3,-6.2634826E-2,4.930267E-3,5.7992864E-2,-1.4384942E-2,-5.441053E-2,-8.083402E-2,-1.2836176E-1,-1.9574845E-2,-7.128543E-2],"split_indices":[2,0,0,3,2,2,3,0,0,3,0,3,2,2,2,0,0,0,0,0,0,0,0,0,0,0,0],"split_type":[0,0,0,0,0,0,0,0,0,0,0,0,0,0,0,0,0,0,0,0,0,0,0,0,0,0,0],"sum_hessian":[1.266E3,1.028E3,2.38E2,2.3E1,1.005E3,1.77E2,6.1E1,1.1E1,1.2E1,1.2E2,8.85E2,8.8E1,8.9E1,4E1,2.1E1,3.7E1,8.3E1,7.87E2,9.8E1,5.8E1,3E1,3.6E1,5.3E1,3E1,1E1,1.7E1,4E0],"tree_param":{"num_deleted":"0","num_feature":"10","num_nodes":"27","size_leaf_vector":"1"}},{"base_weights":[3.8377007E-3,9.7076815E-1,-5.0574653E-2,3.5598642E-1,1.2451267E0,3.245976E-4,-1.0047388E0,-3.3693114E-1,5.19597E-1,1.6791831E0,1.0170099E0,-7.0953256E-1,7.823544E-2,-1.3460251E0,-6.9325185E-1,2.2581125E-2,-3.234876E-2,6.2352223E-3,3.258613E-2,2.432704E-2,8.648095E-2,3.3190906E-2,6.3045375E-2,4.2716335E-3,-5.3195257E-2,3.378511E-2,-1.6357376E-3,-7.2947204E-2,-2.5611276E-2,-2.0389749E-2,-5.7248194E-2],"categories":[],"categories_nodes":[],"categories_segments":[],"categories_sizes":[],"default_left":[0,0,0,0,0,0,0,0,0,0,0,0,0,0,0,0,0,0,0,0,0,0,0,0,0,0,0,0,0,0,0],"id":27,"left_children":[1,3,5,7,9,11,13,15,17,19,21,23,25,27,29,-1,-1,-1,-1,-1,-1,-1,-1,-1,-1,-1,-1,-1,-1,-1,-1],"loss_changes":[6.912991E1,1.1363693E1,6.041673E1,2.782548E0,3.0450058E0,6.54267E1,5.7641563E0,1.5146203E0,9.100599E-1,6.074524E-2,2.091835E0,3.305141E1,7.0686226E1,1.9830933E0,4.0461407E0,0E0,0E0,0E0,0E0,0E0,0E0,0E0,0E0,0E0,0E0,0E0,0E0,0E0,0E0,0E0,0E0],"parents":[2147483647,0,0,1,1,2,2,3,3,4,4,5,5,6,6,7,7,8,8,9,9,10,10,11,11,12,12,13,13,14,14],"right_children":[2,4,6,8,10,12,14,16,18,20,22,24,26,28,30,-1,-1,-1,-1,-1,-1,-1,-1,-1,-1,-1,-1,-1,-1,-1,-1],"split_conditions":[1.2546731E3,9.096487E-1,4.544882E3,8.7800467E-1,1.1673911E3,2.5500562E2,9.216501E-1,1.1490576E3,8.840394E-1,2.1203369E2,2.4091722E2,1.3183064E3,1.7872589E3,4.4664478E2,4.728549E3,2.2581125E-2,-3.234876E-2,6.2352223E-3,3.258613E-2,2.432704E-2,8.648095E-2,3.3190906E-2,6.3045375E-2,4.2716335E-3,-5.3195257E-2,3.378511E-2,-1.6357376E-3,-7.2947204E-2,-2.5611276E-2,-2.0389749E-2,-5.7248194E-2],"split_indices":[2,3,2,3,2,1,3,2,7,1,1,2,2,1,2,0,0,0,0,0,0,0,0,0,0,0,0,0,0,0,0],"split_type":[0,0,0,0,0,0,0,0,0,0,0,0,0,0,0,0,0,0,0,0,0,0,0,0,0,0,0,0,0,0,0],"sum_hessian":[1.312E3,6.9E1,1.243E3,2.2E1,4.7E1,1.181E3,6.2E1,4E0,1.8E1,1.4E1,3.3E1,1.16E2,1.065E3,2.8E1,3.4E1,1E0,3E0,5E0,1.3E1,1E0,1.3E1,1.5E1,1.8E1,3.6E1,8E1,1.66E2,8.99E2,2.4E1,4E0,2.2E1,1.2E1],"tree_param":{"num_deleted":"0","num_feature":"10","num_nodes":"31","size_leaf_vector":"1"}},{"base_weights":[2.0731684E-2,1.24852054E-1,-3.9788947E-1,1.7387624E0,8.575879E-2,-8.706099E-2,-1.39627E0,5.479178E-2,1.05986096E-1,9.16483E-1,3.6124807E-2,5.251145E-1,-5.692631E-1,-1.7384496E0,-5.012704E-1,2.054497E-2,5.8250077E-2,-3.581802E-2,5.885988E-3,7.012022E-3,6.0171586E-2,-9.976509E-3,-4.780798E-2,-7.086009E-2,-1.12181604E-1,-1.2765191E-2,-6.491639E-2],"categories":[],"categories_nodes":[],"categories_segments":[],"categories_sizes":[],"default_left":[0,0,0,0,0,0,0,0,0,0,0,0,0,0,0,0,0,0,0,0,0,0,0,0,0,0,0],"id":28,"left_children":[1,3,5,7,9,11,13,-1,-1,15,17,19,21,23,25,-1,-1,-1,-1,-1,-1,-1,-1,-1,-1,-1,-1],"loss_changes":[5.5361565E1,6.401648E1,7.8390686E1,3.5554276E0,4.0951645E1,5.756624E1,1.7503601E1,0E0,0E0,6.5575333E0,5.7737988E1,2.228296E1,1.5401489E1,3.7987366E0,3.1974225E0,0E0,0E0,0E0,0E0,0E0,0E0,0E0,0E0,0E0,0E0,0E0,0E0],"parents":[2147483647,0,0,1,1,2,2,3,3,4,4,5,5,6,6,9,9,10,10,11,11,12,12,13,13,14,14],"right_children":[2,4,6,8,10,12,14,-1,-1,16,18,20,22,24,26,-1,-1,-1,-1,-1,-1,-1,-1,-1,-1,-1,-1],"split_conditions":[4.0045105E3,7E0,7E0,8.970918E-1,1.2362563E3,4.3213887E3,9.406289E-1,5.479178E-2,1.05986096E-1,9.084244E-1,2.484448E2,9.14474E-1,4.5562104E3,4.1091074E3,4.1683516E3,2.054497E-2,5.8250077E-2,-3.581802E-2,5.885988E-3,7.012022E-3,6.0171586E-2,-9.976509E-3,-4.780798E-2,-7.086009E-2,-1.12181604E-1,-1.2765191E-2,-6.491639E-2],"split_indices":[2,0,0,3,2,2,3,0,0,3,1,3,2,2,2,0,0,0,0,0,0,0,0,0,0,0,0],"split_type":[0,0,0,0,0,0,0,0,0,0,0,0,0,0,0,0,0,0,0,0,0,0,0,0,0,0,0],"sum_hessian":[1.268E3,1.016E3,2.52E2,2.3E1,9.93E2,1.93E2,5.9E1,1E1,1.3E1,5.5E1,9.38E2,8.5E1,1.08E2,4.2E1,1.7E1,1.9E1,3.6E1,9.1E1,8.47E2,5.5E1,3E1,5.6E1,5.2E1,2.8E1,1.4E1,1.4E1,3E0],"tree_param":{"num_deleted":"0","num_feature":"10","num_nodes":"27","size_leaf_vector":"1"}},{"base_weights":[-7.388508E-3,3.7668192E-1,-1.368697E-1,1.3785431E0,-1.2367612E-1,8.505572E-3,-1.361241E0,2.64427E0,9.6544147E-1,5.215244E-1,-1.3775302E0,1.8588121E0,-1.3259093E-1,-4.1340244E-1,-2.2646742E0,1.6747368E-2,1.3616225E-1,6.756022E-2,3.4845002E-2,5.532049E-2,1.5070534E-2,-4.943238E-2,-1.3627197E-1,1.1725952E-1,6.5623604E-2,7.5747925E-3,-2.3836937E-2,-5.8508016E-2,-1.1168953E-2,-8.777947E-2,-1.5643731E-1],"categories":[],"categories_nodes":[],"categories_segments":[],"categories_sizes":[],"default_left":[0,0,0,0,0,0,0,0,0,0,0,0,0,0,0,0,0,0,0,0,0,0,0,0,0,0,0,0,0,0,0],"id":29,"left_children":[1,3,5,7,9,11,13,15,17,19,21,23,25,27,29,-1,-1,-1,-1,-1,-1,-1,-1,-1,-1,-1,-1,-1,-1,-1,-1],"loss_changes":[6.3904743E1,1.6258824E2,1.7106316E2,5.391748E1,1.7626866E2,2.247682E2,8.640726E1,3.829712E0,7.6565857E0,1.8205269E1,3.609471E1,1.3131393E1,7.828649E1,7.0724964E0,1.7381256E1,0E0,0E0,0E0,0E0,0E0,0E0,0E0,0E0,0E0,0E0,0E0,0E0,0E0,0E0,0E0,0E0],"parents":[2147483647,0,0,1,1,2,2,3,3,4,4,5,5,6,6,7,7,8,8,9,9,10,10,11,11,12,12,13,13,14,14],"right_children":[2,4,6,8,10,12,14,16,18,20,22,24,26,28,30,-1,-1,-1,-1,-1,-1,-1,-1,-1,-1,-1,-1,-1,-1,-1,-1],"split_conditions":[1.7872589E3,1.4E1,1.2E1,1.6382352E3,1.3386375E3,2.1013613E3,1.8771635E3,8.570618E-1,1.7082706E3,1.2019873E3,1.4206475E3,2.039635E3,1.8829858E2,8.976876E-1,1.9651162E3,1.6747368E-2,1.3616225E-1,6.756022E-2,3.4845002E-2,5.532049E-2,1.5070534E-2,-4.943238E-2,-1.3627197E-1,1.1725952E-1,6.5623604E-2,7.5747925E-3,-2.3836937E-2,-5.8508016E-2,-1.1168953E-2,-8.777947E-2,-1.5643731E-1],"split_indices":[2,0,0,2,2,2,2,3,2,2,2,2,8,3,2,0,0,0,0,0,0,0,0,0,0,0,0,0,0,0,0],"split_type":[0,0,0,0,0,0,0,0,0,0,0,0,0,0,0,0,0,0,0,0,0,0,0,0,0,0,0,0,0,0,0],"sum_hessian":[1.283E3,3.23E2,9.6E2,1.07E2,2.16E2,8.59E2,1.01E2,2.5E1,8.2E1,1.43E2,7.3E1,6E1,7.99E2,5E1,5.1E1,1E0,2.4E1,3.2E1,5E1,3.8E1,1.05E2,5.8E1,1.5E1,3E1,3E1,4.38E2,3.61E2,9E0,4.1E1,3.4E1,1.7E1],"tree_param":{"num_deleted":"0","num_feature":"10","num_nodes":"31","size_leaf_vector":"1"}},{"base_weights":[7.480342E-3,9.944857E-2,-3.896861E-1,6.8331116E-1,-4.8209466E-2,-1.1787512E-1,-1.3567502E0,2.0068903E0,2.4887726E-1,7.5233445E-2,-2.0737262E0,4.2481154E-1,-6.105412E-1,-1.9762952E0,-8.884146E-1,1.1740682E-1,6.1593127E-2,8.301267E-2,-6.198436E-4,3.0312812E-2,-4.5501017E-3,-1.23726666E-1,-6.944347E-2,-5.3717676E-3,3.8757235E-2,-5.2045006E-2,-1.4691792E-2,-6.213056E-2,-1.08688176E-1,-7.1038626E-2,-1.6755616E-2],"categories":[],"categories_nodes":[],"categories_segments":[],"categories_sizes":[],"default_left":[0,0,0,0,0,0,0,0,0,0,0,0,0,0,0,0,0,0,0,0,0,0,0,0,0,0,0,0,0,0,0],"id":30,"left_children":[1,3,5,7,9,11,13,15,17,19,21,23,25,27,29,-1,-1,-1,-1,-1,-1,-1,-1,-1,-1,-1,-1,-1,-1,-1,-1],"loss_changes":[4.7012077E1,9.012449E1,6.3451866E1,1.2082715E2,2.0893578E2,5.1058395E1,1.3622452E1,1.0860138E1,5.9021557E1,6.961574E1,9.738998E0,1.7051474E1,1.3323845E1,4.8620605E-1,8.949636E0,0E0,0E0,0E0,0E0,0E0,0E0,0E0,0E0,0E0,0E0,0E0,0E0,0E0,0E0,0E0,0E0],"parents":[2147483647,0,0,1,1,2,2,3,3,4,4,5,5,6,6,7,7,8,8,9,9,10,10,11,11,12,12,13,13,14,14],"right_children":[2,4,6,8,10,12,14,16,18,20,22,24,26,28,30,-1,-1,-1,-1,-1,-1,-1,-1,-1,-1,-1,-1,-1,-1,-1,-1],"split_conditions":[4.0045105E3,8E0,7E0,3.64283E3,3.2260615E3,4.3372305E3,9.220486E-1,3.605912E3,7E0,7.5192463E-1,9.3370026E-1,8.953628E-1,9.109097E-1,4.0372585E3,3.9759912E2,1.1740682E-1,6.1593127E-2,8.301267E-2,-6.198436E-4,3.0312812E-2,-4.5501017E-3,-1.23726666E-1,-6.944347E-2,-5.3717676E-3,3.8757235E-2,-5.2045006E-2,-1.4691792E-2,-6.213056E-2,-1.08688176E-1,-7.1038626E-2,-1.6755616E-2],"split_indices":[2,0,0,2,2,2,3,2,0,9,3,3,3,2,1,0,0,0,0,0,0,0,0,0,0,0,0,0,0,0,0],"split_type":[0,0,0,0,0,0,0,0,0,0,0,0,0,0,0,0,0,0,0,0,0,0,0,0,0,0,0,0,0,0,0],"sum_hessian":[1.285E3,1.044E3,2.41E2,2.1E2,8.34E2,1.89E2,5.2E1,5.1E1,1.59E2,7.87E2,4.7E1,9E1,9.9E1,2.1E1,3.1E1,3.4E1,1.7E1,2.4E1,1.35E2,1.87E2,6E2,2.8E1,1.9E1,3.6E1,5.4E1,4.1E1,5.8E1,6E0,1.5E1,1.5E1,1.6E1],"tree_param":{"num_deleted":"0","num_feature":"10","num_nodes":"31","size_leaf_vector":"1"}},{"base_weights":[1.2907155E-2,3.4939167E-1,-1.0204566E-1,1.3367912E0,-1.548726E-1,4.7213588E-2,-1.3574411E0,2.5729954E0,9.5198536E-1,4.4765484E-1,-1.2796658E0,1.8790022E0,-8.643628E-2,-8.505017E-1,-2.9050717E0,3.7808053E-2,1.3464458E-1,1.077288E-2,5.8431435E-2,4.8933107E-2,9.421009E-3,-4.0822875E-2,-1.16585016E-1,1.08164385E-1,6.307836E-2,1.4454037E-3,-3.3383884E-2,-1.8686106E-2,-6.9080524E-2,-2.9125048E-2,-1.4887874E-1],"categories":[],"categories_nodes":[],"categories_segments":[],"categories_sizes":[],"default_left":[0,0,0,0,0,0,0,0,0,0,0,0,0,0,0,0,0,0,0,0,0,0,0,0,0,0,0,0,0,0,0],"id":31,"left_children":[1,3,5,7,9,11,13,15,17,19,21,23,25,27,29,-1,-1,-1,-1,-1,-1,-1,-1,-1,-1,-1,-1,-1,-1,-1,-1],"loss_changes":[5.0280766E1,1.6501532E2,1.816347E2,5.0828796E1,1.4967099E2,2.1241986E2,7.833836E1,3.6273499E0,1.3630249E1,1.963799E1,3.5619225E1,7.627014E0,5.4257015E1,1.9488174E1,2.4753723E0,0E0,0E0,0E0,0E0,0E0,0E0,0E0,0E0,0E0,0E0,0E0,0E0,0E0,0E0,0E0,0E0],"parents":[2147483647,0,0,1,1,2,2,3,3,4,4,5,5,6,6,7,7,8,8,9,9,10,10,11,11,12,12,13,13,14,14],"right_children":[2,4,6,8,10,12,14,16,18,20,22,24,26,28,30,-1,-1,-1,-1,-1,-1,-1,-1,-1,-1,-1,-1,-1,-1,-1,-1],"split_conditions":[1.7872589E3,1.4E1,1.2E1,1.6173899E3,1.3386375E3,2.1013613E3,1.9466195E3,8.63272E-1,8.879924E-1,1.220619E3,1.4072424E3,2.0701306E3,7.5192463E-1,1.860744E3,8.904019E-1,3.7808053E-2,1.3464458E-1,1.077288E-2,5.8431435E-2,4.8933107E-2,9.421009E-3,-4.0822875E-2,-1.16585016E-1,1.08164385E-1,6.307836E-2,1.4454037E-3,-3.3383884E-2,-1.8686106E-2,-6.9080524E-2,-2.9125048E-2,-1.4887874E-1],"split_indices":[2,0,0,2,2,2,2,3,3,2,2,2,9,2,7,0,0,0,0,0,0,0,0,0,0,0,0,0,0,0,0],"split_type":[0,0,0,0,0,0,0,0,0,0,0,0,0,0,0,0,0,0,0,0,0,0,0,0,0,0,0,0,0,0,0],"sum_hessian":[1.298E3,3.3E2,9.68E2,1.11E2,2.19E2,8.66E2,1.02E2,2.5E1,8.6E1,1.43E2,7.6E1,5.8E1,8.08E2,7.8E1,2.4E1,2E0,2.3E1,2E1,6.6E1,4.6E1,9.7E1,5.4E1,2.2E1,3.8E1,2E1,6.75E2,1.33E2,4.2E1,3.6E1,1E0,2.3E1],"tree_param":{"num_deleted":"0","num_feature":"10","num_nodes":"31","size_leaf_vector":"1"}},{"base_weights":[2.2636512E-2,2.626611E-1,-7.40832E-2,4.8214942E-1,-3.7301634E-2,6.75756E-2,-3.002841E-1,7.804171E-1,3.3894703E-1,-2.6563767E-1,3.98919E-1,4.5948547E-1,-6.0139343E-2,-2.038374E-1,-1.4500948E0,2.5101742E-2,4.872733E-2,-1.9547218E-2,3.1522587E-2,-5.3088844E-2,-7.945302E-3,4.3923095E-2,3.3567627E-3,7.15795E-2,1.3638468E-2,1.3670953E-3,-4.2822655E-2,8.5505453E-4,-2.090922E-2,-2.9176354E-2,-9.627577E-2],"categories":[],"categories_nodes":[],"categories_segments":[],"categories_sizes":[],"default_left":[0,0,0,0,0,0,0,0,0,0,0,0,0,0,0,0,0,0,0,0,0,0,0,0,0,0,0,0,0,0,0],"id":32,"left_children":[1,3,5,7,9,11,13,15,17,19,21,23,25,27,29,-1,-1,-1,-1,-1,-1,-1,-1,-1,-1,-1,-1,-1,-1,-1,-1],"loss_changes":[2.9665155E1,2.4180645E1,2.9211779E1,8.790562E0,1.5644329E1,2.8107224E1,3.862871E1,3.1856117E0,3.1097654E1,8.583519E0,8.532669E0,2.4657555E1,2.956033E1,1.5398343E1,9.999981E0,0E0,0E0,0E0,0E0,0E0,0E0,0E0,0E0,0E0,0E0,0E0,0E0,0E0,0E0,0E0,0E0],"parents":[2147483647,0,0,1,1,2,2,3,3,4,4,5,5,6,6,7,7,8,8,9,9,10,10,11,11,12,12,13,13,14,14],"right_children":[2,4,6,8,10,12,14,16,18,20,22,24,26,28,30,-1,-1,-1,-1,-1,-1,-1,-1,-1,-1,-1,-1,-1,-1,-1,-1],"split_conditions":[6.67467E1,5.0356147E3,6.681086E2,1.0089709E3,4.3049442E2,1.2E1,9.1474974E-1,-1.9823492E2,1.1022251E3,5.0876772E3,1.5533597E3,5.7777277E2,5.8205273E2,3.6829437E2,3.413944E3,2.5101742E-2,4.872733E-2,-1.9547218E-2,3.1522587E-2,-5.3088844E-2,-7.945302E-3,4.3923095E-2,3.3567627E-3,7.15795E-2,1.3638468E-2,1.3670953E-3,-4.2822655E-2,8.5505453E-4,-2.090922E-2,-2.9176354E-2,-9.627577E-2],"split_indices":[8,6,4,4,1,0,5,8,4,6,4,4,4,8,8,0,0,0,0,0,0,0,0,0,0,0,0,0,0,0,0],"split_type":[0,0,0,0,0,0,0,0,0,0,0,0,0,0,0,0,0,0,0,0,0,0,0,0,0,0,0,0,0,0,0],"sum_hessian":[1.276E3,3.66E2,9.1E2,2.11E2,1.55E2,5.6E2,3.5E2,6.7E1,1.44E2,1.02E2,5.3E1,1.37E2,4.23E2,3.24E2,2.6E1,2.9E1,3.8E1,4.1E1,1.03E2,1.1E1,9.1E1,2.1E1,3.2E1,2.1E1,1.16E2,3.82E2,4.1E1,1.6E2,1.64E2,1E1,1.6E1],"tree_param":{"num_deleted":"0","num_feature":"10","num_nodes":"31","size_leaf_vector":"1"}},{"base_weights":[-2.2996288E-2,1.5549881E-2,-9.6050215E-1,5.6285053E-1,-4.2998806E-2,-6.615747E-2,-7.0383203E-1,3.9667922E-1,1.1483667E0,5.7291053E-2,-1.068534E0,-4.8830962E-1,-1.0223435E0,5.7780027E-2,1.1996823E-2,6.4834125E-2,4.1411888E-2,9.168302E-2,-2.0829341E-3,-3.2619905E-2,-1.2571354E-1,-2.8720787E-2,1.062268E-3,-5.3030055E-2,-1.5037757E-2],"categories":[],"categories_nodes":[],"categories_segments":[],"categories_sizes":[],"default_left":[0,0,0,0,0,0,0,0,0,0,0,0,0,0,0,0,0,0,0,0,0,0,0,0,0],"id":33,"left_children":[1,3,5,7,9,-1,11,13,15,17,19,21,23,-1,-1,-1,-1,-1,-1,-1,-1,-1,-1,-1,-1],"loss_changes":[4.6668137E1,3.9790478E1,3.8158455E0,1.1219982E1,1.154598E2,0E0,1.697464E0,1.1023496E1,1.6052246E-1,1.7989043E2,5.8521996E1,9.335952E-1,1.2292862E-2,0E0,0E0,0E0,0E0,0E0,0E0,0E0,0E0,0E0,0E0,0E0,0E0],"parents":[2147483647,0,0,1,1,2,2,3,3,4,4,6,6,7,7,8,8,9,9,10,10,11,11,12,12],"right_children":[2,4,6,8,10,-1,12,14,16,18,20,22,24,-1,-1,-1,-1,-1,-1,-1,-1,-1,-1,-1,-1],"split_conditions":[4.590633E3,1.3123293E3,9.1733694E-1,9.389848E-1,1.4E1,-6.615747E-2,4.728549E3,1.1673911E3,1.295911E3,1.7082706E3,1.4206475E3,9.500119E-1,9.5169634E-1,5.7780027E-2,1.1996823E-2,6.4834125E-2,4.1411888E-2,9.168302E-2,-2.0829341E-3,-3.2619905E-2,-1.2571354E-1,-2.8720787E-2,1.062268E-3,-5.3030055E-2,-1.5037757E-2],"split_indices":[2,2,3,3,0,0,2,2,2,2,2,3,3,0,0,0,0,0,0,0,0,0,0,0,0],"split_type":[0,0,0,0,0,0,0,0,0,0,0,0,0,0,0,0,0,0,0,0,0,0,0,0,0],"sum_hessian":[1.29E3,1.24E3,5E1,1.19E2,1.121E3,1.9E1,3.1E1,9.4E1,2.5E1,1.022E3,9.9E1,2E1,1.1E1,1.5E1,7.9E1,1.5E1,1E1,5.3E1,9.69E2,7.8E1,2.1E1,1.7E1,3E0,1E1,1E0],"tree_param":{"num_deleted":"0","num_feature":"10","num_nodes":"25","size_leaf_vector":"1"}},{"base_weights":[4.988728E-3,5.5716082E-2,-6.147732E-1,6.6537994E-1,-1.1062576E-2,-9.975619E-1,-3.2864848E-1,1.1944238E0,1.428812E-1,1.00686274E-1,-8.407327E-1,-1.0526888E0,-2.2446507E-1,-5.041007E-3,-6.880256E-1,1.4477864E-2,7.516705E-2,-1.2925401E-2,3.778681E-2,5.1502623E-2,-1.037638E-3,-6.7994975E-2,-2.372255E-2,-4.505213E-2,-6.9359705E-2,-2.888701E-2,4.2936685E-3,9.522045E-3,-6.86077E-2,-3.9396893E-2,4.1727126E-3],"categories":[],"categories_nodes":[],"categories_segments":[],"categories_sizes":[],"default_left":[0,0,0,0,0,0,0,0,0,0,0,0,0,0,0,0,0,0,0,0,0,0,0,0,0,0,0,0,0,0,0],"id":34,"left_children":[1,3,5,7,9,11,13,15,17,19,21,23,25,27,29,-1,-1,-1,-1,-1,-1,-1,-1,-1,-1,-1,-1,-1,-1,-1,-1],"loss_changes":[4.030746E1,4.8251717E1,1.0296108E1,3.2171032E1,9.919665E1,1.5110664E0,6.625468E0,1.5777367E1,1.4954968E1,1.06449615E2,2.3505287E1,6.776848E-1,4.8815185E-1,8.545936E0,2.146925E0,0E0,0E0,0E0,0E0,0E0,0E0,0E0,0E0,0E0,0E0,0E0,0E0,0E0,0E0,0E0,0E0],"parents":[2147483647,0,0,1,1,2,2,3,3,4,4,5,5,6,6,7,7,8,8,9,9,10,10,11,11,12,12,13,13,14,14],"right_children":[2,4,6,8,10,12,14,16,18,20,22,24,26,28,30,-1,-1,-1,-1,-1,-1,-1,-1,-1,-1,-1,-1,-1,-1,-1,-1],"split_conditions":[4.3479937E3,7E0,9.1402024E-1,4.186211E3,3.803167E3,4.4664478E2,4.615366E3,8.8022405E-1,9.1305935E-1,8E0,9.127245E-1,4.654756E3,8.959253E-1,6.9402647E-1,9.500119E-1,1.4477864E-2,7.516705E-2,-1.2925401E-2,3.778681E-2,5.1502623E-2,-1.037638E-3,-6.7994975E-2,-2.372255E-2,-4.505213E-2,-6.9359705E-2,-2.888701E-2,4.2936685E-3,9.522045E-3,-6.86077E-2,-3.9396893E-2,4.1727126E-3],"split_indices":[2,0,3,2,2,1,2,3,3,0,3,2,3,7,3,0,0,0,0,0,0,0,0,0,0,0,0,0,0,0,0],"split_type":[0,0,0,0,0,0,0,0,0,0,0,0,0,0,0,0,0,0,0,0,0,0,0,0,0,0,0,0,0,0,0],"sum_hessian":[1.28E3,1.184E3,9.6E1,1.16E2,1.068E3,4E1,5.6E1,5.7E1,5.9E1,9.42E2,1.26E2,3.7E1,3E0,3E1,2.6E1,1.5E1,4.2E1,3.6E1,2.3E1,1.08E2,8.34E2,5.1E1,7.5E1,2.8E1,9E0,1E0,2E0,2.7E1,3E0,2.3E1,3E0],"tree_param":{"num_deleted":"0","num_feature":"10","num_nodes":"31","size_leaf_vector":"1"}},{"base_weights":[-1.8995654E-2,4.451207E-1,-6.959643E-2,1.5369666E0,3.512068E-1,-3.102908E-2,-5.8453816E-1,8.4043525E-2,6.045771E-3,4.9655014E-1,-1.2700479E-1,-9.153121E-2,4.0294597E-1,-3.8166785E-1,-2.438739E0,-2.0758195E-2,3.119581E-2,2.0470697E-2,-2.6486823E-2,-2.844493E-3,-3.1912103E-2,2.9656624E-2,-3.648963E-2,6.1075944E-3,-3.6572907E-2,-1.4332831E-1,1.390127E-2],"categories":[],"categories_nodes":[],"categories_segments":[],"categories_sizes":[],"default_left":[0,0,0,0,0,0,0,0,0,0,0,0,0,0,0,0,0,0,0,0,0,0,0,0,0,0,0],"id":35,"left_children":[1,3,5,7,9,11,13,-1,-1,15,17,19,21,23,25,-1,-1,-1,-1,-1,-1,-1,-1,-1,-1,-1,-1],"loss_changes":[3.10542E1,1.27903385E1,2.3654911E1,1.8345089E0,8.473153E0,2.9181501E1,3.029069E1,0E0,0E0,1.1058319E1,6.4818325E0,1.842902E1,2.9731562E1,1.3482925E1,1.0095421E1,0E0,0E0,0E0,0E0,0E0,0E0,0E0,0E0,0E0,0E0,0E0,0E0],"parents":[2147483647,0,0,1,1,2,2,3,3,4,4,5,5,6,6,9,9,10,10,11,11,12,12,13,13,14,14],"right_children":[2,4,6,8,10,12,14,-1,-1,16,18,20,22,24,26,-1,-1,-1,-1,-1,-1,-1,-1,-1,-1,-1,-1],"split_conditions":[-3.5919025E2,9.363165E2,3.6863088E3,4.0097824E2,1.5352681E3,2.98915E3,7.5847473E2,8.4043525E-2,6.045771E-3,1.02086053E3,-6.135089E2,2.309885E3,6.866512E2,9.0676856E-1,9.1822094E-1,-2.0758195E-2,3.119581E-2,2.0470697E-2,-2.6486823E-2,-2.844493E-3,-3.1912103E-2,2.9656624E-2,-3.648963E-2,6.1075944E-3,-3.6572907E-2,-1.4332831E-1,1.390127E-2],"split_indices":[8,4,8,1,4,8,4,0,0,4,8,8,4,3,3,0,0,0,0,0,0,0,0,0,0,0,0],"split_type":[0,0,0,0,0,0,0,0,0,0,0,0,0,0,0,0,0,0,0,0,0,0,0,0,0,0,0],"sum_hessian":[1.32E3,1.29E2,1.191E3,9E0,1.2E2,1.109E3,8.2E1,8E0,1E0,9.2E1,2.8E1,9.74E2,1.35E2,7.5E1,7E0,1.1E1,8.1E1,1.2E1,1.6E1,9.17E2,5.7E1,1.16E2,1.9E1,3.1E1,4.4E1,6E0,1E0],"tree_param":{"num_deleted":"0","num_feature":"10","num_nodes":"27","size_leaf_vector":"1"}},{"base_weights":[-1.5539227E-2,2.8269643E-1,-1.1576506E-1,-2.4761342E-1,1.1774482E0,-1.180766E0,1.8120937E-2,3.8755304E-1,-1.2704769E0,1.9644091E0,7.74289E-1,-2.7221406E-1,-1.6771828E0,1.7442864E0,-1.0783594E-1,2.034138E-4,3.521429E-2,-4.700953E-2,-1.1233097E-1,2.3795178E-3,1.0880335E-1,6.325256E-3,4.994525E-2,-5.1440675E-2,-2.188752E-3,-1.1011293E-1,-5.9543874E-2,1.1914612E-1,7.330448E-2,2.2093172E-4,-4.828277E-2],"categories":[],"categories_nodes":[],"categories_segments":[],"categories_sizes":[],"default_left":[0,0,0,0,0,0,0,0,0,0,0,0,0,0,0,0,0,0,0,0,0,0,0,0,0,0,0,0,0,0,0],"id":36,"left_children":[1,3,5,7,9,11,13,15,17,19,21,23,25,27,29,-1,-1,-1,-1,-1,-1,-1,-1,-1,-1,-1,-1,-1,-1,-1,-1],"loss_changes":[3.8263206E1,1.5307915E2,1.3662138E2,1.3237918E2,3.6551422E1,4.7802643E1,1.8543199E2,1.5301371E1,2.3035454E1,1.6124832E1,1.1659344E1,6.6955996E0,1.4996338E1,6.811081E0,7.655812E1,0E0,0E0,0E0,0E0,0E0,0E0,0E0,0E0,0E0,0E0,0E0,0E0,0E0,0E0,0E0,0E0],"parents":[2147483647,0,0,1,1,2,2,3,3,4,4,5,5,6,6,7,7,8,8,9,9,10,10,11,11,12,12,13,13,14,14],"right_children":[2,4,6,8,10,12,14,16,18,20,22,24,26,28,30,-1,-1,-1,-1,-1,-1,-1,-1,-1,-1,-1,-1,-1,-1,-1,-1],"split_conditions":[1.7872589E3,1.844618E3,2.7769019E3,1.3386375E3,1.6574578E3,1.860744E3,2.108374E3,9.204895E-1,1.4206475E3,1.3261927E3,8.9631724E-1,8.976876E-1,9.1705203E-1,1.9863293E3,3.582594E3,2.034138E-4,3.521429E-2,-4.700953E-2,-1.1233097E-1,2.3795178E-3,1.0880335E-1,6.325256E-3,4.994525E-2,-5.1440675E-2,-2.188752E-3,-1.1011293E-1,-5.9543874E-2,1.1914612E-1,7.330448E-2,2.2093172E-4,-4.828277E-2],"split_indices":[2,8,6,2,2,2,2,3,2,2,3,3,3,2,8,0,0,0,0,0,0,0,0,0,0,0,0,0,0,0,0],"split_type":[0,0,0,0,0,0,0,0,0,0,0,0,0,0,0,0,0,0,0,0,0,0,0,0,0,0,0,0,0,0,0],"sum_hessian":[1.278E3,3.21E2,9.57E2,2.02E2,1.19E2,1.06E2,8.51E2,1.25E2,7.7E1,3.9E1,8E1,3.8E1,6.8E1,5.7E1,7.94E2,5.7E1,6.8E1,5.9E1,1.8E1,4E0,3.5E1,2.1E1,5.9E1,8E0,3E1,3.1E1,3.7E1,1.5E1,4.2E1,7.03E2,9.1E1],"tree_param":{"num_deleted":"0","num_feature":"10","num_nodes":"31","size_leaf_vector":"1"}},{"base_weights":[-3.1481513E-3,6.826946E-1,-5.0425395E-2,1.5930282E-1,9.1863996E-1,3.4208048E-2,-7.0443594E-1,-3.494662E-1,3.548453E-1,7.059889E-2,7.557059E-1,1.4281677E0,-8.0224514E-2,-2.1935461E-1,-1.771026E0,-3.3875767E-2,7.398087E-3,-3.1321186E-3,2.691215E-2,2.9745761E-2,5.9930593E-2,1.1486571E-1,4.877646E-2,-4.11418E-2,1.97103E-3,-2.42576E-2,1.6370056E-2,-6.34219E-2,-1.2699331E-1],"categories":[],"categories_nodes":[],"categories_segments":[],"categories_sizes":[],"default_left":[0,0,0,0,0,0,0,0,0,0,0,0,0,0,0,0,0,0,0,0,0,0,0,0,0,0,0,0,0],"id":37,"left_children":[1,3,5,7,9,11,13,15,17,-1,19,21,23,25,27,-1,-1,-1,-1,-1,-1,-1,-1,-1,-1,-1,-1,-1,-1],"loss_changes":[4.1732662E1,1.01034775E1,6.666691E1,2.810127E0,3.5147095E0,1.7031642E2,7.101037E1,1.4056926E0,1.565043E0,0E0,2.4916096E0,2.9625046E1,8.772723E1,1.4110159E1,1.3393967E1,0E0,0E0,0E0,0E0,0E0,0E0,0E0,0E0,0E0,0E0,0E0,0E0,0E0,0E0],"parents":[2147483647,0,0,1,1,2,2,3,3,4,4,5,5,6,6,7,7,8,8,10,10,11,11,12,12,13,13,14,14],"right_children":[2,4,6,8,10,12,14,16,18,-1,20,22,24,26,28,-1,-1,-1,-1,-1,-1,-1,-1,-1,-1,-1,-1,-1,-1],"split_conditions":[1.2714209E3,9.096487E-1,1.4E1,8.8658684E-1,1.1673911E3,1.7366154E3,1.3877644E3,4.5188055E2,8.7566423E-1,7.059889E-2,9.4184923E-1,1.6382352E3,2.7769019E3,9.410953E-1,1.4357789E3,-3.3875767E-2,7.398087E-3,-3.1321186E-3,2.691215E-2,2.9745761E-2,5.9930593E-2,1.1486571E-1,4.877646E-2,-4.11418E-2,1.97103E-3,-2.42576E-2,1.6370056E-2,-6.34219E-2,-1.2699331E-1],"split_indices":[2,3,0,3,2,2,2,4,9,0,3,2,6,3,2,0,0,0,0,0,0,0,0,0,0,0,0,0,0],"split_type":[0,0,0,0,0,0,0,0,0,0,0,0,0,0,0,0,0,0,0,0,0,0,0,0,0,0,0,0,0],"sum_hessian":[1.285E3,8.2E1,1.203E3,2.6E1,5.6E1,1.066E3,1.37E2,7E0,1.9E1,1.2E1,4.4E1,8E1,9.86E2,9.5E1,4.2E1,4E0,3E0,6E0,1.3E1,3.4E1,1E1,2.6E1,5.4E1,1.36E2,8.5E2,6.4E1,3.1E1,2.7E1,1.5E1],"tree_param":{"num_deleted":"0","num_feature":"10","num_nodes":"29","size_leaf_vector":"1"}},{"base_weights":[-7.7199964E-3,4.581371E-2,-5.678431E-1,7.1665466E-1,-2.2952717E-2,-9.26058E-1,-2.8471226E-1,3.1676516E-1,1.2783473E0,6.0984597E-2,-9.1043156E-1,-9.4776285E-1,2.8944076E-3,-1.9241269E-1,-8.105512E-2,4.0970217E-2,-5.5449917E-3,8.362642E-2,3.741051E-2,3.6721263E-2,-2.7963386E-3,-6.4380676E-2,-1.5747767E-2,-3.772913E-2,-5.7088383E-2,1.4607223E-2,-2.803582E-2],"categories":[],"categories_nodes":[],"categories_segments":[],"categories_sizes":[],"default_left":[0,0,0,0,0,0,0,0,0,0,0,0,0,0,0,0,0,0,0,0,0,0,0,0,0,0,0],"id":38,"left_children":[1,3,5,7,9,11,13,15,17,19,21,23,-1,25,-1,-1,-1,-1,-1,-1,-1,-1,-1,-1,-1,-1,-1],"loss_changes":[3.8497368E1,5.408238E1,1.109557E1,2.4078087E1,7.9315636E1,1.1013298E0,7.5823636E0,1.406335E1,8.152252E0,7.6648155E1,2.025792E1,9.373779E-1,0E0,1.1050125E1,0E0,0E0,0E0,0E0,0E0,0E0,0E0,0E0,0E0,0E0,0E0,0E0,0E0],"parents":[2147483647,0,0,1,1,2,2,3,3,4,4,5,5,6,6,7,7,8,8,9,9,10,10,11,11,13,13],"right_children":[2,4,6,8,10,12,14,16,18,20,22,24,-1,26,-1,-1,-1,-1,-1,-1,-1,-1,-1,-1,-1,-1,-1],"split_conditions":[4.3213887E3,7E0,9.1402024E-1,9.06201E-1,3.8762864E3,4.5850897E2,7E0,4.1508887E3,4.186211E3,8E0,9.29194E-1,4.507458E3,2.8944076E-3,4.590633E3,-8.105512E-2,4.0970217E-2,-5.5449917E-3,8.362642E-2,3.741051E-2,3.6721263E-2,-2.7963386E-3,-6.4380676E-2,-1.5747767E-2,-3.772913E-2,-5.7088383E-2,1.4607223E-2,-2.803582E-2],"split_indices":[2,0,3,3,2,1,0,2,2,0,3,2,0,2,0,0,0,0,0,0,0,0,0,0,0,0,0],"split_type":[0,0,0,0,0,0,0,0,0,0,0,0,0,0,0,0,0,0,0,0,0,0,0,0,0,0,0],"sum_hessian":[1.282E3,1.171E3,1.11E2,1.08E2,1.063E3,4.8E1,6.3E1,6.4E1,4.4E1,9.72E2,9.1E1,4.7E1,1E0,6E1,3E0,2.9E1,3.5E1,2.4E1,2E1,1.43E2,8.29E2,5.5E1,3.6E1,2.6E1,2.1E1,2.6E1,3.4E1],"tree_param":{"num_deleted":"0","num_feature":"10","num_nodes":"27","size_leaf_vector":"1"}},{"base_weights":[-3.1033924E-2,7.159105E-1,-8.067237E-2,2.1841969E-1,9.018903E-1,-1.3731451E-2,-6.306648E-1,3.3786368E-1,-4.035443E-1,6.588526E-2,7.1301705E-1,1.5963547E0,-9.3146056E-2,-1.4382507E-1,-1.8167224E0,1.6980649E-3,2.5615498E-2,-2.3175502E-2,-5.591178E-3,2.65666E-2,5.247456E-2,1.1824745E-1,5.6907654E-2,-4.3067822E-4,-3.0228322E-2,-5.7030227E-2,1.3165119E-3,-1.17417E-1,-6.625848E-2],"categories":[],"categories_nodes":[],"categories_segments":[],"categories_sizes":[],"default_left":[0,0,0,0,0,0,0,0,0,0,0,0,0,0,0,0,0,0,0,0,0,0,0,0,0,0,0,0,0],"id":39,"left_children":[1,3,5,7,9,11,13,15,17,-1,19,21,23,25,27,-1,-1,-1,-1,-1,-1,-1,-1,-1,-1,-1,-1,-1,-1],"loss_changes":[4.5217735E1,6.83477E0,4.2073174E1,1.7707202E0,3.3799515E0,1.3057034E2,7.133879E1,9.898796E-1,1.8141627E-2,0E0,1.8876629E0,1.4212547E1,4.205918E1,1.5125084E1,6.2955017E0,0E0,0E0,0E0,0E0,0E0,0E0,0E0,0E0,0E0,0E0,0E0,0E0,0E0,0E0],"parents":[2147483647,0,0,1,1,2,2,3,3,4,4,5,5,6,6,7,7,8,8,10,10,11,11,12,12,13,13,14,14],"right_children":[2,4,6,8,10,12,14,16,18,-1,20,22,24,26,28,-1,-1,-1,-1,-1,-1,-1,-1,-1,-1,-1,-1,-1,-1],"split_conditions":[1.2714209E3,9.084244E-1,1.4E1,9.003709E-1,1.1839408E3,1.7082706E3,1.3914624E3,8.7566423E-1,8.7800467E-1,6.588526E-2,9.4184923E-1,1.6056324E3,8.512716E-1,9.010619E-1,9.3737006E-1,1.6980649E-3,2.5615498E-2,-2.3175502E-2,-5.591178E-3,2.65666E-2,5.247456E-2,1.1824745E-1,5.6907654E-2,-4.3067822E-4,-3.0228322E-2,-5.7030227E-2,1.3165119E-3,-1.17417E-1,-6.625848E-2],"split_indices":[2,3,0,7,2,2,2,9,3,0,3,2,9,3,3,0,0,0,0,0,0,0,0,0,0,0,0,0,0],"split_type":[0,0,0,0,0,0,0,0,0,0,0,0,0,0,0,0,0,0,0,0,0,0,0,0,0,0,0,0,0],"sum_hessian":[1.217E3,7.5E1,1.142E3,2.1E1,5.4E1,1.019E3,1.23E2,1.8E1,3E0,1.5E1,3.9E1,4.7E1,9.72E2,8.8E1,3.5E1,7E0,1.1E1,2E0,1E0,2.7E1,1.2E1,1.6E1,3.1E1,8.35E2,1.37E2,1.2E1,7.6E1,1.5E1,2E1],"tree_param":{"num_deleted":"0","num_feature":"10","num_nodes":"29","size_leaf_vector":"1"}},{"base_weights":[-4.251515E-2,1.7246991E-1,-1.9419487E-1,-5.4556865E-2,9.966782E-1,-1.2820752E0,-3.02901E-2,1.8783821E-1,-1.5632533E0,1.7841783E0,3.8769078E-1,-5.035678E-1,-2.3788588E0,1.1344358E0,-2.0670973E-1,-5.5148546E-3,3.127276E-2,-5.5983067E-2,-1.0851585E-1,1.2277014E-2,9.3959324E-2,2.244436E-3,5.058628E-2,-5.1258083E-2,-5.2616065E-3,-2.0592207E-2,-1.2636077E-1,-1.5583147E-2,6.443637E-2,-4.9139574E-2,-1.913962E-3],"categories":[],"categories_nodes":[],"categories_segments":[],"categories_sizes":[],"default_left":[0,0,0,0,0,0,0,0,0,0,0,0,0,0,0,0,0,0,0,0,0,0,0,0,0,0,0,0,0,0,0],"id":40,"left_children":[1,3,5,7,9,11,13,15,17,19,21,23,25,27,29,-1,-1,-1,-1,-1,-1,-1,-1,-1,-1,-1,-1,-1,-1,-1,-1],"loss_changes":[4.1218502E1,9.791675E1,1.3208795E2,1.5059657E2,5.3500565E1,8.162593E1,1.3276942E2,4.6385506E1,1.2919403E1,6.7015533E0,1.3859411E1,1.1942747E1,1.0631989E1,1.936692E1,7.329397E1,0E0,0E0,0E0,0E0,0E0,0E0,0E0,0E0,0E0,0E0,0E0,0E0,0E0,0E0,0E0,0E0],"parents":[2147483647,0,0,1,1,2,2,3,3,4,4,5,5,6,6,7,7,8,8,9,9,10,10,11,11,12,12,13,13,14,14],"right_children":[2,4,6,8,10,12,14,16,18,20,22,24,26,28,30,-1,-1,-1,-1,-1,-1,-1,-1,-1,-1,-1,-1,-1,-1,-1,-1],"split_conditions":[2.1939705E3,2.7383413E3,3.320691E2,1.860744E3,2.0929348E3,2.3189077E3,3.0387664E3,1.515451E3,1.9466195E3,2.745217E2,9.103568E-1,9.0953785E-1,8.5806245E-1,2.415453E3,1.1022251E3,-5.5148546E-3,3.127276E-2,-5.5983067E-2,-1.0851585E-1,1.2277014E-2,9.3959324E-2,2.244436E-3,5.058628E-2,-5.1258083E-2,-5.2616065E-3,-2.0592207E-2,-1.2636077E-1,-1.5583147E-2,6.443637E-2,-4.9139574E-2,-1.913962E-3],"split_indices":[2,6,1,2,2,2,2,2,2,1,3,3,7,2,4,0,0,0,0,0,0,0,0,0,0,0,0,0,0,0,0],"split_type":[0,0,0,0,0,0,0,0,0,0,0,0,0,0,0,0,0,0,0,0,0,0,0,0,0,0,0,0,0,0,0],"sum_hessian":[1.262E3,5.22E2,7.4E2,4.1E2,1.12E2,9.6E1,6.44E2,3.54E2,5.6E1,4.8E1,6.4E1,5.7E1,3.9E1,8.4E1,5.6E2,2.11E2,1.43E2,3.4E1,2.2E1,3E0,4.5E1,4.2E1,2.2E1,2.4E1,3.3E1,3E0,3.6E1,8E0,7.6E1,9.9E1,4.61E2],"tree_param":{"num_deleted":"0","num_feature":"10","num_nodes":"31","size_leaf_vector":"1"}},{"base_weights":[1.4441201E-2,4.1380182E-2,-4.422072E-1,-1.0860602E-2,2.6124558E-1,-2.4417685E-1,-2.2178879E0,1.1450005E-2,-5.7556814E-1,3.9188936E-1,-1.6393982E-1,3.0119193E-1,-5.7076323E-1,-1.3435137E-1,1.4923728E-2,-1.478638E-2,2.5703155E-3,-3.7198592E-2,-2.3240496E-3,4.9877312E-2,1.541909E-2,-2.1039847E-2,2.1748208E-2,-3.710657E-2,3.3486098E-2,-4.1961685E-2,4.2656336E-2],"categories":[],"categories_nodes":[],"categories_segments":[],"categories_sizes":[],"default_left":[0,0,0,0,0,0,0,0,0,0,0,0,0,0,0,0,0,0,0,0,0,0,0,0,0,0,0],"id":41,"left_children":[1,3,5,7,9,11,13,15,17,19,21,23,25,-1,-1,-1,-1,-1,-1,-1,-1,-1,-1,-1,-1,-1,-1],"loss_changes":[1.5678289E1,1.3820423E1,2.4424786E1,1.2265386E1,1.2895798E1,1.1749062E1,9.065685E0,1.1515642E1,3.262127E0,8.644489E0,8.643833E0,1.0109423E1,1.6389141E1,0E0,0E0,0E0,0E0,0E0,0E0,0E0,0E0,0E0,0E0,0E0,0E0,0E0,0E0],"parents":[2147483647,0,0,1,1,2,2,3,3,4,4,5,5,6,6,7,7,8,8,9,9,10,10,11,11,12,12],"right_children":[2,4,6,8,10,12,14,16,18,20,22,24,26,-1,-1,-1,-1,-1,-1,-1,-1,-1,-1,-1,-1,-1,-1],"split_conditions":[3.6863088E3,9.363907E-1,7.5847473E2,1.6623295E3,9.4833434E-1,6.4148944E2,9.167704E-1,2.5500562E2,4.449509E2,9.382613E-1,9.5962095E-1,3.7191816E3,3.273399E2,-1.3435137E-1,1.4923728E-2,-1.478638E-2,2.5703155E-3,-3.7198592E-2,-2.3240496E-3,4.9877312E-2,1.541909E-2,-2.1039847E-2,2.1748208E-2,-3.710657E-2,3.3486098E-2,-4.1961685E-2,4.2656336E-2],"split_indices":[8,3,4,4,5,4,3,1,1,3,5,8,1,0,0,0,0,0,0,0,0,0,0,0,0,0,0],"split_type":[0,0,0,0,0,0,0,0,0,0,0,0,0,0,0,0,0,0,0,0,0,0,0,0,0,0,0],"sum_hessian":[1.272E3,1.202E3,7E1,9.72E2,2.3E2,6.4E1,6E0,9.36E2,3.6E1,1.76E2,5.4E1,2.4E1,4E1,5E0,1E0,1.07E2,8.29E2,2.7E1,9E0,2E1,1.56E2,3.8E1,1.6E1,6E0,1.8E1,3.4E1,6E0],"tree_param":{"num_deleted":"0","num_feature":"10","num_nodes":"27","size_leaf_vector":"1"}},{"base_weights":[1.0862354E-2,9.085804E-2,-3.373797E-1,-3.401333E-2,4.4769284E-1,-7.414281E-2,-1.226251E0,1.7630658E-1,-5.39E-1,1.7040954E0,2.610467E-1,5.252476E-1,-3.9029104E-1,-1.7187284E0,-8.4585E-1,4.7002606E-2,-3.2360689E-3,-5.911855E-2,-6.45389E-3,1.2863299E-1,6.975368E-2,2.778321E-2,-2.9212454E-2,-7.3368376E-4,4.5463096E-2,-6.3557127E-3,-3.46396E-2,-5.9061777E-2,-1.056497E-1,-3.0523518E-2,-8.164536E-2],"categories":[],"categories_nodes":[],"categories_segments":[],"categories_sizes":[],"default_left":[0,0,0,0,0,0,0,0,0,0,0,0,0,0,0,0,0,0,0,0,0,0,0,0,0,0,0,0,0,0,0],"id":42,"left_children":[1,3,5,7,9,11,13,15,17,19,21,23,25,27,29,-1,-1,-1,-1,-1,-1,-1,-1,-1,-1,-1,-1,-1,-1,-1,-1],"loss_changes":[3.593944E1,4.6757042E1,5.6299156E1,8.272543E1,6.333988E1,3.564079E1,8.8498535E0,1.0130705E2,6.0242035E1,5.8051376E0,5.959591E1,1.349028E1,9.704119E0,2.3780975E0,5.1166477E0,0E0,0E0,0E0,0E0,0E0,0E0,0E0,0E0,0E0,0E0,0E0,0E0,0E0,0E0,0E0,0E0],"parents":[2147483647,0,0,1,1,2,2,3,3,4,4,5,5,6,6,7,7,8,8,9,9,10,10,11,11,12,12,13,13,14,14],"right_children":[2,4,6,8,10,12,14,16,18,20,22,24,26,28,30,-1,-1,-1,-1,-1,-1,-1,-1,-1,-1,-1,-1,-1,-1,-1,-1],"split_conditions":[4.0045105E3,3.826468E2,7E0,2.2117751E3,3.0281157E3,4.2997983E3,9.2242914E-1,1.2E1,3.320691E2,2.781435E3,8E0,8.953628E-1,4.544882E3,4.0817727E3,4.1683516E3,4.7002606E-2,-3.2360689E-3,-5.911855E-2,-6.45389E-3,1.2863299E-1,6.975368E-2,2.778321E-2,-2.9212454E-2,-7.3368376E-4,4.5463096E-2,-6.3557127E-3,-3.46396E-2,-5.9061777E-2,-1.056497E-1,-3.0523518E-2,-8.164536E-2],"split_indices":[2,1,0,2,2,2,3,0,1,2,0,3,2,2,2,0,0,0,0,0,0,0,0,0,0,0,0,0,0,0,0],"split_type":[0,0,0,0,0,0,0,0,0,0,0,0,0,0,0,0,0,0,0,0,0,0,0,0,0,0,0,0,0,0,0],"sum_hessian":[1.288E3,1.048E3,2.4E2,7.77E2,2.71E2,1.86E2,5.4E1,5.49E2,2.28E2,3.4E1,2.37E2,6.4E1,1.22E2,2.2E1,3.2E1,1.31E2,4.18E2,8.8E1,1.4E2,7E0,2.7E1,1.76E2,6.1E1,2.7E1,3.7E1,6.6E1,5.6E1,1.1E1,1.1E1,2.6E1,6E0],"tree_param":{"num_deleted":"0","num_feature":"10","num_nodes":"31","size_leaf_vector":"1"}},{"base_weights":[-3.2744087E-2,5.5894023E-1,-6.2013566E-2,3.593638E-1,1.2681944E0,-4.9788322E-2,-6.7527646E-1,5.5653566E-1,-2.9496077E-1,8.705292E-2,4.263436E-1,-1.1175655E-1,7.8678325E-2,7.278085E-2,-9.8758125E-1,-1.4802985E-2,4.1567158E-2,-3.0318303E-2,4.2068854E-2,5.012287E-2,-6.1355628E-2,-1.28363315E-2,3.0554E-3,4.587942E-2,9.928771E-5,-3.402858E-2,1.3881357E-2,-1.7969385E-2,-9.168298E-2],"categories":[],"categories_nodes":[],"categories_segments":[],"categories_sizes":[],"default_left":[0,0,0,0,0,0,0,0,0,0,0,0,0,0,0,0,0,0,0,0,0,0,0,0,0,0,0,0,0],"id":43,"left_children":[1,3,5,7,9,11,13,15,17,-1,19,21,23,25,27,-1,-1,-1,-1,-1,-1,-1,-1,-1,-1,-1,-1,-1,-1],"loss_changes":[2.2409895E1,8.178833E0,9.203039E0,6.485862E0,4.4327602E0,9.63346E0,5.6788025E0,9.149509E0,4.756521E0,0E0,6.9456005E0,2.0464802E1,2.5347418E1,1.4235166E0,8.37652E0,0E0,0E0,0E0,0E0,0E0,0E0,0E0,0E0,0E0,0E0,0E0,0E0,0E0,0E0],"parents":[2147483647,0,0,1,1,2,2,3,3,4,4,5,5,6,6,7,7,8,8,10,10,11,11,12,12,13,13,14,14],"right_children":[2,4,6,8,10,12,14,16,18,-1,20,22,24,26,28,-1,-1,-1,-1,-1,-1,-1,-1,-1,-1,-1,-1,-1,-1],"split_conditions":[-5.6982904E2,8.455939E-1,3.8971086E3,7.544295E-1,4.0097824E2,1.9135098E3,8.959253E-1,8.949865E-1,8.3227676E-1,8.705292E-2,8E0,3.9373013E2,1.8829126E3,8.8855445E-1,3.128136E3,-1.4802985E-2,4.1567158E-2,-3.0318303E-2,4.2068854E-2,5.012287E-2,-6.1355628E-2,-1.28363315E-2,3.0554E-3,4.587942E-2,9.928771E-5,-3.402858E-2,1.3881357E-2,-1.7969385E-2,-9.168298E-2],"split_indices":[8,5,8,7,1,8,3,3,7,0,0,1,6,5,6,0,0,0,0,0,0,0,0,0,0,0,0,0,0],"split_type":[0,0,0,0,0,0,0,0,0,0,0,0,0,0,0,0,0,0,0,0,0,0,0,0,0,0,0,0,0],"sum_hessian":[1.291E3,6E1,1.231E3,4.8E1,1.2E1,1.208E3,2.3E1,3.7E1,1.1E1,7E0,5E0,8.15E2,3.93E2,7E0,1.6E1,9E0,2.8E1,9E0,2E0,4E0,1E0,4.43E2,3.72E2,3.2E1,3.61E2,1E0,6E0,1E1,6E0],"tree_param":{"num_deleted":"0","num_feature":"10","num_nodes":"29","size_leaf_vector":"1"}},{"base_weights":[-2.6582016E-2,4.910835E-1,-8.3419986E-2,7.698418E-2,6.8504804E-1,-1.0094417E0,-3.365802E-2,-6.0044205E-1,2.3411435E-1,1.268089E0,5.5222183E-1,-1.3419636E0,-4.8245385E-1,3.9133164E-1,-1.0308251E-1,-3.4543846E-2,8.1504585E-4,3.611742E-3,3.0770084E-2,1.279068E-2,6.61061E-2,1.9661127E-2,4.6900447E-2,-7.996117E-2,-4.2231865E-3,1.9480448E-2,-6.251615E-2,-2.9384796E-2,5.361514E-2,-5.750681E-2,5.2355166E-4],"categories":[],"categories_nodes":[],"categories_segments":[],"categories_sizes":[],"default_left":[0,0,0,0,0,0,0,0,0,0,0,0,0,0,0,0,0,0,0,0,0,0,0,0,0,0,0,0,0,0,0],"id":44,"left_children":[1,3,5,7,9,11,13,15,17,19,21,23,25,27,29,-1,-1,-1,-1,-1,-1,-1,-1,-1,-1,-1,-1,-1,-1,-1,-1],"loss_changes":[3.717286E1,9.987339E0,5.240582E1,4.5047803E0,5.8824005E0,9.516201E0,3.1934906E1,4.5746255E-1,2.0541153E0,4.8222542E-1,3.9862843E0,1.11875725E1,1.655826E1,1.0196699E2,1.10585945E2,0E0,0E0,0E0,0E0,0E0,0E0,0E0,0E0,0E0,0E0,0E0,0E0,0E0,0E0,0E0,0E0],"parents":[2147483647,0,0,1,1,2,2,3,3,4,4,5,5,6,6,7,7,8,8,9,9,10,10,11,11,12,12,13,13,14,14],"right_children":[2,4,6,8,10,12,14,16,18,20,22,24,26,28,30,-1,-1,-1,-1,-1,-1,-1,-1,-1,-1,-1,-1,-1,-1,-1,-1],"split_conditions":[1.3123293E3,9.103568E-1,2.4725916E2,8.81225E-1,1.1673911E3,1.9135098E3,1.7872589E3,2.5010764E2,2.5580121E2,9.288255E-1,9.41195E-1,9.6444464E-1,1.8242549E3,1.844618E3,2.7769019E3,-3.4543846E-2,8.1504585E-4,3.611742E-3,3.0770084E-2,1.279068E-2,6.61061E-2,1.9661127E-2,4.6900447E-2,-7.996117E-2,-4.2231865E-3,1.9480448E-2,-6.251615E-2,-2.9384796E-2,5.361514E-2,-5.750681E-2,5.2355166E-4],"split_indices":[2,3,1,3,2,8,2,1,1,5,3,3,2,8,6,0,0,0,0,0,0,0,0,0,0,0,0,0,0,0,0],"split_type":[0,0,0,0,0,0,0,0,0,0,0,0,0,0,0,0,0,0,0,0,0,0,0,0,0,0,0,0,0,0,0],"sum_hessian":[1.261E3,1.24E2,1.137E3,4E1,8.4E1,5.7E1,1.08E3,7E0,3.3E1,1.4E1,7E1,3.4E1,2.3E1,1.51E2,9.29E2,6E0,1E0,2.4E1,9E0,1E0,1.3E1,5.1E1,1.9E1,2.8E1,6E0,1.1E1,1.2E1,6.2E1,8.9E1,9E1,8.39E2],"tree_param":{"num_deleted":"0","num_feature":"10","num_nodes":"31","size_leaf_vector":"1"}},{"base_weights":[-8.793378E-3,8.8847555E-2,-2.7649274E-1,9.899195E-1,-3.7476588E-2,4.6483472E-2,-7.9459566E-1,2.1113153E0,4.931445E-1,9.343537E-2,-2.0158226E0,7.6983017E-1,-3.4984854E-1,-1.2885832E0,-5.211304E-1,6.574998E-2,1.21075094E-1,-1.8664422E-2,4.013088E-2,-1.8261381E-3,2.9110357E-2,-7.8054816E-2,-1.3497572E-1,6.864624E-2,2.627804E-2,-2.494102E-2,1.3777435E-2,-8.932406E-2,-5.4052927E-2,-1.8126577E-2,-9.188751E-2],"categories":[],"categories_nodes":[],"categories_segments":[],"categories_sizes":[],"default_left":[0,0,0,0,0,0,0,0,0,0,0,0,0,0,0,0,0,0,0,0,0,0,0,0,0,0,0,0,0,0,0],"id":45,"left_children":[1,3,5,7,9,11,13,15,17,19,21,23,25,27,29,-1,-1,-1,-1,-1,-1,-1,-1,-1,-1,-1,-1,-1,-1,-1,-1],"loss_changes":[3.3351044E1,1.06465485E2,5.7098145E1,6.302318E1,2.1281845E2,6.0759956E1,1.7025063E1,5.4609528E0,2.2018753E1,4.8995083E1,1.1641312E1,1.0327259E1,1.2901274E1,2.8217087E0,1.729179E1,0E0,0E0,0E0,0E0,0E0,0E0,0E0,0E0,0E0,0E0,0E0,0E0,0E0,0E0,0E0,0E0],"parents":[2147483647,0,0,1,1,2,2,3,3,4,4,5,5,6,6,7,7,8,8,9,9,10,10,11,11,12,12,13,13,14,14],"right_children":[2,4,6,8,10,12,14,16,18,20,22,24,26,28,30,-1,-1,-1,-1,-1,-1,-1,-1,-1,-1,-1,-1,-1,-1,-1,-1],"split_conditions":[3.803167E3,8E0,7E0,3.605912E3,3.2260615E3,4.255966E3,9.109097E-1,8.8658684E-1,8.9567065E-1,3.273399E2,3.375833E3,3.992128E3,9.377616E-1,8.892038E-1,4.1683516E3,6.574998E-2,1.21075094E-1,-1.8664422E-2,4.013088E-2,-1.8261381E-3,2.9110357E-2,-7.8054816E-2,-1.3497572E-1,6.864624E-2,2.627804E-2,-2.494102E-2,1.3777435E-2,-8.932406E-2,-5.4052927E-2,-1.8126577E-2,-9.188751E-2],"split_indices":[2,0,0,2,2,2,3,3,3,1,2,2,3,3,2,0,0,0,0,0,0,0,0,0,0,0,0,0,0,0,0],"split_type":[0,0,0,0,0,0,0,0,0,0,0,0,0,0,0,0,0,0,0,0,0,0,0,0,0,0,0,0,0,0,0],"sum_hessian":[1.274E3,9.34E2,3.4E2,1.14E2,8.2E2,2.1E2,1.3E2,3.4E1,8E1,7.7E2,5E1,7.4E1,1.36E2,4.5E1,8.5E1,1.1E1,2.3E1,2.1E1,5.9E1,6.09E2,1.61E2,3.2E1,1.8E1,2E1,5.4E1,1.1E2,2.6E1,1.1E1,3.4E1,7.7E1,8E0],"tree_param":{"num_deleted":"0","num_feature":"10","num_nodes":"31","size_leaf_vector":"1"}},{"base_weights":[-5.117007E-2,1.9084689E-1,-2.2318855E-1,-2.6943738E-2,1.0809338E0,-8.1788234E-2,-8.917871E-1,1.8908976E-1,-1.5033374E0,1.9222914E0,6.8578666E-1,1.1063387E0,-2.420795E-1,-2.4072231E-1,-1.4557047E0,3.1032568E-2,-5.6538754E-3,-1.03817E-1,-4.3832216E-2,1.0960805E-1,7.492726E-2,-4.2047664E-3,5.8334656E-2,1.0379427E-1,3.6683057E-2,-1.1315257E-3,-5.0408334E-2,-5.216829E-2,-4.2369105E-3,-1.0182216E-1,-1.2888524E-2],"categories":[],"categories_nodes":[],"categories_segments":[],"categories_sizes":[],"default_left":[0,0,0,0,0,0,0,0,0,0,0,0,0,0,0,0,0,0,0,0,0,0,0,0,0,0,0,0,0,0,0],"id":46,"left_children":[1,3,5,7,9,11,13,15,17,19,21,23,25,27,29,-1,-1,-1,-1,-1,-1,-1,-1,-1,-1,-1,-1,-1,-1,-1,-1],"loss_changes":[5.34973E1,1.0354639E2,7.092664E1,1.3743298E2,3.3590034E1,1.1853502E2,4.774582E1,4.9102005E1,1.7930115E1,4.8869324E-1,2.7125721E1,2.5215294E1,9.210533E1,7.6739635E0,4.8173126E1,0E0,0E0,0E0,0E0,0E0,0E0,0E0,0E0,0E0,0E0,0E0,0E0,0E0,0E0,0E0,0E0],"parents":[2147483647,0,0,1,1,2,2,3,3,4,4,5,5,6,6,7,7,8,8,9,9,10,10,11,11,12,12,13,13,14,14],"right_children":[2,4,6,8,10,12,14,16,18,20,22,24,26,28,30,-1,-1,-1,-1,-1,-1,-1,-1,-1,-1,-1,-1,-1,-1,-1,-1],"split_conditions":[2.1627932E3,2.7383413E3,7.218945E2,1.8771635E3,2.044744E3,3.0387664E3,2.3114573E3,1.4E1,9.1705203E-1,1.9990297E3,8.92948E-1,2.8507346E3,8E0,8.92948E-1,5.1594155E3,3.1032568E-2,-5.6538754E-3,-1.03817E-1,-4.3832216E-2,1.0960805E-1,7.492726E-2,-4.2047664E-3,5.8334656E-2,1.0379427E-1,3.6683057E-2,-1.1315257E-3,-5.0408334E-2,-5.216829E-2,-4.2369105E-3,-1.0182216E-1,-1.2888524E-2],"split_indices":[2,6,8,2,2,2,2,0,3,2,3,2,0,3,6,0,0,0,0,0,0,0,0,0,0,0,0,0,0,0,0],"split_type":[0,0,0,0,0,0,0,0,0,0,0,0,0,0,0,0,0,0,0,0,0,0,0,0,0,0,0,0,0,0,0],"sum_hessian":[1.283E3,5.33E2,7.5E2,4.29E2,1.04E2,6.2E2,1.3E2,3.75E2,5.4E1,3.2E1,7.2E1,7.3E1,5.47E2,6.1E1,6.9E1,1.54E2,2.21E2,2.7E1,2.7E1,1.7E1,1.5E1,2.8E1,4.4E1,1.9E1,5.4E1,4.26E2,1.21E2,9E0,5.2E1,4.6E1,2.3E1],"tree_param":{"num_deleted":"0","num_feature":"10","num_nodes":"31","size_leaf_vector":"1"}},{"base_weights":[6.461375E-3,5.025196E-1,-4.6353254E-2,8.8988507E-1,3.3645436E-1,1.4397692E-2,-7.425043E-1,6.359601E-1,1.1675439E0,-1.3291429E-1,4.440996E-1,1.3802896E0,-5.9227612E-2,-5.1761544E-1,-1.7042131E0,2.595234E-3,3.8516585E-2,6.1357915E-2,2.5008092E-2,3.3489645E-3,-2.5527453E-2,1.880074E-2,4.6663295E-2,1.06923535E-1,4.8706975E-2,-2.8588483E-2,1.8699829E-3,-5.2234348E-2,-1.0293407E-2,-9.2608236E-2,-3.8016487E-2],"categories":[],"categories_nodes":[],"categories_segments":[],"categories_sizes":[],"default_left":[0,0,0,0,0,0,0,0,0,0,0,0,0,0,0,0,0,0,0,0,0,0,0,0,0,0,0,0,0,0,0],"id":47,"left_children":[1,3,5,7,9,11,13,15,17,19,21,23,25,27,29,-1,-1,-1,-1,-1,-1,-1,-1,-1,-1,-1,-1,-1,-1,-1,-1],"loss_changes":[3.3217598E1,7.548601E0,4.847713E1,1.7956524E0,4.454728E0,1.0617698E2,1.9015415E1,1.6081066E0,2.2790909E-2,1.3174713E0,2.0137186E0,1.45453415E1,4.9645973E1,1.2272728E1,9.6577835E-1,0E0,0E0,0E0,0E0,0E0,0E0,0E0,0E0,0E0,0E0,0E0,0E0,0E0,0E0,0E0,0E0],"parents":[2147483647,0,0,1,1,2,2,3,3,4,4,5,5,6,6,7,7,8,8,9,9,10,10,11,11,12,12,13,13,14,14],"right_children":[2,4,6,8,10,12,14,16,18,20,22,24,26,28,30,-1,-1,-1,-1,-1,-1,-1,-1,-1,-1,-1,-1,-1,-1,-1,-1],"split_conditions":[1.3123293E3,1.2001106E3,1.4E1,2.3638905E2,2.3200418E2,1.7082706E3,1.4206475E3,8.742116E-1,8.8809097E-1,1.649668E3,2.6917938E2,1.6056324E3,2.7769019E3,2.4565497E2,1.7375647E3,2.595234E-3,3.8516585E-2,6.1357915E-2,2.5008092E-2,3.3489645E-3,-2.5527453E-2,1.880074E-2,4.6663295E-2,1.06923535E-1,4.8706975E-2,-2.8588483E-2,1.8699829E-3,-5.2234348E-2,-1.0293407E-2,-9.2608236E-2,-3.8016487E-2],"split_indices":[2,2,0,1,1,2,2,7,7,8,1,2,6,1,8,0,0,0,0,0,0,0,0,0,0,0,0,0,0,0,0],"split_type":[0,0,0,0,0,0,0,0,0,0,0,0,0,0,0,0,0,0,0,0,0,0,0,0,0,0,0,0,0,0,0],"sum_hessian":[1.266E3,1.21E2,1.145E3,3.5E1,8.6E1,1.054E3,9.1E1,2E1,1.5E1,1.6E1,7E1,5.3E1,1.001E3,7.5E1,1.6E1,4E0,1.6E1,1.3E1,2E0,1.1E1,5E0,6.3E1,7E0,1.7E1,3.6E1,1.58E2,8.43E2,2.7E1,4.8E1,1.3E1,3E0],"tree_param":{"num_deleted":"0","num_feature":"10","num_nodes":"31","size_leaf_vector":"1"}},{"base_weights":[1.6296165E-2,1.9382654E-1,-1.106695E-1,1.0146357E0,-2.74717E-2,5.6016516E-2,-9.132836E-1,1.6239913E0,5.22723E-1,2.1010105E-1,-1.42909E0,1.134912E0,-9.764517E-2,-3.358888E-1,-1.4677448E0,9.299369E-2,4.7480352E-2,-9.928063E-4,5.1651012E-2,3.1162564E-2,-3.7340086E-3,-4.613197E-2,-1.1424754E-1,9.645611E-2,3.804564E-2,5.2847294E-3,-4.0595483E-2,-4.7959693E-2,1.8582552E-3,-1.55606E-2,-1.0913988E-1],"categories":[],"categories_nodes":[],"categories_segments":[],"categories_sizes":[],"default_left":[0,0,0,0,0,0,0,0,0,0,0,0,0,0,0,0,0,0,0,0,0,0,0,0,0,0,0,0,0,0,0],"id":48,"left_children":[1,3,5,7,9,11,13,15,17,19,21,23,25,27,29,-1,-1,-1,-1,-1,-1,-1,-1,-1,-1,-1,-1,-1,-1,-1,-1],"loss_changes":[2.8760284E1,9.6662285E1,9.958685E1,3.302281E1,1.4015451E2,1.0240011E2,4.0485306E1,6.1876373E0,1.7740614E1,4.2403214E1,2.4332336E1,2.1403732E1,7.865976E1,1.4917337E1,5.3074524E1,0E0,0E0,0E0,0E0,0E0,0E0,0E0,0E0,0E0,0E0,0E0,0E0,0E0,0E0,0E0,0E0],"parents":[2147483647,0,0,1,1,2,2,3,3,4,4,5,5,6,6,7,7,8,8,9,9,10,10,11,11,12,12,13,13,14,14],"right_children":[2,4,6,8,10,12,14,16,18,20,22,24,26,28,30,-1,-1,-1,-1,-1,-1,-1,-1,-1,-1,-1,-1,-1,-1,-1,-1],"split_conditions":[2.1939705E3,1.2E1,7.218945E2,2.0859995E3,1.860744E3,3.0281157E3,2.3383645E3,7.915077E-1,9.100191E-1,1.4E1,1.9466195E3,2.8507346E3,8E0,9.0953785E-1,8E0,9.299369E-2,4.7480352E-2,-9.928063E-4,5.1651012E-2,3.1162564E-2,-3.7340086E-3,-4.613197E-2,-1.1424754E-1,9.645611E-2,3.804564E-2,5.2847294E-3,-4.0595483E-2,-4.7959693E-2,1.8582552E-3,-1.55606E-2,-1.0913988E-1],"split_indices":[2,0,8,2,2,2,2,9,3,0,2,2,0,3,0,0,0,0,0,0,0,0,0,0,0,0,0,0,0,0,0],"split_type":[0,0,0,0,0,0,0,0,0,0,0,0,0,0,0,0,0,0,0,0,0,0,0,0,0,0,0,0,0,0,0],"sum_hessian":[1.274E3,5.31E2,7.43E2,1.12E2,4.19E2,6.16E2,1.27E2,4.9E1,6.3E1,3.59E2,6E1,7.6E1,5.4E2,6.3E1,6.4E1,3.5E1,1.4E1,3.1E1,3.2E1,1.46E2,2.13E2,3.9E1,2.1E1,2.3E1,5.3E1,4.21E2,1.19E2,2.3E1,4E1,2.5E1,3.9E1],"tree_param":{"num_deleted":"0","num_feature":"10","num_nodes":"31","size_leaf_vector":"1"}},{"base_weights":[-1.1263279E-2,2.6727717E-2,-4.7722226E-1,4.8252392E-1,5.4764645E-3,-2.9309785E-1,-2.0497952E0,3.2540935E-1,1.1255757E0,1.0010179E-1,-1.2398079E-1,-1.1879089E0,-6.2116217E-2,-1.17448926E-1,1.6071403E-2,-2.7945796E-2,2.2655778E-2,6.784838E-2,-2.3923768E-2,-3.2600134E-3,1.2698044E-2,-1.5141099E-3,-3.368464E-2,-8.52189E-2,-2.4103222E-2,-3.550675E-2,1.0296652E-2],"categories":[],"categories_nodes":[],"categories_segments":[],"categories_sizes":[],"default_left":[0,0,0,0,0,0,0,0,0,0,0,0,0,0,0,0,0,0,0,0,0,0,0,0,0,0,0],"id":49,"left_children":[1,3,5,7,9,11,13,15,17,19,21,23,25,-1,-1,-1,-1,-1,-1,-1,-1,-1,-1,-1,-1,-1,-1],"loss_changes":[2.2777843E1,1.1523983E1,2.748547E1,4.9884663E0,1.3952837E1,1.8114483E1,7.8493347E0,5.222342E0,4.360918E0,1.675162E1,2.4754583E1,5.740223E0,1.2479009E1,0E0,0E0,0E0,0E0,0E0,0E0,0E0,0E0,0E0,0E0,0E0,0E0,0E0,0E0],"parents":[2147483647,0,0,1,1,2,2,3,3,4,4,5,5,6,6,7,7,8,8,9,9,10,10,11,11,12,12],"right_children":[2,4,6,8,10,12,14,16,18,20,22,24,26,-1,-1,-1,-1,-1,-1,-1,-1,-1,-1,-1,-1,-1,-1],"split_conditions":[3.5954246E3,-5.8286694E2,7.5847473E2,8.455939E-1,1.0357042E3,7.710068E-1,8.0655867E-1,3.8818033E2,8.874978E-1,2.7517236E2,8E0,3.7518838E3,8.756999E-1,-1.17448926E-1,1.6071403E-2,-2.7945796E-2,2.2655778E-2,6.784838E-2,-2.3923768E-2,-3.2600134E-3,1.2698044E-2,-1.5141099E-3,-3.368464E-2,-8.52189E-2,-2.4103222E-2,-3.550675E-2,1.0296652E-2],"split_indices":[8,8,4,5,4,9,9,1,5,1,0,8,7,0,0,0,0,0,0,0,0,0,0,0,0,0,0],"split_type":[0,0,0,0,0,0,0,0,0,0,0,0,0,0,0,0,0,0,0,0,0,0,0,0,0,0,0],"sum_hessian":[1.285E3,1.189E3,9.6E1,5.2E1,1.137E3,8.7E1,9E0,4.3E1,9E0,6.57E2,4.8E2,1.7E1,7E1,8E0,1E0,5E0,3.8E1,8E0,1E0,3.17E2,3.4E2,4.11E2,6.9E1,9E0,8E0,2E1,5E1],"tree_param":{"num_deleted":"0","num_feature":"10","num_nodes":"27","size_leaf_vector":"1"}},{"base_weights":[-1.9380158E-2,-3.4314323E-2,6.426822E-1,-1.7715596E-1,3.467293E-2,-2.6634848E-1,1.1624963E0,-5.475744E-1,-9.653348E-2,-9.756583E-1,4.4369288E-2,-6.668889E-2,-2.6227761E-2,1.2321538E0,-5.419731E-4,-1.2562211E-2,-5.1607635E-2,2.5866502E-3,-1.4694634E-2,-1.6256671E-2,-7.7245E-2,1.671334E-2,4.1095843E-4,9.839601E-3,-5.0835144E-2,2.585429E-2,6.74224E-2],"categories":[],"categories_nodes":[],"categories_segments":[],"categories_sizes":[],"default_left":[0,0,0,0,0,0,0,0,0,0,0,0,0,0,0,0,0,0,0,0,0,0,0,0,0,0,0],"id":50,"left_children":[1,3,5,7,9,11,13,15,17,19,21,-1,23,25,-1,-1,-1,-1,-1,-1,-1,-1,-1,-1,-1,-1,-1],"loss_changes":[1.2549325E1,1.2225414E1,1.3540386E1,1.2012218E1,8.242989E0,2.7844486E0,1.4845219E0,1.0079531E1,9.759368E0,2.4601479E0,8.695511E0,0E0,2.4090345E0,7.1642685E-1,0E0,0E0,0E0,0E0,0E0,0E0,0E0,0E0,0E0,0E0,0E0,0E0,0E0],"parents":[2147483647,0,0,1,1,2,2,3,3,4,4,5,5,6,6,7,7,8,8,9,9,10,10,12,12,13,13],"right_children":[2,4,6,8,10,12,14,16,18,20,22,-1,24,26,-1,-1,-1,-1,-1,-1,-1,-1,-1,-1,-1,-1,-1],"split_conditions":[9.0792084E-1,9.0169746E-1,9.097549E-1,2.745217E2,2.1203369E2,8.756999E-1,9.5962095E-1,2.2072566E3,4.8018276E3,8.7566423E-1,1.7970819E3,-6.668889E-2,2.777849E2,9.114697E-1,-5.419731E-4,-1.2562211E-2,-5.1607635E-2,2.5866502E-3,-1.4694634E-2,-1.6256671E-2,-7.7245E-2,1.671334E-2,4.1095843E-4,9.839601E-3,-5.0835144E-2,2.585429E-2,6.74224E-2],"split_indices":[9,3,7,1,1,7,5,8,6,9,6,0,1,7,0,0,0,0,0,0,0,0,0,0,0,0,0],"split_type":[0,0,0,0,0,0,0,0,0,0,0,0,0,0,0,0,0,0,0,0,0,0,0,0,0,0,0],"sum_hessian":[1.266E3,1.239E3,2.7E1,4.03E2,8.36E2,1E1,1.7E1,7.1E1,3.32E2,7E0,8.29E2,1E0,9E0,1.6E1,1E0,4.5E1,2.6E1,1.9E2,1.42E2,4E0,3E0,9.1E1,7.38E2,8E0,1E0,3E0,1.3E1],"tree_param":{"num_deleted":"0","num_feature":"10","num_nodes":"27","size_leaf_vector":"1"}},{"base_weights":[5.864924E-3,3.0607173E-1,-9.652026E-2,9.649872E-1,-6.42593E-2,9.518127E-3,-1.0113313E0,2.0044663E0,7.2999704E-1,3.5185838E-1,-1.0341805E0,1.3110604E0,-8.860004E-2,-3.9803758E-1,-1.9059887E0,1.0894076E-1,6.027293E-2,5.2503776E-2,2.6194198E-2,2.4246896E-2,-6.128303E-3,-3.936654E-2,-9.615195E-2,-1.6140576E-2,7.167651E-2,6.295632E-3,-1.8115511E-2,-2.6858294E-2,1.3527452E-2,-6.8129085E-2,-1.1906333E-1],"categories":[],"categories_nodes":[],"categories_segments":[],"categories_sizes":[],"default_left":[0,0,0,0,0,0,0,0,0,0,0,0,0,0,0,0,0,0,0,0,0,0,0,0,0,0,0,0,0,0,0],"id":51,"left_children":[1,3,5,7,9,11,13,15,17,19,21,23,25,27,29,-1,-1,-1,-1,-1,-1,-1,-1,-1,-1,-1,-1,-1,-1,-1,-1],"loss_changes":[3.9280346E1,7.936749E1,9.245548E1,2.711602E1,8.4716576E1,1.0930389E2,5.3561424E1,2.989502E-1,5.849201E0,9.340456E0,1.2309036E1,1.2468742E1,4.6782204E1,5.726489E0,7.0861053E0,0E0,0E0,0E0,0E0,0E0,0E0,0E0,0E0,0E0,0E0,0E0,0E0,0E0,0E0,0E0,0E0],"parents":[2147483647,0,0,1,1,2,2,3,3,4,4,5,5,6,6,7,7,8,8,9,9,10,10,11,11,12,12,13,13,14,14],"right_children":[2,4,6,8,10,12,14,16,18,20,22,24,26,28,30,-1,-1,-1,-1,-1,-1,-1,-1,-1,-1,-1,-1,-1,-1,-1,-1],"split_conditions":[1.7872589E3,1.4E1,8.4849554E-1,1.6056324E3,1.3512634E3,2.1013613E3,1.8984617E3,2.0442338E3,1.6976066E3,