{"learner":{"attributes":{"scikit_learn":"{\"_estimator_type\": \"regressor\"}"},"feature_names":["age","srt","dot_rt","dot_acc","stroop_rt","stroop_acc","add_rt","add_acc","mult_rt","mult_acc"],"feature_types":["int","float","float","float","float","float","float","float","float","float"],"gradient_booster":{"model":{"gbtree_model_param":{"num_parallel_tree":"1","num_trees":"300"},"iteration_indptr":[0,1,2,3,4,5,6,7,8,9,10,11,12,13,14,15,16,17,18,19,20,21,22,23,24,25,26,27,28,29,30,31,32,33,34,35,36,37,38,39,40,41,42,43,44,45,46,47,48,49,50,51,52,53,54,55,56,57,58,59,60,61,62,63,64,65,66,67,68,69,70,71,72,73,74,75,76,77,78,79,80,81,82,83,84,85,86,87,88,89,90,91,92,93,94,95,96,97,98,99,100,101,102,103,104,105,106,107,108,109,110,111,112,113,114,115,116,117,118,119,120,121,122,123,124,125,126,127,128,129,130,131,132,133,134,135,136,137,138,139,140,141,142,143,144,145,146,147,148,149,150,151,152,153,154,155,156,157,158,159,160,161,162,163,164,165,166,167,168,169,170,171,172,173,174,175,176,177,178,179,180,181,182,183,184,185,186,187,188,189,190,191,192,193,194,195,196,197,198,199,200,201,202,203,204,205,206,207,208,209,210,211,212,213,214,215,216,217,218,219,220,221,222,223,224,225,226,227,228,229,230,231,232,233,234,235,236,237,238,239,240,241,242,243,244,245,246,247,248,249,250,251,252,253,254,255,256,257,258,259,260,261,262,263,264,265,266,267,268,269,270,271,272,273,274,275,276,277,278,279,280,281,282,283,284,285,286,287,288,289,290,291,292,293,294,295,296,297,298,299,300],"tree_info":[0,0,0,0,0,0,0,0,0,0,0,0,0,0,0,0,0,0,0,0,0,0,0,0,0,0,0,0,0,0,0,0,0,0,0,0,0,0,0,0,0,0,0,0,0,0,0,0,0,0,0,0,0,0,0,0,0,0,0,0,0,0,0,0,0,0,0,0,0,0,0,0,0,0,0,0,0,0,0,0,0,0,0,0,0,0,0,0,0,0,0,0,0,0,0,0,0,0,0,0,0,0,0,0,0,0,0,0,0,0,0,0,0,0,0,0,0,0,0,0,0,0,0,0,0,0,0,0,0,0,0,0,0,0,0,0,0,0,0,0,0,0,0,0,0,0,0,0,0,0,0,0,0,0,0,0,0,0,0,0,0,0,0,0,0,0,0,0,0,0,0,0,0,0,0,0,0,0,0,0,0,0,0,0,0,0,0,0,0,0,0,0,0,0,0,0,0,0,0,0,0,0,0,0,0,0,0,0,0,0,0,0,0,0,0,0,0,0,0,0,0,0,0,0,0,0,0,0,0,0,0,0,0,0,0,0,0,0,0,0,0,0,0,0,0,0,0,0,0,0,0,0,0,0,0,0,0,0,0,0,0,0,0,0,0,0,0,0,0,0,0,0,0,0,0,0,0,0,0,0,0,0,0,0,0,0,0,0,0,0,0,0,0,0,0,0,0,0,0,0],"trees":[{"base_weights":[-3.0931432E-2,2.092076E0,-1.2827581E-1,7.008335E-1,2.5391371E0,-3.4852687E-2,-2.0009696E0,1.7447919E0,4.375172E-3,1.4659484E-1,1.5441966E0,6.5622693E-1,-2.4229194E-1,-1.408854E0,-1.4203803E-1,9.575001E-2,2.2343755E-2,-4.722214E-3,2.2343755E-2,3.830358E-2,1.0160158E-1,1.3583808E-1,2.3539577E-2,1.45667335E-2,-3.0824233E-2,-1.1970587E-1,-2.5046868E-2],"categories":[],"categories_nodes":[],"categories_segments":[],"categories_sizes":[],"default_left":[0,0,0,0,0,0,0,0,0,0,0,0,0,0,0,0,0,0,0,0,0,0,0,0,0,0,0],"id":0,"left_children":[1,3,5,7,9,11,13,15,17,-1,19,21,23,25,-1,-1,-1,-1,-1,-1,-1,-1,-1,-1,-1,-1,-1],"loss_changes":[2.6397015E2,3.305081E1,2.1354776E2,1.0898468E1,1.188501E1,1.670266E2,2.483847E1,4.6973228E-1,4.7948077E-1,0E0,3.7576714E0,1.0150484E2,1.7909215E2,3.1004036E1,0E0,0E0,0E0,0E0,0E0,0E0,0E0,0E0,0E0,0E0,0E0,0E0,0E0],"parents":[2147483647,0,0,1,1,2,2,3,3,4,4,5,5,6,6,7,7,8,8,10,10,11,11,12,12,13,13],"right_children":[2,4,6,8,10,12,14,16,18,-1,20,22,24,26,-1,-1,-1,-1,-1,-1,-1,-1,-1,-1,-1,-1,-1],"split_conditions":[4.2133658E2,2.2207405E2,1.655822E3,3.9326718E2,4.0887936E2,-5.2997192E1,1.737777E3,1.7641168E3,2.2055977E2,1.4659484E-1,2.3638905E2,9.521973E2,5.978072E2,8.073726E-1,-1.4203803E-1,9.575001E-2,2.2343755E-2,-4.722214E-3,2.2343755E-2,3.830358E-2,1.0160158E-1,1.3583808E-1,2.3539577E-2,1.45667335E-2,-3.0824233E-2,-1.1970587E-1,-2.5046868E-2],"split_indices":[4,1,4,4,4,8,4,6,1,0,1,4,4,5,0,0,0,0,0,0,0,0,0,0,0,0,0],"split_type":[0,0,0,0,0,0,0,0,0,0,0,0,0,0,0,0,0,0,0,0,0,0,0,0,0,0,0],"sum_hessian":[1.275E3,5.5E1,1.22E3,1.4E1,4.1E1,1.163E3,5.7E1,5E0,9E0,2.8E1,1.3E1,2.68E2,8.95E2,3.5E1,2.2E1,4E0,1E0,8E0,1E0,6E0,7E0,2.1E1,2.47E2,3.69E2,5.26E2,1.6E1,1.9E1],"tree_param":{"num_deleted":"0","num_feature":"10","num_nodes":"27","size_leaf_vector":"1"}},{"base_weights":[-6.535846E-2,5.111109E-1,-2.2607216E-1,1.5320178E0,3.607256E-1,1.2732454E-1,-6.6851217E-1,6.3102645E-1,1.9186794E0,2.0859547E-1,1.037113E0,9.910044E-1,4.63697E-2,-1.0399527E-1,-8.8366216E-1,-5.6782844E-3,8.480843E-2,1.0286204E-1,1.3150128E-2,1.8462583E-2,-2.1761393E-2,6.0651912E-3,7.533122E-2,7.077953E-2,-2.6362035E-2,6.1525013E-2,-7.7646616E-4,9.698298E-2,-9.485475E-3,-6.621068E-2,-3.2644246E-2],"categories":[],"categories_nodes":[],"categories_segments":[],"categories_sizes":[],"default_left":[0,0,0,0,0,0,0,0,0,0,0,0,0,0,0,0,0,0,0,0,0,0,0,0,0,0,0,0,0,0,0],"id":1,"left_children":[1,3,5,7,9,11,13,15,17,19,21,23,25,27,29,-1,-1,-1,-1,-1,-1,-1,-1,-1,-1,-1,-1,-1,-1,-1,-1],"loss_changes":[1.1685017E2,4.166794E1,1.5425294E2,1.0982529E1,2.4582298E1,3.8339607E1,5.310576E1,9.709784E0,4.9648514E0,2.0640682E1,1.8736485E1,3.1043777E1,3.688726E1,2.1738749E1,3.1364578E1,0E0,0E0,0E0,0E0,0E0,0E0,0E0,0E0,0E0,0E0,0E0,0E0,0E0,0E0,0E0,0E0],"parents":[2147483647,0,0,1,1,2,2,3,3,4,4,5,5,6,6,7,7,8,8,9,9,10,10,11,11,12,12,13,13,14,14],"right_children":[2,4,6,8,10,12,14,16,18,20,22,24,26,28,30,-1,-1,-1,-1,-1,-1,-1,-1,-1,-1,-1,-1,-1,-1,-1,-1],"split_conditions":[-5.2997192E1,-6.646469E2,3.128136E3,7.991175E-1,8.785004E-1,8.967888E-1,1.4349783E2,4.2537964E2,9.4673437E-1,8.573615E-1,2.9175217E3,2.2613342E3,1.1910635E3,3.5246872E2,8.997784E-1,-5.6782844E-3,8.480843E-2,1.0286204E-1,1.3150128E-2,1.8462583E-2,-2.1761393E-2,6.0651912E-3,7.533122E-2,7.077953E-2,-2.6362035E-2,6.1525013E-2,-7.7646616E-4,9.698298E-2,-9.485475E-3,-6.621068E-2,-3.2644246E-2],"split_indices":[8,8,6,5,5,5,8,1,3,5,2,2,2,1,3,0,0,0,0,0,0,0,0,0,0,0,0,0,0,0,0],"split_type":[0,0,0,0,0,0,0,0,0,0,0,0,0,0,0,0,0,0,0,0,0,0,0,0,0,0,0,0,0,0,0],"sum_hessian":[1.259E3,2.74E2,9.85E2,3.4E1,2.4E2,5.48E2,4.37E2,1.1E1,2.3E1,1.97E2,4.3E1,4.6E1,5.02E2,1.21E2,3.16E2,7E0,4E0,2.1E1,2E0,1.58E2,3.9E1,1.5E1,2.8E1,3.6E1,1E1,2.4E1,4.78E2,4E0,1.17E2,1.07E2,2.09E2],"tree_param":{"num_deleted":"0","num_feature":"10","num_nodes":"31","size_leaf_vector":"1"}},{"base_weights":[3.9269995E-2,6.0512656E-1,-1.3560767E-1,1.7161511E0,4.543976E-1,1.5697256E-1,-4.9675435E-1,1.9324121E0,5.7504797E-1,7.7169687E-1,-1.5032628E-1,1.5606477E0,8.7310806E-2,-2.312957E-1,-8.5233647E-1,4.7947377E-2,1.072333E-1,-2.1802934E-2,5.333512E-2,3.204527E-2,1.3138716E-1,1.009978E-3,-9.610284E-2,1.1255018E-1,-9.386683E-3,2.7606595E-2,-4.6881456E-3,-3.4893365E-3,-4.3312266E-2,-7.0776574E-2,-2.687732E-2],"categories":[],"categories_nodes":[],"categories_segments":[],"categories_sizes":[],"default_left":[0,0,0,0,0,0,0,0,0,0,0,0,0,0,0,0,0,0,0,0,0,0,0,0,0,0,0,0,0,0,0],"id":2,"left_children":[1,3,5,7,9,11,13,15,17,19,21,23,25,27,29,-1,-1,-1,-1,-1,-1,-1,-1,-1,-1,-1,-1,-1,-1,-1,-1],"loss_changes":[1.24073524E2,4.878939E1,1.01304436E2,7.52594E0,5.038816E1,5.1688454E1,4.0297165E1,3.9354095E0,3.9449499E0,4.0069717E1,2.7532274E1,3.0597717E1,4.2640213E1,2.5269417E1,3.1682846E1,0E0,0E0,0E0,0E0,0E0,0E0,0E0,0E0,0E0,0E0,0E0,0E0,0E0,0E0,0E0,0E0],"parents":[2147483647,0,0,1,1,2,2,3,3,4,4,5,5,6,6,7,7,8,8,9,9,10,10,11,11,12,12,13,13,14,14],"right_children":[2,4,6,8,10,12,14,16,18,20,22,24,26,28,30,-1,-1,-1,-1,-1,-1,-1,-1,-1,-1,-1,-1,-1,-1,-1,-1],"split_conditions":[-5.2997192E1,-6.885358E2,3.128136E3,4.2997983E3,3.95552E3,1.1910635E3,3.8204477E2,4.544847E3,9.0557694E-1,9.414476E-1,8.600858E-1,9.509283E-1,8.49067E-1,9.35073E-1,9.0208906E-1,4.7947377E-2,1.072333E-1,-2.1802934E-2,5.333512E-2,3.204527E-2,1.3138716E-1,1.009978E-3,-9.610284E-2,1.1255018E-1,-9.386683E-3,2.7606595E-2,-4.6881456E-3,-3.4893365E-3,-4.3312266E-2,-7.0776574E-2,-2.687732E-2],"split_indices":[8,8,6,2,2,2,8,6,3,3,5,5,9,3,3,0,0,0,0,0,0,0,0,0,0,0,0,0,0,0,0],"split_type":[0,0,0,0,0,0,0,0,0,0,0,0,0,0,0,0,0,0,0,0,0,0,0,0,0,0,0,0,0,0,0],"sum_hessian":[1.252E3,2.95E2,9.57E2,3.4E1,2.61E2,5.29E2,4.28E2,2.8E1,6E0,1.71E2,9E1,2.4E1,5.05E2,2.46E2,1.82E2,6E0,2.2E1,2E0,4E0,1.61E2,1E1,8.3E1,7E0,1.7E1,7E0,1.41E2,3.64E2,1.97E2,4.9E1,6.4E1,1.18E2],"tree_param":{"num_deleted":"0","num_feature":"10","num_nodes":"31","size_leaf_vector":"1"}},{"base_weights":[4.0754568E-2,1.915776E0,-5.456681E-2,2.695721E0,1.3866874E0,5.109664E-2,-1.4484441E0,1.3913038E-1,1.7433286E-2,8.019616E-1,1.8496925E0,7.8845954E-1,-1.6454996E-1,-1.0073074E0,-1.3429824E-1,7.321681E-2,1.9180449E-2,1.0338273E-1,2.0321995E-2,1.2574828E-1,3.1208655E-2,1.3439692E-2,-2.4226118E-2,-1.13203704E-1,-2.753645E-2],"categories":[],"categories_nodes":[],"categories_segments":[],"categories_sizes":[],"default_left":[0,0,0,0,0,0,0,0,0,0,0,0,0,0,0,0,0,0,0,0,0,0,0,0,0],"id":3,"left_children":[1,3,5,7,9,11,13,-1,-1,15,17,19,21,23,-1,-1,-1,-1,-1,-1,-1,-1,-1,-1,-1],"loss_changes":[2.290572E2,2.1846802E1,1.7975792E2,3.9240417E0,9.075127E0,1.8060587E2,4.4243164E1,0E0,0E0,4.7032843E0,5.765686E0,7.1326096E1,1.2201066E2,3.605092E1,0E0,0E0,0E0,0E0,0E0,0E0,0E0,0E0,0E0,0E0,0E0],"parents":[2147483647,0,0,1,1,2,2,3,3,4,4,5,5,6,6,9,9,10,10,11,11,12,12,13,13],"right_children":[2,4,6,8,10,12,14,-1,-1,16,18,20,22,24,-1,-1,-1,-1,-1,-1,-1,-1,-1,-1,-1],"split_conditions":[4.2133658E2,3.97286E2,1.6174965E3,9.1309404E-1,1.2546731E3,-5.2997192E1,1.737777E3,1.3913038E-1,1.7433286E-2,4.0887936E2,9.027677E-1,9.6200684E2,5.921826E2,7.837099E-1,-1.3429824E-1,7.321681E-2,1.9180449E-2,1.0338273E-1,2.0321995E-2,1.2574828E-1,3.1208655E-2,1.3439692E-2,-2.4226118E-2,-1.13203704E-1,-2.753645E-2],"split_indices":[4,4,4,7,2,8,4,0,0,4,7,4,4,5,0,0,0,0,0,0,0,0,0,0,0],"split_type":[0,0,0,0,0,0,0,0,0,0,0,0,0,0,0,0,0,0,0,0,0,0,0,0,0],"sum_hessian":[1.28E3,6.1E1,1.219E3,2.3E1,3.8E1,1.134E3,8.5E1,2.2E1,1E0,1.8E1,2E1,2.56E2,8.78E2,6.4E1,2.1E1,6E0,1.2E1,1.7E1,3E0,2.1E1,2.35E2,3.73E2,5.05E2,1.6E1,4.8E1],"tree_param":{"num_deleted":"0","num_feature":"10","num_nodes":"25","size_leaf_vector":"1"}},{"base_weights":[-1.4782153E-2,1.5346392E0,-1.0371334E-1,2.4313009E0,1.0023907E0,5.538076E-1,-3.2107514E-1,4.786284E-2,1.2943976E-1,3.7199837E-1,1.8454541E0,2.3866427E0,4.1386735E-1,1.9761795E-1,-6.326408E-1,-1.2735589E-2,3.2464113E-2,5.5245597E-2,1.05112486E-1,1.2597486E-1,5.9606846E-2,2.9145464E-2,-4.319638E-2,-4.9053695E-2,4.9896132E-2,-1.2815766E-1,-2.521014E-2],"categories":[],"categories_nodes":[],"categories_segments":[],"categories_sizes":[],"default_left":[0,0,0,0,0,0,0,0,0,0,0,0,0,0,0,0,0,0,0,0,0,0,0,0,0,0,0],"id":4,"left_children":[1,3,5,7,9,11,13,-1,-1,15,17,19,21,23,25,-1,-1,-1,-1,-1,-1,-1,-1,-1,-1,-1,-1],"loss_changes":[1.7515486E2,3.0492905E1,1.7196759E2,3.3256989E0,2.3229221E1,7.5702E1,1.4621768E2,0E0,0E0,4.8573475E0,1.2903976E0,3.2901764E-1,6.0767864E1,3.2170535E2,1.3880003E2,0E0,0E0,0E0,0E0,0E0,0E0,0E0,0E0,0E0,0E0,0E0,0E0],"parents":[2147483647,0,0,1,1,2,2,3,3,4,4,5,5,6,6,9,9,10,10,11,11,12,12,13,13,14,14],"right_children":[2,4,6,8,10,12,14,-1,-1,16,18,20,22,24,26,-1,-1,-1,-1,-1,-1,-1,-1,-1,-1,-1,-1],"split_conditions":[4.3081927E2,4.0401874E2,-5.2997192E1,2.1698666E2,2.3851825E2,9.521973E2,5.947028E2,4.786284E-2,1.2943976E-1,2.2055977E2,2.4782014E2,8.6143696E-1,1.6017032E3,1.4777906E3,2.7383413E3,-1.2735589E-2,3.2464113E-2,5.5245597E-2,1.05112486E-1,1.2597486E-1,5.9606846E-2,2.9145464E-2,-4.319638E-2,-4.9053695E-2,4.9896132E-2,-1.2815766E-1,-2.521014E-2],"split_indices":[4,4,8,1,1,4,4,0,0,1,1,7,4,2,6,0,0,0,0,0,0,0,0,0,0,0,0],"split_type":[0,0,0,0,0,0,0,0,0,0,0,0,0,0,0,0,0,0,0,0,0,0,0,0,0,0,0],"sum_hessian":[1.269E3,6.8E1,1.201E3,2.4E1,4.4E1,2.98E2,9.03E2,3E0,2.1E1,2.6E1,1.8E1,2E1,2.78E2,3.39E2,5.64E2,8E0,1.8E1,6E0,1.2E1,1.7E1,3E0,2.46E2,3.2E1,1.37E2,2.02E2,3.4E1,5.3E2],"tree_param":{"num_deleted":"0","num_feature":"10","num_nodes":"27","size_leaf_vector":"1"}},{"base_weights":[1.1923482E-2,1.0000937E-1,-1.7150288E0,1.828767E0,1.634593E-2,-2.0323527E0,-8.7320715E-1,1.0120676E0,2.3132045E0,-7.103361E-2,1.1710328E0,-2.360471E0,-1.3530716E0,-5.0505424E-1,-9.015123E-2,9.06828E-2,1.8360697E-2,1.3394643E-1,8.557371E-2,-3.8166534E-2,2.3134027E-3,7.862015E-2,1.1531443E-2,-8.5379876E-2,-1.3604379E-1,-3.0169252E-2,-1.1689273E-1,-1.4783533E-2,-6.220158E-2],"categories":[],"categories_nodes":[],"categories_segments":[],"categories_sizes":[],"default_left":[0,0,0,0,0,0,0,0,0,0,0,0,0,0,0,0,0,0,0,0,0,0,0,0,0,0,0,0,0],"id":5,"left_children":[1,3,5,7,9,11,13,15,17,19,21,23,25,27,-1,-1,-1,-1,-1,-1,-1,-1,-1,-1,-1,-1,-1,-1,-1],"loss_changes":[1.9747131E2,1.7859285E2,1.505452E1,2.0210342E1,1.1903958E2,6.835907E0,5.593361E0,1.1222864E1,3.117447E0,8.912004E1,3.0965714E1,2.1775208E0,1.114011E1,1.9531219E0,0E0,0E0,0E0,0E0,0E0,0E0,0E0,0E0,0E0,0E0,0E0,0E0,0E0,0E0,0E0],"parents":[2147483647,0,0,1,1,2,2,3,3,4,4,5,5,6,6,7,7,8,8,9,9,10,10,11,11,12,12,13,13],"right_children":[2,4,6,8,10,12,14,16,18,20,22,24,26,28,-1,-1,-1,-1,-1,-1,-1,-1,-1,-1,-1,-1,-1,-1,-1],"split_conditions":[1.6512751E3,4.2133658E2,4.4219476E2,2.3200418E2,4.2976535E2,8.2896394E-1,1.7800487E3,4.0401874E2,4.0772092E2,1.4777906E3,1.5572307E3,1.6710342E3,1.7575084E3,4.6813286E3,-9.015123E-2,9.06828E-2,1.8360697E-2,1.3394643E-1,8.557371E-2,-3.8166534E-2,2.3134027E-3,7.862015E-2,1.1531443E-2,-8.5379876E-2,-1.3604379E-1,-3.0169252E-2,-1.1689273E-1,-1.4783533E-2,-6.220158E-2],"split_indices":[4,4,1,1,1,5,4,4,4,2,4,4,4,2,0,0,0,0,0,0,0,0,0,0,0,0,0,0,0],"split_type":[0,0,0,0,0,0,0,0,0,0,0,0,0,0,0,0,0,0,0,0,0,0,0,0,0,0,0,0,0],"sum_hessian":[1.296E3,1.234E3,6.2E1,5.6E1,1.178E3,4.4E1,1.8E1,2.2E1,3.4E1,1.096E3,8.2E1,2.8E1,1.6E1,1.4E1,4E0,9E0,1.3E1,1.9E1,1.5E1,1.58E2,9.38E2,5.7E1,2.5E1,1.2E1,1.6E1,1E1,6E0,1.2E1,2E0],"tree_param":{"num_deleted":"0","num_feature":"10","num_nodes":"29","size_leaf_vector":"1"}},{"base_weights":[-1.8061684E-2,1.3006736E0,-1.3556845E-1,2.091975E0,8.509849E-1,-1.2638793E0,-1.3402424E-2,1.34122E-1,1.7389922E0,1.7550957E-1,1.4828471E0,-4.0436155E-1,-1.9782431E0,1.659532E0,-1.7893925E-1,5.4808278E-2,1.1058444E-1,-1.19560305E-2,2.5771726E-2,8.650726E-2,4.9415898E-2,-6.258049E-2,3.3563178E-3,-1.2643258E-1,-6.534263E-2,1.1614402E-1,5.7803858E-2,-3.9623794E-3,-8.500031E-2],"categories":[],"categories_nodes":[],"categories_segments":[],"categories_sizes":[],"default_left":[0,0,0,0,0,0,0,0,0,0,0,0,0,0,0,0,0,0,0,0,0,0,0,0,0,0,0,0,0],"id":6,"left_children":[1,3,5,7,9,11,13,-1,15,17,19,21,23,25,27,-1,-1,-1,-1,-1,-1,-1,-1,-1,-1,-1,-1,-1,-1],"loss_changes":[1.9697592E2,3.522705E1,1.6084381E2,3.0469513E0,2.8762642E1,6.919704E1,2.9218356E2,0E0,5.476036E0,4.915317E0,2.5704346E0,2.1255781E1,1.9606827E1,2.904132E1,1.4543747E2,0E0,0E0,0E0,0E0,0E0,0E0,0E0,0E0,0E0,0E0,0E0,0E0,0E0,0E0],"parents":[2147483647,0,0,1,1,2,2,3,3,4,4,5,5,6,6,8,8,9,9,10,10,11,11,12,12,13,13,14,14],"right_children":[2,4,6,8,10,12,14,-1,16,18,20,22,24,26,28,-1,-1,-1,-1,-1,-1,-1,-1,-1,-1,-1,-1,-1,-1],"split_conditions":[4.4987595E2,4.0887936E2,1.4515624E3,3.824859E2,2.4565497E2,4.7204944E2,5.3966284E2,1.34122E-1,2.4091722E2,8.868245E-1,8.862136E-1,2.484448E2,2.5712915E2,5.0261346E2,1.655822E3,5.4808278E-2,1.1058444E-1,-1.19560305E-2,2.5771726E-2,8.650726E-2,4.9415898E-2,-6.258049E-2,3.3563178E-3,-1.2643258E-1,-6.534263E-2,1.1614402E-1,5.7803858E-2,-3.9623794E-3,-8.500031E-2],"split_indices":[4,4,2,4,1,4,4,0,1,7,9,1,1,4,4,0,0,0,0,0,0,0,0,0,0,0,0,0,0],"split_type":[0,0,0,0,0,0,0,0,0,0,0,0,0,0,0,0,0,0,0,0,0,0,0,0,0,0,0,0,0],"sum_hessian":[1.269E3,1.03E2,1.166E3,3.6E1,6.7E1,1.13E2,1.053E3,1.1E1,2.5E1,3.3E1,3.4E1,5.2E1,6.1E1,9.4E1,9.59E2,1.2E1,1.3E1,1.5E1,1.8E1,2.1E1,1.3E1,1.8E1,3.4E1,3.2E1,2.9E1,3.9E1,5.5E1,9.01E2,5.8E1],"tree_param":{"num_deleted":"0","num_feature":"10","num_nodes":"29","size_leaf_vector":"1"}},{"base_weights":[5.146144E-3,5.1253957E-1,-1.3982858E-1,1.5008609E0,3.721244E-1,1.2964879E-1,-5.2558386E-1,1.0699834E0,2.147732E0,4.368102E-1,-5.40146E-1,9.4712996E-1,4.8270226E-2,-3.8940606E-1,-1.0984741E0,-2.5343021E-2,7.143137E-2,1.202011E-1,2.4604566E-2,1.6651932E-2,5.4073036E-2,-1.082854E-2,-9.889867E-2,-2.8318075E-2,5.5829227E-2,1.1454066E-2,-2.0174107E-2,2.0997277E-2,-2.4772225E-2,-1.85153E-2,-8.121176E-2],"categories":[],"categories_nodes":[],"categories_segments":[],"categories_sizes":[],"default_left":[0,0,0,0,0,0,0,0,0,0,0,0,0,0,0,0,0,0,0,0,0,0,0,0,0,0,0,0,0,0,0],"id":7,"left_children":[1,3,5,7,9,11,13,15,17,19,21,23,25,27,29,-1,-1,-1,-1,-1,-1,-1,-1,-1,-1,-1,-1,-1,-1,-1,-1],"loss_changes":[9.400678E1,3.885369E1,1.0339674E2,7.4572372E0,1.498867E1,3.8938194E1,3.148037E1,1.3731205E1,4.333214E0,1.5293587E1,7.4807987E0,1.4225193E1,4.3710526E1,2.8701092E1,2.9260246E1,0E0,0E0,0E0,0E0,0E0,0E0,0E0,0E0,0E0,0E0,0E0,0E0,0E0,0E0,0E0,0E0],"parents":[2147483647,0,0,1,1,2,2,3,3,4,4,5,5,6,6,7,7,8,8,9,9,10,10,11,11,12,12,13,13,14,14],"right_children":[2,4,6,8,10,12,14,16,18,20,22,24,26,28,30,-1,-1,-1,-1,-1,-1,-1,-1,-1,-1,-1,-1,-1,-1,-1,-1],"split_conditions":[-5.2997192E1,-6.885358E2,2.283025E3,4.3228876E2,4.4881426E3,1.5615645E3,7.218945E2,6.419265E-1,9.3370026E-1,4.2976535E2,8.439779E-1,8.9950097E-1,9.449821E-1,3.077038E3,2.37449E3,-2.5343021E-2,7.143137E-2,1.202011E-1,2.4604566E-2,1.6651932E-2,5.4073036E-2,-1.082854E-2,-9.889867E-2,-2.8318075E-2,5.5829227E-2,1.1454066E-2,-2.0174107E-2,2.0997277E-2,-2.4772225E-2,-1.85153E-2,-8.121176E-2],"split_indices":[8,8,2,1,2,8,8,7,3,1,5,3,5,2,2,0,0,0,0,0,0,0,0,0,0,0,0,0,0,0,0],"split_type":[0,0,0,0,0,0,0,0,0,0,0,0,0,0,0,0,0,0,0,0,0,0,0,0,0,0,0,0,0,0,0],"sum_hessian":[1.276E3,2.83E2,9.93E2,3.4E1,2.49E2,5.85E2,4.08E2,2.2E1,1.2E1,2.33E2,1.6E1,5.2E1,5.33E2,3.31E2,7.7E1,4E0,1.8E1,1E1,2E0,2.02E2,3.1E1,1.4E1,2E0,5E0,4.7E1,3.81E2,1.52E2,3.8E1,2.93E2,3.3E1,4.4E1],"tree_param":{"num_deleted":"0","num_feature":"10","num_nodes":"31","size_leaf_vector":"1"}},{"base_weights":[1.3516824E-2,1.1820866E0,-9.922506E-2,1.9702196E0,7.50745E-1,1.3640243E-2,-1.2968624E0,1.248951E0,2.2445261E0,1.3558502E-1,1.3963143E0,1.4727539E0,-1.7379753E-1,-4.1222098E-1,-1.9303575E0,7.183504E-2,7.210883E-3,1.15603186E-1,4.6676826E-2,7.4014634E-2,1.144511E-3,1.23095706E-1,6.1241902E-2,1.4187585E-1,5.252806E-2,-1.5411176E-3,-7.024102E-2,-5.6198794E-2,-3.316401E-3,-1.275523E-1,-7.247947E-2],"categories":[],"categories_nodes":[],"categories_segments":[],"categories_sizes":[],"default_left":[0,0,0,0,0,0,0,0,0,0,0,0,0,0,0,0,0,0,0,0,0,0,0,0,0,0,0,0,0,0,0],"id":8,"left_children":[1,3,5,7,9,11,13,15,17,19,21,23,25,27,29,-1,-1,-1,-1,-1,-1,-1,-1,-1,-1,-1,-1,-1,-1,-1,-1],"loss_changes":[1.6769916E2,3.6595764E1,1.5695203E2,4.912796E0,2.9198181E1,2.9070554E2,5.524585E1,2.4891796E0,2.3222351E-1,5.8762374E0,3.5626526E0,6.673837E1,1.6575407E2,1.0511663E1,1.360965E1,0E0,0E0,0E0,0E0,0E0,0E0,0E0,0E0,0E0,0E0,0E0,0E0,0E0,0E0,0E0,0E0],"parents":[2147483647,0,0,1,1,2,2,3,3,4,4,5,5,6,6,7,7,8,8,9,9,10,10,11,11,12,12,13,13,14,14],"right_children":[2,4,6,8,10,12,14,16,18,20,22,24,26,28,30,-1,-1,-1,-1,-1,-1,-1,-1,-1,-1,-1,-1,-1,-1,-1,-1],"split_conditions":[4.5437042E2,4.0887936E2,1.4E1,2.2857593E2,2.4462437E2,5.5273456E2,4.7204944E2,4.0401874E2,1.3809991E3,1.4E1,9.347835E-1,4.9231802E2,8.4258217E-1,2.484448E2,2.4782014E2,7.183504E-2,7.210883E-3,1.15603186E-1,4.6676826E-2,7.4014634E-2,1.144511E-3,1.23095706E-1,6.1241902E-2,1.4187585E-1,5.252806E-2,-1.5411176E-3,-7.024102E-2,-5.6198794E-2,-3.316401E-3,-1.275523E-1,-7.247947E-2],"split_indices":[4,4,0,1,1,4,4,4,2,0,5,4,9,1,1,0,0,0,0,0,0,0,0,0,0,0,0,0,0,0,0],"split_type":[0,0,0,0,0,0,0,0,0,0,0,0,0,0,0,0,0,0,0,0,0,0,0,0,0,0,0,0,0,0,0],"sum_hessian":[1.271E3,1.11E2,1.16E3,3.8E1,7.3E1,1.061E3,9.9E1,1.2E1,2.6E1,3.8E1,3.5E1,1.2E2,9.41E2,4.2E1,5.7E1,1E1,2E0,2.4E1,2E0,2E0,3.6E1,3E0,3.2E1,2.7E1,9.3E1,8.44E2,9.7E1,1.3E1,2.9E1,2.3E1,3.4E1],"tree_param":{"num_deleted":"0","num_feature":"10","num_nodes":"31","size_leaf_vector":"1"}},{"base_weights":[-1.6576508E-2,4.733243E-1,-1.7121127E-1,1.4389193E0,3.382484E-1,8.366044E-2,-5.3792214E-1,8.744165E-1,1.7840614E0,5.369625E-1,-1.759772E-2,7.8653955E-1,9.941189E-3,3.1255573E-2,-7.3617256E-1,6.8911485E-2,1.6471257E-2,1.1803629E-1,6.01619E-2,2.268151E-2,1.0942858E-1,-9.092838E-3,8.043485E-2,2.6471345E-2,7.416656E-2,1.0126719E-2,-2.1586856E-2,-7.2769746E-3,8.4500186E-2,-5.803079E-2,-2.665017E-2],"categories":[],"categories_nodes":[],"categories_segments":[],"categories_sizes":[],"default_left":[0,0,0,0,0,0,0,0,0,0,0,0,0,0,0,0,0,0,0,0,0,0,0,0,0,0,0,0,0,0,0],"id":9,"left_children":[1,3,5,7,9,11,13,15,17,19,21,23,25,27,29,-1,-1,-1,-1,-1,-1,-1,-1,-1,-1,-1,-1,-1,-1,-1,-1],"loss_changes":[9.598775E1,3.916359E1,9.005104E1,5.648834E0,1.8960173E1,2.9475328E1,4.4594704E1,3.9391575E0,4.5281754E0,2.267997E1,2.620451E1,8.889E0,4.3980583E1,3.0451584E1,2.4647873E1,0E0,0E0,0E0,0E0,0E0,0E0,0E0,0E0,0E0,0E0,0E0,0E0,0E0,0E0,0E0,0E0],"parents":[2147483647,0,0,1,1,2,2,3,3,4,4,5,5,6,6,7,7,8,8,9,9,10,10,11,11,12,12,13,13,14,14],"right_children":[2,4,6,8,10,12,14,16,18,20,22,24,26,28,30,-1,-1,-1,-1,-1,-1,-1,-1,-1,-1,-1,-1,-1,-1,-1,-1],"split_conditions":[-2.6739065E1,-6.885358E2,2.2613342E3,6.767591E-1,3.95552E3,1.5577456E3,1.4349783E2,4.186211E3,8.111206E-1,9.414476E-1,-9.127271E1,9.4724196E-1,9.4445926E-1,1.2925284E2,9.0143895E-1,6.8911485E-2,1.6471257E-2,1.1803629E-1,6.01619E-2,2.268151E-2,1.0942858E-1,-9.092838E-3,8.043485E-2,2.6471345E-2,7.416656E-2,1.0126719E-2,-2.1586856E-2,-7.2769746E-3,8.4500186E-2,-5.803079E-2,-2.665017E-2],"split_indices":[8,8,2,7,2,8,8,2,5,3,8,3,5,8,3,0,0,0,0,0,0,0,0,0,0,0,0,0,0,0,0],"split_type":[0,0,0,0,0,0,0,0,0,0,0,0,0,0,0,0,0,0,0,0,0,0,0,0,0,0,0,0,0,0,0],"sum_hessian":[1.265E3,3.03E2,9.62E2,3.6E1,2.67E2,5.68E2,3.94E2,1.5E1,2.1E1,1.71E2,9.6E1,5.3E1,5.15E2,1.02E2,2.92E2,7E0,8E0,9E0,1.2E1,1.64E2,7E0,8.8E1,8E0,4E1,1.3E1,3.59E2,1.56E2,9.3E1,9E0,9.3E1,1.99E2],"tree_param":{"num_deleted":"0","num_feature":"10","num_nodes":"31","size_leaf_vector":"1"}},{"base_weights":[1.9219788E-2,1.4862912E0,-6.730952E-2,2.2311857E0,1.1288118E0,3.0577565E-2,-1.2370206E0,2.3216038E0,8.310223E-3,5.3721845E-1,9.286649E-2,5.3522E-1,-1.8490516E-1,-8.5715157E-1,-2.006174E0,1.1879603E-1,3.0881703E-2,-7.481468E-3,3.4327313E-2,1.14630006E-1,2.0176603E-2,9.894923E-3,-3.126E-2,-9.18472E-2,-1.679643E-2,-1.1576253E-1,-7.1195036E-2],"categories":[],"categories_nodes":[],"categories_segments":[],"categories_sizes":[],"default_left":[0,0,0,0,0,0,0,0,0,0,0,0,0,0,0,0,0,0,0,0,0,0,0,0,0,0,0],"id":10,"left_children":[1,3,5,7,9,11,13,15,-1,17,-1,19,21,23,25,-1,-1,-1,-1,-1,-1,-1,-1,-1,-1,-1,-1],"loss_changes":[1.6182756E2,1.6387604E1,1.3789536E2,3.7217941E0,2.0551533E1,1.2101978E2,2.5452942E1,4.7618866E-1,0E0,3.0771265E0,0E0,7.613967E1,1.3158995E2,3.20671E1,2.1023178E0,0E0,0E0,0E0,0E0,0E0,0E0,0E0,0E0,0E0,0E0,0E0,0E0],"parents":[2147483647,0,0,1,1,2,2,3,3,4,4,5,5,6,6,7,7,9,9,11,11,12,12,13,13,14,14],"right_children":[2,4,6,8,10,12,14,16,-1,18,-1,20,22,24,26,-1,-1,-1,-1,-1,-1,-1,-1,-1,-1,-1,-1],"split_conditions":[4.3081927E2,3.97286E2,1.6174965E3,9.1309404E-1,2.431991E2,8.456173E1,1.7078124E3,1.3809991E3,8.310223E-3,2.2055977E2,9.286649E-2,9.521973E2,6.301281E2,7.9625815E-1,8.3851886E-1,1.1879603E-1,3.0881703E-2,-7.481468E-3,3.4327313E-2,1.14630006E-1,2.0176603E-2,9.894923E-3,-3.126E-2,-9.18472E-2,-1.679643E-2,-1.1576253E-1,-7.1195036E-2],"split_indices":[4,4,4,7,1,8,4,2,0,1,0,4,4,5,5,0,0,0,0,0,0,0,0,0,0,0,0],"split_type":[0,0,0,0,0,0,0,0,0,0,0,0,0,0,0,0,0,0,0,0,0,0,0,0,0,0,0],"sum_hessian":[1.273E3,7E1,1.203E3,2.1E1,4.9E1,1.111E3,9.2E1,2E1,1E0,2.8E1,2.1E1,3.32E2,7.79E2,6.3E1,2.9E1,1.9E1,1E0,5E0,2.3E1,2.2E1,3.1E2,4.17E2,3.62E2,2.1E1,4.2E1,1.7E1,1.2E1],"tree_param":{"num_deleted":"0","num_feature":"10","num_nodes":"27","size_leaf_vector":"1"}},{"base_weights":[1.0038664E-2,1.4422984E0,-5.5874713E-2,2.1041527E0,9.850671E-1,4.5667058E-1,-2.1889684E-1,2.5833309E-2,1.077572E-1,4.1593167E-1,8.580928E-2,2.2524636E0,3.1028187E-1,1.6305241E-1,-5.502489E-1,-6.5751225E-3,3.495209E-2,1.2322146E-1,6.382419E-2,6.493929E-2,6.7503713E-3,9.853851E-2,-8.80163E-3,-5.5499103E-2,-1.6319118E-2],"categories":[],"categories_nodes":[],"categories_segments":[],"categories_sizes":[],"default_left":[0,0,0,0,0,0,0,0,0,0,0,0,0,0,0,0,0,0,0,0,0,0,0,0,0],"id":11,"left_children":[1,3,5,7,9,11,13,-1,-1,15,-1,17,19,21,23,-1,-1,-1,-1,-1,-1,-1,-1,-1,-1],"loss_changes":[1.2016383E2,1.4874023E1,1.0178789E2,6.67366E-1,1.3849876E1,7.6588936E1,1.1703087E2,0E0,0E0,3.3465927E0,0E0,1.405426E0,4.7124496E1,2.63924E2,6.1663956E1,0E0,0E0,0E0,0E0,0E0,0E0,0E0,0E0,0E0,0E0],"parents":[2147483647,0,0,1,1,2,2,3,3,4,4,5,5,6,6,9,9,11,11,12,12,13,13,14,14],"right_children":[2,4,6,8,10,12,14,-1,-1,16,-1,18,20,22,24,-1,-1,-1,-1,-1,-1,-1,-1,-1,-1],"split_conditions":[4.2133658E2,3.97286E2,-2.6739065E1,8.4849554E-1,2.3638905E2,9.521973E2,6.266955E2,2.5833309E-2,1.077572E-1,2.2055977E2,8.580928E-2,-1.5996608E2,-6.135089E2,8.329708E-1,3.2577887E2,-6.5751225E-3,3.495209E-2,1.2322146E-1,6.382419E-2,6.493929E-2,6.7503713E-3,9.853851E-2,-8.80163E-3,-5.5499103E-2,-1.6319118E-2],"split_indices":[4,4,8,9,1,4,4,0,0,1,0,8,8,9,1,0,0,0,0,0,0,0,0,0,0],"split_type":[0,0,0,0,0,0,0,0,0,0,0,0,0,0,0,0,0,0,0,0,0,0,0,0,0],"sum_hessian":[1.271E3,5.5E1,1.216E3,2.1E1,3.4E1,2.93E2,9.23E2,1E0,2E1,2E1,1.4E1,2.1E1,2.72E2,4.29E2,4.94E2,7E0,1.3E1,1.6E1,5E0,4E1,2.32E2,6.7E1,3.62E2,1.4E2,3.54E2],"tree_param":{"num_deleted":"0","num_feature":"10","num_nodes":"25","size_leaf_vector":"1"}},{"base_weights":[9.749284E-3,7.65614E-2,-1.5208104E0,1.360298E0,1.446838E-2,-1.8404498E0,-7.9704183E-1,6.652741E-1,1.7904525E0,8.435665E-1,-9.566034E-2,-1.2521272E0,-2.0824392E0,-7.3789186E-3,-1.1912583E0,9.575605E-2,1.9102052E-2,1.767466E-2,9.116424E-2,6.753204E-2,2.2459766E-2,-3.4148827E-2,6.1415014E-4,-7.5700864E-2,-1.4218521E-2,-2.276863E-2,-1.0666912E-1,3.657017E-3,-6.9559016E-3,9.1120007E-4,-6.51434E-2],"categories":[],"categories_nodes":[],"categories_segments":[],"categories_sizes":[],"default_left":[0,0,0,0,0,0,0,0,0,0,0,0,0,0,0,0,0,0,0,0,0,0,0,0,0,0,0,0,0,0,0],"id":12,"left_children":[1,3,5,7,9,11,13,15,17,19,21,23,25,27,29,-1,-1,-1,-1,-1,-1,-1,-1,-1,-1,-1,-1,-1,-1,-1,-1],"loss_changes":[1.295775E2,9.6749565E1,1.0794365E1,1.5551048E1,1.05906105E2,2.5177612E0,5.594577E0,7.4102974E0,9.595642E-1,2.6589958E1,6.492678E1,2.864254E0,1.0178223E0,8.4427886E-2,1.6436234E0,0E0,0E0,0E0,0E0,0E0,0E0,0E0,0E0,0E0,0E0,0E0,0E0,0E0,0E0,0E0,0E0],"parents":[2147483647,0,0,1,1,2,2,3,3,4,4,5,5,6,6,7,7,8,8,9,9,10,10,11,11,12,12,13,13,14,14],"right_children":[2,4,6,8,10,12,14,16,18,20,22,24,26,28,30,-1,-1,-1,-1,-1,-1,-1,-1,-1,-1,-1,-1,-1,-1,-1,-1],"split_conditions":[1.655822E3,4.231695E2,4.4059634E2,2.3335583E2,-3.174335E2,1.6773163E3,1.6972806E3,3.7293958E2,8.5806245E-1,1.224453E3,1.4777906E3,1.6710342E3,3.9483835E2,4.5518155E2,4.161058E3,9.575605E-2,1.9102052E-2,1.767466E-2,9.116424E-2,6.753204E-2,2.2459766E-2,-3.4148827E-2,6.1415014E-4,-7.5700864E-2,-1.4218521E-2,-2.276863E-2,-1.0666912E-1,3.657017E-3,-6.9559016E-3,9.1120007E-4,-6.51434E-2],"split_indices":[4,4,1,1,8,4,4,4,7,4,2,4,1,1,2,0,0,0,0,0,0,0,0,0,0,0,0,0,0,0,0],"split_type":[0,0,0,0,0,0,0,0,0,0,0,0,0,0,0,0,0,0,0,0,0,0,0,0,0,0,0,0,0,0,0],"sum_hessian":[1.265E3,1.213E3,5.2E1,5.5E1,1.158E3,3.5E1,1.7E1,2.2E1,3.3E1,1.35E2,1.023E3,1.2E1,2.3E1,6E0,1.1E1,3E0,1.9E1,1E0,3.2E1,5.8E1,7.7E1,1.58E2,8.65E2,9E0,3E0,1E0,2.2E1,4E0,2E0,1E0,1E1],"tree_param":{"num_deleted":"0","num_feature":"10","num_nodes":"31","size_leaf_vector":"1"}},{"base_weights":[9.4226925E-3,8.844917E-2,-1.1351466E0,9.258734E-1,-1.4845365E-2,-1.06973544E-1,-8.633756E-1,2.32874E0,5.257869E-1,1.2743317E-1,-1.961714E0,-4.6337667E-1,-9.247555E-2,1.3189828E-1,5.9363812E-2,-1.3097105E-2,5.2129686E-2,4.819603E-2,1.3530926E-3,-6.928755E-2,-1.3705347E-1,-4.4038247E-2,-7.2575733E-3],"categories":[],"categories_nodes":[],"categories_segments":[],"categories_sizes":[],"default_left":[0,0,0,0,0,0,0,0,0,0,0,0,0,0,0,0,0,0,0,0,0,0,0],"id":13,"left_children":[1,3,5,7,9,-1,11,13,15,17,19,21,-1,-1,-1,-1,-1,-1,-1,-1,-1,-1,-1],"loss_changes":[1.16239845E2,1.0398836E2,2.0807358E1,7.286296E1,2.9691443E2,0E0,2.5571331E1,7.104126E0,4.2611885E1,8.3849304E1,2.8969788E1,6.3805065E0,0E0,0E0,0E0,0E0,0E0,0E0,0E0,0E0,0E0,0E0,0E0],"parents":[2147483647,0,0,1,1,2,2,3,3,4,4,6,6,7,7,8,8,9,9,10,10,11,11],"right_children":[2,4,6,8,10,-1,12,14,16,18,20,22,-1,-1,-1,-1,-1,-1,-1,-1,-1,-1,-1],"split_conditions":[1.6174965E3,7E0,7.837099E-1,1.4810046E3,1.3108923E3,-1.06973544E-1,1.737777E3,4.3372305E3,7.798461E-1,4.4987595E2,1.3645043E3,8.111206E-1,-9.247555E-2,1.3189828E-1,5.9363812E-2,-1.3097105E-2,5.2129686E-2,4.819603E-2,1.3530926E-3,-6.928755E-2,-1.3705347E-1,-4.4038247E-2,-7.2575733E-3],"split_indices":[4,0,5,4,4,0,4,2,5,4,4,5,0,0,0,0,0,0,0,0,0,0,0],"split_type":[0,0,0,0,0,0,0,0,0,0,0,0,0,0,0,0,0,0,0,0,0,0,0],"sum_hessian":[1.283E3,1.201E3,8.2E1,1.31E2,1.07E3,1.6E1,6.6E1,2.8E1,1.03E2,9.98E2,7.2E1,4.8E1,1.8E1,2.1E1,7E0,4.1E1,6.2E1,1.06E2,8.92E2,4.3E1,2.9E1,2E1,2.8E1],"tree_param":{"num_deleted":"0","num_feature":"10","num_nodes":"23","size_leaf_vector":"1"}},{"base_weights":[3.157816E-2,9.977267E-2,-1.4400386E0,1.2282544E0,4.1789886E-2,-1.0531886E0,-2.034637E0,2.5570184E-1,1.4975476E0,-9.77122E-1,1.19908676E-1,-9.858873E-2,-4.482585E-1,-4.5503974E-3,-2.1272678E0,4.833377E-2,-6.267755E-3,1.04610085E-1,5.9994496E-2,-1.2741188E-2,-8.4660254E-2,3.544352E-2,-2.8827993E-4,-3.9723963E-2,4.0638233E-3,-1.0865753E-1,-3.1387474E-2],"categories":[],"categories_nodes":[],"categories_segments":[],"categories_sizes":[],"default_left":[0,0,0,0,0,0,0,0,0,0,0,0,0,0,0,0,0,0,0,0,0,0,0,0,0,0,0],"id":14,"left_children":[1,3,5,7,9,11,13,15,17,19,21,-1,23,-1,25,-1,-1,-1,-1,-1,-1,-1,-1,-1,-1,-1,-1],"loss_changes":[1.2689352E2,7.899115E1,1.0738289E1,1.5069275E1,9.165275E1,1.9120625E1,3.5872498E0,3.9140773E0,5.631752E0,4.1981026E1,7.912862E1,0E0,4.2813E0,0E0,1.184082E-2,0E0,0E0,0E0,0E0,0E0,0E0,0E0,0E0,0E0,0E0,0E0,0E0],"parents":[2147483647,0,0,1,1,2,2,3,3,4,4,5,5,6,6,7,7,8,8,9,9,10,10,12,12,14,14],"right_children":[2,4,6,8,10,12,14,16,18,20,22,-1,24,-1,26,-1,-1,-1,-1,-1,-1,-1,-1,-1,-1,-1,-1],"split_conditions":[1.655822E3,4.2133658E2,1.737777E3,2.2207405E2,2.484448E2,7.873561E-1,8.746419E-1,3.9326718E2,3.97286E2,4.681499E2,5.480713E2,-9.858873E-2,8.328203E-1,-4.5503974E-3,9.494307E-1,4.833377E-2,-6.267755E-3,1.04610085E-1,5.9994496E-2,-1.2741188E-2,-8.4660254E-2,3.544352E-2,-2.8827993E-4,-3.9723963E-2,4.0638233E-3,-1.0865753E-1,-3.1387474E-2],"split_indices":[4,4,4,1,1,5,3,4,4,4,4,0,5,0,3,0,0,0,0,0,0,0,0,0,0,0,0],"split_type":[0,0,0,0,0,0,0,0,0,0,0,0,0,0,0,0,0,0,0,0,0,0,0,0,0,0,0],"sum_hessian":[1.262E3,1.207E3,5.5E1,5.8E1,1.149E3,3.5E1,2E1,1.3E1,4.5E1,8.1E1,1.068E3,1.3E1,2.2E1,1E0,1.9E1,4E0,9E0,1.3E1,3.2E1,4.1E1,4E1,1.87E2,8.81E2,1.3E1,9E0,1.8E1,1E0],"tree_param":{"num_deleted":"0","num_feature":"10","num_nodes":"27","size_leaf_vector":"1"}},{"base_weights":[2.7960068E-2,8.579811E-2,-1.4256437E0,1.2421664E0,1.9220874E-2,-9.268663E-2,-8.6112E-1,1.8896608E0,9.264313E-1,-7.3080283E-1,1.2571864E-1,7.2750136E-2,-1.5850778E0,9.8955415E-2,2.517748E-3,1.4504298E-2,7.3740594E-2,-5.7124365E-3,-8.0117516E-2,6.89968E-2,-3.2656498E-3,-2.3799753E-2,1.2379093E-2,-3.4995932E-2,-8.903168E-2],"categories":[],"categories_nodes":[],"categories_segments":[],"categories_sizes":[],"default_left":[0,0,0,0,0,0,0,0,0,0,0,0,0,0,0,0,0,0,0,0,0,0,0,0,0],"id":15,"left_children":[1,3,5,7,9,-1,11,13,15,17,19,21,23,-1,-1,-1,-1,-1,-1,-1,-1,-1,-1,-1,-1],"loss_changes":[1.0765243E2,9.47481E1,1.0245361E1,1.1946617E1,9.314725E1,0E0,1.5665215E1,3.355301E0,1.597327E1,7.7733574E1,2.4471683E2,1.1731665E0,1.0039787E0,0E0,0E0,0E0,0E0,0E0,0E0,0E0,0E0,0E0,0E0,0E0,0E0],"parents":[2147483647,0,0,1,1,2,2,3,3,4,4,6,6,7,7,8,8,9,9,10,10,11,11,12,12],"right_children":[2,4,6,8,10,-1,12,14,16,18,20,22,24,-1,-1,-1,-1,-1,-1,-1,-1,-1,-1,-1,-1],"split_conditions":[1.6623295E3,4.3081927E2,8.298364E-1,3.97286E2,1.4777906E3,-9.268663E-2,1.737777E3,9.1309404E-1,2.3851825E2,4.7204944E2,5.5273456E2,4.1064404E2,1.7800487E3,9.8955415E-2,2.517748E-3,1.4504298E-2,7.3740594E-2,-5.7124365E-3,-8.0117516E-2,6.89968E-2,-3.2656498E-3,-2.3799753E-2,1.2379093E-2,-3.4995932E-2,-8.903168E-2],"split_indices":[4,4,5,4,2,0,4,7,1,4,4,1,4,0,0,0,0,0,0,0,0,0,0,0,0],"split_type":[0,0,0,0,0,0,0,0,0,0,0,0,0,0,0,0,0,0,0,0,0,0,0,0,0],"sum_hessian":[1.278E3,1.23E3,4.8E1,6.6E1,1.164E3,2.6E1,2.2E1,2E1,4.6E1,1.44E2,1.02E3,1E1,1.2E1,1.9E1,1E0,2.2E1,2.4E1,8.5E1,5.9E1,1.34E2,8.86E2,2E0,8E0,3E0,9E0],"tree_param":{"num_deleted":"0","num_feature":"10","num_nodes":"25","size_leaf_vector":"1"}},{"base_weights":[-1.2019377E-2,5.9858073E-2,-9.7487724E-1,8.8879424E-1,-3.753581E-2,-1.335576E0,-1.9498757E-1,2.0333617E0,4.8540765E-1,1.2989712E-1,-1.6394936E0,-9.754027E-2,-1.0469782E0,3.863062E-1,-9.401419E-1,1.1516502E-1,5.437979E-2,4.685795E-3,6.1457075E-2,5.462993E-2,-2.0981086E-3,-6.0086858E-2,-1.3611169E-1,-3.199131E-2,-9.2233144E-2,-4.7731954E-3,6.4273104E-2,-1.0329413E-2,-5.697746E-2],"categories":[],"categories_nodes":[],"categories_segments":[],"categories_sizes":[],"default_left":[0,0,0,0,0,0,0,0,0,0,0,0,0,0,0,0,0,0,0,0,0,0,0,0,0,0,0,0,0],"id":16,"left_children":[1,3,5,7,9,11,13,15,17,19,21,-1,23,25,27,-1,-1,-1,-1,-1,-1,-1,-1,-1,-1,-1,-1,-1,-1],"loss_changes":[8.767539E1,9.521793E1,2.4494438E1,5.6264175E1,2.834538E2,8.610779E0,1.2924637E1,5.664505E0,2.6977047E1,1.5838074E2,4.412625E1,0E0,1.2785229E1,7.486885E0,1.6661682E0,0E0,0E0,0E0,0E0,0E0,0E0,0E0,0E0,0E0,0E0,0E0,0E0,0E0,0E0],"parents":[2147483647,0,0,1,1,2,2,3,3,4,4,5,5,6,6,7,7,8,8,9,9,10,10,12,12,13,13,14,14],"right_children":[2,4,6,8,10,12,14,16,18,20,22,-1,24,26,28,-1,-1,-1,-1,-1,-1,-1,-1,-1,-1,-1,-1,-1,-1],"split_conditions":[1.6174965E3,7E0,4.4219476E2,1.4810046E3,1.2894231E3,7.837099E-1,1.6972806E3,4.3372305E3,8.029306E-1,8E0,1.3645043E3,-9.754027E-2,1.737777E3,8.3484113E-1,8.8742274E-1,1.1516502E-1,5.437979E-2,4.685795E-3,6.1457075E-2,5.462993E-2,-2.0981086E-3,-6.0086858E-2,-1.3611169E-1,-3.199131E-2,-9.2233144E-2,-4.7731954E-3,6.4273104E-2,-1.0329413E-2,-5.697746E-2],"split_indices":[4,0,1,4,4,5,4,2,5,0,4,0,4,5,3,0,0,0,0,0,0,0,0,0,0,0,0,0,0],"split_type":[0,0,0,0,0,0,0,0,0,0,0,0,0,0,0,0,0,0,0,0,0,0,0,0,0,0,0,0,0],"sum_hessian":[1.265E3,1.178E3,8.7E1,1.23E2,1.055E3,5.9E1,2.8E1,3.1E1,9.2E1,9.56E2,9.9E1,1.7E1,4.2E1,1.6E1,1.2E1,2.3E1,8E0,6.1E1,3.1E1,1.44E2,8.12E2,7.2E1,2.7E1,2.9E1,1.3E1,1.1E1,5E0,3E0,9E0],"tree_param":{"num_deleted":"0","num_feature":"10","num_nodes":"29","size_leaf_vector":"1"}},{"base_weights":[-6.819689E-3,1.0896741E0,-8.02809E-2,1.5900877E0,7.8964216E-1,3.471068E-1,-2.7868736E-1,1.6701165E0,3.3979782E-1,-3.366808E-1,8.905166E-1,2.1270342E0,1.9354987E-1,4.5109622E-2,-5.781532E-1,8.6524725E-2,2.5072575E-3,3.3813359E-3,2.2103501E-2,-8.258218E-3,-2.5568664E-2,2.5598893E-2,5.8298673E-2,1.4022624E-1,8.240313E-2,1.6965404E-2,-4.274934E-2,-1.4447801E-2,7.9535596E-2,-1.3662334E-1,-2.5168179E-2],"categories":[],"categories_nodes":[],"categories_segments":[],"categories_sizes":[],"default_left":[0,0,0,0,0,0,0,0,0,0,0,0,0,0,0,0,0,0,0,0,0,0,0,0,0,0,0,0,0,0,0],"id":17,"left_children":[1,3,5,7,9,11,13,15,17,19,21,23,25,27,29,-1,-1,-1,-1,-1,-1,-1,-1,-1,-1,-1,-1,-1,-1,-1,-1],"loss_changes":[1.0262734E2,1.07556E1,1.0134373E2,2.334221E0,6.2079163E0,1.0317666E2,7.915045E1,2.5541077E0,5.361089E-2,6.53525E-2,4.408058E0,5.1129303E0,5.3781597E1,2.0337834E2,6.6939606E1,0E0,0E0,0E0,0E0,0E0,0E0,0E0,0E0,0E0,0E0,0E0,0E0,0E0,0E0,0E0,0E0],"parents":[2147483647,0,0,1,1,2,2,3,3,4,4,5,5,6,6,7,7,8,8,9,9,10,10,11,11,12,12,13,13,14,14],"right_children":[2,4,6,8,10,12,14,16,18,20,22,24,26,28,30,-1,-1,-1,-1,-1,-1,-1,-1,-1,-1,-1,-1,-1,-1,-1,-1],"split_conditions":[4.3081927E2,4.0401874E2,8.456173E1,1.3809991E3,1.6629335E3,9.521973E2,6.2173456E2,9.1309404E-1,1.3877644E3,1.3386375E3,1.2714209E3,9.1859644E2,1.5940941E3,2.1976726E3,2.7383413E3,8.6524725E-2,2.5072575E-3,3.3813359E-3,2.2103501E-2,-8.258218E-3,-2.5568664E-2,2.5598893E-2,5.8298673E-2,1.4022624E-1,8.240313E-2,1.6965404E-2,-4.274934E-2,-1.4447801E-2,7.9535596E-2,-1.3662334E-1,-2.5168179E-2],"split_indices":[4,4,8,2,6,4,4,7,2,2,2,4,4,6,6,0,0,0,0,0,0,0,0,0,0,0,0,0,0,0,0],"split_type":[0,0,0,0,0,0,0,0,0,0,0,0,0,0,0,0,0,0,0,0,0,0,0,0,0,0,0,0,0,0,0],"sum_hessian":[1.272E3,7.9E1,1.193E3,2.8E1,5.1E1,3.78E2,8.15E2,2.6E1,2E0,4E0,4.7E1,2.9E1,3.49E2,3.92E2,4.23E2,2.5E1,1E0,1E0,1E0,3E0,1E0,2.1E1,2.6E1,1E1,1.9E1,3.07E2,4.2E1,3.23E2,6.9E1,1.3E1,4.1E2],"tree_param":{"num_deleted":"0","num_feature":"10","num_nodes":"31","size_leaf_vector":"1"}},{"base_weights":[-1.4558117E-2,9.4963163E-1,-8.525323E-2,6.157842E-1,1.5745438E0,-8.825682E-1,1.4958066E-2,9.213672E-2,2.962179E-1,1.1359547E0,9.2155725E-2,-2.1219282E-1,-1.6347024E0,1.3693E0,-1.5488562E-1,2.9981563E-2,-2.9825107E-3,6.34694E-2,3.2094877E-2,-3.9052278E-2,1.18482625E-2,-1.1822654E-1,-6.567903E-2,1.0899384E-1,4.4100087E-2,1.3908672E-2,-2.4311703E-2],"categories":[],"categories_nodes":[],"categories_segments":[],"categories_sizes":[],"default_left":[0,0,0,0,0,0,0,0,0,0,0,0,0,0,0,0,0,0,0,0,0,0,0,0,0,0,0],"id":18,"left_children":[1,3,5,7,9,11,13,-1,15,17,-1,19,21,23,25,-1,-1,-1,-1,-1,-1,-1,-1,-1,-1,-1,-1],"loss_changes":[8.780739E1,1.7389442E1,9.589316E1,2.2587578E1,1.4400787E0,6.721757E1,2.4565027E2,0E0,5.2185755E0,1.0811424E-1,0E0,1.8581425E1,1.165892E1,4.5081482E1,1.3631053E2,0E0,0E0,0E0,0E0,0E0,0E0,0E0,0E0,0E0,0E0,0E0,0E0],"parents":[2147483647,0,0,1,1,2,2,3,3,4,4,5,5,6,6,8,8,9,9,11,11,12,12,13,13,14,14],"right_children":[2,4,6,8,10,12,14,-1,16,18,-1,20,22,24,26,-1,-1,-1,-1,-1,-1,-1,-1,-1,-1,-1,-1],"split_conditions":[4.4014728E2,2.4725916E2,1.4777906E3,3.824859E2,2.5990677E2,4.7204944E2,5.480713E2,9.213672E-2,4.1499457E2,4.3081927E2,9.2155725E-2,2.5010764E2,2.4644093E2,5.0261346E2,1.4349783E2,2.9981563E-2,-2.9825107E-3,6.34694E-2,3.2094877E-2,-3.9052278E-2,1.18482625E-2,-1.1822654E-1,-6.567903E-2,1.0899384E-1,4.4100087E-2,1.3908672E-2,-2.4311703E-2],"split_indices":[4,1,2,4,1,4,4,0,4,4,0,1,1,4,8,0,0,0,0,0,0,0,0,0,0,0,0],"split_type":[0,0,0,0,0,0,0,0,0,0,0,0,0,0,0,0,0,0,0,0,0,0,0,0,0,0,0],"sum_hessian":[1.286E3,8.7E1,1.199E3,5.8E1,2.9E1,1.33E2,1.066E3,1.1E1,4.7E1,1.3E1,1.6E1,7.1E1,6.2E1,1.18E2,9.48E2,2.5E1,2.2E1,9E0,4E0,3.1E1,4E1,1.7E1,4.5E1,4.3E1,7.5E1,4.11E2,5.37E2],"tree_param":{"num_deleted":"0","num_feature":"10","num_nodes":"27","size_leaf_vector":"1"}},{"base_weights":[9.664036E-3,6.7114756E-2,-1.1237535E0,6.688862E-1,-2.27902E-2,-1.3875889E0,-5.003199E-1,1.5074052E0,9.272666E-3,8.437872E-2,-2.2466269E0,-1.0835397E0,-1.8329506E0,1.9834411E-1,-8.9178085E-1,1.1438631E-1,5.1152762E-2,-1.1490039E-2,3.5784766E-2,3.9783087E-2,-5.027353E-5,-7.117667E-2,-1.3825952E-1,1.24043105E-2,-5.710238E-2,-9.8441236E-2,-2.9394401E-2,-3.6501884E-4,2.7175918E-2,-2.8565724E-4,-5.2618235E-2],"categories":[],"categories_nodes":[],"categories_segments":[],"categories_sizes":[],"default_left":[0,0,0,0,0,0,0,0,0,0,0,0,0,0,0,0,0,0,0,0,0,0,0,0,0,0,0,0,0,0,0],"id":19,"left_children":[1,3,5,7,9,11,13,15,17,19,21,23,25,27,29,-1,-1,-1,-1,-1,-1,-1,-1,-1,-1,-1,-1,-1,-1,-1,-1],"loss_changes":[8.368391E1,6.618228E1,9.503761E0,8.792867E1,2.5400694E2,3.8366318E0,5.6468735E0,2.4115906E1,1.5364287E1,6.176557E1,1.6978134E1,2.4648209E0,1.5493011E0,5.718334E-1,1.8437347E0,0E0,0E0,0E0,0E0,0E0,0E0,0E0,0E0,0E0,0E0,0E0,0E0,0E0,0E0,0E0,0E0],"parents":[2147483647,0,0,1,1,2,2,3,3,4,4,5,5,6,6,7,7,8,8,9,9,10,10,11,11,12,12,13,13,14,14],"right_children":[2,4,6,8,10,12,14,16,18,20,22,24,26,28,30,-1,-1,-1,-1,-1,-1,-1,-1,-1,-1,-1,-1,-1,-1,-1,-1],"split_conditions":[1.655822E3,7E0,4.4059634E2,1.5352681E3,1.3370099E3,1.737777E3,1.6773163E3,1.4684266E3,4.4059634E2,4.4987595E2,1.3731746E3,5.65712E-1,6.785774E-1,7.218945E2,8.8742274E-1,1.1438631E-1,5.1152762E-2,-1.1490039E-2,3.5784766E-2,3.9783087E-2,-5.027353E-5,-7.117667E-2,-1.3825952E-1,1.24043105E-2,-5.710238E-2,-9.8441236E-2,-2.9394401E-2,-3.6501884E-4,2.7175918E-2,-2.8565724E-4,-5.2618235E-2],"split_indices":[4,0,1,4,4,4,4,4,1,4,4,7,7,8,3,0,0,0,0,0,0,0,0,0,0,0,0,0,0,0,0],"split_type":[0,0,0,0,0,0,0,0,0,0,0,0,0,0,0,0,0,0,0,0,0,0,0,0,0,0,0,0,0,0,0],"sum_hessian":[1.283E3,1.222E3,6.1E1,1.58E2,1.064E3,4.2E1,1.9E1,6.9E1,8.9E1,1.016E3,4.8E1,2.7E1,1.5E1,7E0,1.2E1,2.5E1,4.4E1,6.7E1,2.2E1,1.08E2,9.08E2,2E1,2.8E1,1E0,2.6E1,1.3E1,2E0,5E0,2E0,2E0,1E1],"tree_param":{"num_deleted":"0","num_feature":"10","num_nodes":"31","size_leaf_vector":"1"}},{"base_weights":[9.746859E-3,5.8431916E-2,-1.2383792E0,1.0896834E0,8.497786E-3,-1.5881866E0,-8.078219E-1,5.8863217E-1,1.426054E0,4.44426E-1,-1.2604548E-1,-1.6769493E-2,-8.124415E-2,-2.3566154E-1,-1.4625877E0,8.003745E-2,1.2778275E-2,5.1707584E-2,8.097074E-2,1.0025152E-1,1.5906258E-2,8.217346E-3,-1.9771539E-2,-8.7188085E-4,-2.6186025E-2,-7.6089315E-2,-2.1765029E-2],"categories":[],"categories_nodes":[],"categories_segments":[],"categories_sizes":[],"default_left":[0,0,0,0,0,0,0,0,0,0,0,0,0,0,0,0,0,0,0,0,0,0,0,0,0,0,0],"id":20,"left_children":[1,3,5,7,9,11,13,15,17,19,21,-1,-1,23,25,-1,-1,-1,-1,-1,-1,-1,-1,-1,-1,-1,-1],"loss_changes":[7.9310036E1,6.4668015E1,6.0970154E0,8.935837E0,7.0378815E1,6.503296E-1,8.646471E0,8.018465E0,9.0174866E-1,5.514304E1,7.179955E1,0E0,0E0,8.709266E-1,6.5174103E-3,0E0,0E0,0E0,0E0,0E0,0E0,0E0,0E0,0E0,0E0,0E0,0E0],"parents":[2147483647,0,0,1,1,2,2,3,3,4,4,5,5,6,6,7,7,8,8,9,9,10,10,13,13,14,14],"right_children":[2,4,6,8,10,12,14,16,18,20,22,-1,-1,24,26,-1,-1,-1,-1,-1,-1,-1,-1,-1,-1,-1,-1],"split_conditions":[1.6623295E3,4.2133658E2,8.2827175E-1,2.3200418E2,-5.2997192E1,4.0045105E3,1.7800487E3,3.7293958E2,2.4644093E2,9.521973E2,6.266955E2,-1.6769493E-2,-8.124415E-2,1.737777E3,4.494187E2,8.003745E-2,1.2778275E-2,5.1707584E-2,8.097074E-2,1.0025152E-1,1.5906258E-2,8.217346E-3,-1.9771539E-2,-8.7188085E-4,-2.6186025E-2,-7.6089315E-2,-2.1765029E-2],"split_indices":[4,4,5,1,8,2,4,4,1,4,4,0,0,4,1,0,0,0,0,0,0,0,0,0,0,0,0],"split_type":[0,0,0,0,0,0,0,0,0,0,0,0,0,0,0,0,0,0,0,0,0,0,0,0,0,0,0],"sum_hessian":[1.303E3,1.255E3,4.8E1,5.7E1,1.198E3,2.5E1,2.3E1,2.4E1,3.3E1,2.82E2,9.16E2,1E0,2.4E1,1.3E1,1E1,5E0,1.9E1,1.3E1,2E1,2E1,2.62E2,4.41E2,4.75E2,8E0,5E0,9E0,1E0],"tree_param":{"num_deleted":"0","num_feature":"10","num_nodes":"27","size_leaf_vector":"1"}},{"base_weights":[3.2689136E-3,2.884474E-1,-1.1576844E-1,9.2813087E-1,2.0382087E-1,5.5017233E-2,-3.6311865E-1,3.2814994E-1,1.2271503E0,3.74648E-1,-1.321289E-1,7.009433E-1,-6.773035E-2,-4.1809762E-1,1.1830791E0,-3.4251884E-2,7.134836E-2,6.890458E-2,-3.0377747E-3,1.3841048E-2,4.973873E-2,1.2190314E-2,-4.3066632E-2,8.273081E-2,1.9344078E-2,6.1025843E-3,-2.4866235E-2,-1.7521935E-2,-6.35587E-2,7.475474E-2,-6.402768E-2],"categories":[],"categories_nodes":[],"categories_segments":[],"categories_sizes":[],"default_left":[0,0,0,0,0,0,0,0,0,0,0,0,0,0,0,0,0,0,0,0,0,0,0,0,0,0,0,0,0,0,0],"id":21,"left_children":[1,3,5,7,9,11,13,15,17,19,21,23,25,27,29,-1,-1,-1,-1,-1,-1,-1,-1,-1,-1,-1,-1,-1,-1,-1,-1],"loss_changes":[4.3689102E1,2.032769E1,3.837741E1,7.491173E0,1.933232E1,4.270327E1,3.2032753E1,1.8790457E1,5.7212753E0,1.32529545E1,3.1461195E1,2.5117905E1,3.699347E1,2.0275375E1,1.1907541E1,0E0,0E0,0E0,0E0,0E0,0E0,0E0,0E0,0E0,0E0,0E0,0E0,0E0,0E0,0E0,0E0],"parents":[2147483647,0,0,1,1,2,2,3,3,4,4,5,5,6,6,7,7,8,8,9,9,10,10,11,11,12,12,13,13,14,14],"right_children":[2,4,6,8,10,12,14,16,18,20,22,24,26,28,30,-1,-1,-1,-1,-1,-1,-1,-1,-1,-1,-1,-1,-1,-1,-1,-1],"split_conditions":[8.456173E1,-6.646469E2,3.0928267E3,7.991175E-1,5.1594155E3,7.9776984E-1,4.494187E2,4.2537964E2,4.2997983E3,1.06206255E1,7.431193E-1,3.3102834E3,1.7681139E3,3.8428003E3,7E0,-3.4251884E-2,7.134836E-2,6.890458E-2,-3.0377747E-3,1.3841048E-2,4.973873E-2,1.2190314E-2,-4.3066632E-2,8.273081E-2,1.9344078E-2,6.1025843E-3,-2.4866235E-2,-1.7521935E-2,-6.35587E-2,7.475474E-2,-6.402768E-2],"split_indices":[8,8,6,5,6,9,1,1,2,8,7,8,2,8,0,0,0,0,0,0,0,0,0,0,0,0,0,0,0,0,0],"split_type":[0,0,0,0,0,0,0,0,0,0,0,0,0,0,0,0,0,0,0,0,0,0,0,0,0,0,0,0,0,0,0],"sum_hessian":[1.285E3,3.78E2,9.07E2,4.3E1,3.35E2,5.37E2,3.7E2,1.5E1,2.8E1,2.22E2,1.13E2,8.5E1,4.52E2,3.58E2,1.2E1,8E0,7E0,2.5E1,3E0,1.93E2,2.9E1,7.5E1,3.8E1,2E1,6.5E1,3.14E2,1.38E2,3.33E2,2.5E1,1.1E1,1E0],"tree_param":{"num_deleted":"0","num_feature":"10","num_nodes":"31","size_leaf_vector":"1"}},{"base_weights":[3.415052E-2,1.0855957E0,-2.664543E-4,5.438903E-1,1.3262728E0,3.6057778E-2,-7.175116E-1,-8.894987E-1,7.195254E-2,1.4148234E0,7.313029E-3,-2.2067714E-2,4.1495335E-1,-9.601259E-1,7.3702645E-1,-1.5010326E-2,-5.545466E-2,7.5898714E-2,7.619604E-3,1.329812E-3,-2.8324319E-2,-3.232123E-3,3.676895E-2,-2.2879567E-2,-7.322291E-2,1.1309314E-2,4.7737442E-2],"categories":[],"categories_nodes":[],"categories_segments":[],"categories_sizes":[],"default_left":[0,0,0,0,0,0,0,0,0,0,0,0,0,0,0,0,0,0,0,0,0,0,0,0,0,0,0],"id":22,"left_children":[1,3,5,7,9,11,13,15,-1,17,-1,19,21,23,25,-1,-1,-1,-1,-1,-1,-1,-1,-1,-1,-1,-1],"loss_changes":[4.5668995E1,4.493698E0,3.1889153E1,1.9243616E1,2.614315E0,2.5666523E1,2.1528252E1,4.4347525E-1,0E0,3.0241966E0,0E0,2.680006E1,2.386713E1,1.2255543E1,7.850404E-1,0E0,0E0,0E0,0E0,0E0,0E0,0E0,0E0,0E0,0E0,0E0,0E0],"parents":[2147483647,0,0,1,1,2,2,3,3,4,4,5,5,6,6,7,7,9,9,11,11,12,12,13,13,14,14],"right_children":[2,4,6,8,10,12,14,16,-1,18,-1,20,22,24,26,-1,-1,-1,-1,-1,-1,-1,-1,-1,-1,-1,-1],"split_conditions":[-6.885358E2,7.991175E-1,3.7518838E3,4.2537964E2,8E0,2.5881033E3,9.363907E-1,7.8184986E-1,7.195254E-2,9.494307E-1,7.313029E-3,2.2358323E3,2.9110355E2,3.1866912E3,8.931094E-1,-1.5010326E-2,-5.545466E-2,7.5898714E-2,7.619604E-3,1.329812E-3,-2.8324319E-2,-3.232123E-3,3.676895E-2,-2.2879567E-2,-7.322291E-2,1.1309314E-2,4.7737442E-2],"split_indices":[8,5,8,1,0,8,3,5,0,3,0,8,1,6,5,0,0,0,0,0,0,0,0,0,0,0,0],"split_type":[0,0,0,0,0,0,0,0,0,0,0,0,0,0,0,0,0,0,0,0,0,0,0,0,0,0,0],"sum_hessian":[1.261E3,3.9E1,1.222E3,1.3E1,2.6E1,1.164E3,5.8E1,5E0,8E0,2.4E1,2E0,1.01E3,1.54E2,5E1,8E0,2E0,3E0,2.2E1,2E0,9.28E2,8.2E1,6.2E1,9.2E1,2.6E1,2.4E1,3E0,5E0],"tree_param":{"num_deleted":"0","num_feature":"10","num_nodes":"27","size_leaf_vector":"1"}},{"base_weights":[-2.8002895E-2,3.7906803E-2,-7.831602E-1,-1.0004774E-1,5.477549E-1,-1.5807458E0,-4.5368376E-1,2.8352627E-1,-3.4335986E-1,1.118795E0,3.1126466E-1,-8.573274E-2,-3.796671E-2,-4.1912284E-2,-1.1841697E0,-1.1162379E-2,4.975726E-2,-7.103202E-3,-7.84631E-2,1.7232513E-2,9.418125E-2,-1.5120772E-3,5.273605E-2,-2.2055902E-2,2.5568385E-2,-7.100832E-2,-3.2047942E-2],"categories":[],"categories_nodes":[],"categories_segments":[],"categories_sizes":[],"default_left":[0,0,0,0,0,0,0,0,0,0,0,0,0,0,0,0,0,0,0,0,0,0,0,0,0,0,0],"id":23,"left_children":[1,3,5,7,9,11,13,15,17,19,21,-1,-1,23,25,-1,-1,-1,-1,-1,-1,-1,-1,-1,-1,-1,-1],"loss_changes":[6.448468E1,8.389514E1,2.6612553E1,8.773253E1,3.3953285E1,1.9978333E0,2.2509865E1,1.3185205E2,1.4166922E2,4.3165405E1,4.5986885E1,0E0,0E0,1.1048327E1,2.5510178E0,0E0,0E0,0E0,0E0,0E0,0E0,0E0,0E0,0E0,0E0,0E0,0E0],"parents":[2147483647,0,0,1,1,2,2,3,3,4,4,5,5,6,6,7,7,8,8,9,9,10,10,13,13,14,14],"right_children":[2,4,6,8,10,12,14,16,18,20,22,-1,-1,24,26,-1,-1,-1,-1,-1,-1,-1,-1,-1,-1,-1,-1],"split_conditions":[1.5940941E3,4.0007407E2,7.873561E-1,5.6451355E2,1.2428453E3,4.368985E2,1.6773163E3,1.4777906E3,8.4747285E-1,3.423417E3,4.3049442E2,-8.573274E-2,-3.796671E-2,8.2145125E-1,8.3851886E-1,-1.1162379E-2,4.975726E-2,-7.103202E-3,-7.84631E-2,1.7232513E-2,9.418125E-2,-1.5120772E-3,5.273605E-2,-2.2055902E-2,2.5568385E-2,-7.100832E-2,-3.2047942E-2],"split_indices":[4,1,5,4,4,1,4,2,9,2,1,0,0,5,5,0,0,0,0,0,0,0,0,0,0,0,0],"split_type":[0,0,0,0,0,0,0,0,0,0,0,0,0,0,0,0,0,0,0,0,0,0,0,0,0,0,0],"sum_hessian":[1.294E3,1.191E3,1.03E2,9.38E2,2.53E2,2.9E1,7.4E1,3.64E2,5.74E2,7.3E1,1.8E2,2.4E1,5E0,4.8E1,2.6E1,2.13E2,1.51E2,4.94E2,8E1,3.7E1,3.6E1,1.24E2,5.6E1,2.8E1,2E1,1.7E1,9E0],"tree_param":{"num_deleted":"0","num_feature":"10","num_nodes":"27","size_leaf_vector":"1"}},{"base_weights":[2.7645736E-3,7.724079E-1,-7.053714E-2,4.4224045E-1,1.2365125E0,2.2713805E-2,-9.479572E-1,8.262369E-2,2.2595471E-1,1.491808E0,7.5650793E-1,1.1840067E0,-1.317376E-1,-4.0580866E-1,-1.758186E0,2.7070895E-2,-1.4719573E-3,7.751333E-2,2.3420589E-2,1.07861094E-1,2.232962E-2,1.20470166E-1,4.3448392E-2,-1.6361657E-4,-6.439451E-2,-3.773782E-2,1.8698886E-2,-1.0247421E-1,-3.3574644E-2],"categories":[],"categories_nodes":[],"categories_segments":[],"categories_sizes":[],"default_left":[0,0,0,0,0,0,0,0,0,0,0,0,0,0,0,0,0,0,0,0,0,0,0,0,0,0,0,0,0],"id":24,"left_children":[1,3,5,7,9,11,13,-1,15,17,19,21,23,25,27,-1,-1,-1,-1,-1,-1,-1,-1,-1,-1,-1,-1,-1,-1],"loss_changes":[7.26621E1,1.6615181E1,9.624215E1,1.7164282E1,4.508415E0,1.9099854E2,4.8923386E1,0E0,4.6888456E0,1.0087891E0,6.850456E0,4.6162262E1,1.3960971E2,1.9057487E1,1.2868622E1,0E0,0E0,0E0,0E0,0E0,0E0,0E0,0E0,0E0,0E0,0E0,0E0,0E0,0E0],"parents":[2147483647,0,0,1,1,2,2,3,3,4,4,5,5,6,6,8,8,9,9,10,10,11,11,12,12,13,13,14,14],"right_children":[2,4,6,8,10,12,14,-1,16,18,20,22,24,26,28,-1,-1,-1,-1,-1,-1,-1,-1,-1,-1,-1,-1,-1,-1],"split_conditions":[4.4987595E2,2.4782014E2,1.4E1,3.824859E2,4.383232E2,5.5418146E2,4.772437E2,8.262369E-2,4.1499457E2,9.0193415E-1,1.4E1,4.9027158E2,8.454576E-1,2.631167E2,2.7375946E2,2.7070895E-2,-1.4719573E-3,7.751333E-2,2.3420589E-2,1.07861094E-1,2.232962E-2,1.20470166E-1,4.3448392E-2,-1.6361657E-4,-6.439451E-2,-3.773782E-2,1.8698886E-2,-1.0247421E-1,-3.3574644E-2],"split_indices":[4,1,0,4,4,4,4,0,4,7,0,4,9,1,1,0,0,0,0,0,0,0,0,0,0,0,0,0,0],"split_type":[0,0,0,0,0,0,0,0,0,0,0,0,0,0,0,0,0,0,0,0,0,0,0,0,0,0,0,0,0],"sum_hessian":[1.286E3,1.11E2,1.175E3,6.6E1,4.5E1,1.063E3,1.12E2,9E0,5.7E1,2.8E1,1.7E1,1.24E2,9.39E2,6.8E1,4.4E1,2.5E1,3.2E1,2.6E1,2E0,2E0,1.5E1,2.4E1,1E2,8.46E2,9.3E1,4.7E1,2.1E1,3.4E1,1E1],"tree_param":{"num_deleted":"0","num_feature":"10","num_nodes":"29","size_leaf_vector":"1"}},{"base_weights":[5.8733923E-3,7.031906E-2,-8.6102074E-1,7.9259336E-1,-1.7714644E-2,-1.5586517E0,-5.8785963E-1,1.6977469E0,4.2604727E-1,1.1834063E-1,-1.3989114E0,-8.383336E-2,-3.7562855E-2,-2.1708247E-1,-1.4483318E0,1.9050894E-2,9.663634E-2,1.7180693E-3,5.6964368E-2,4.8181705E-2,-1.8795691E-3,-5.017376E-2,-1.22768514E-1,-2.9869193E-2,9.4054965E-3,-7.853141E-2,-2.832449E-2],"categories":[],"categories_nodes":[],"categories_segments":[],"categories_sizes":[],"default_left":[0,0,0,0,0,0,0,0,0,0,0,0,0,0,0,0,0,0,0,0,0,0,0,0,0,0,0],"id":25,"left_children":[1,3,5,7,9,11,13,15,17,19,21,-1,-1,23,25,-1,-1,-1,-1,-1,-1,-1,-1,-1,-1,-1,-1],"loss_changes":[7.3470535E1,7.7841446E1,1.6425209E1,4.340349E1,2.053732E2,1.1225166E0,2.1061502E1,1.1020973E1,2.6779993E1,1.3118549E2,3.8476776E1,0E0,0E0,7.5089455E0,1.2671738E0,0E0,0E0,0E0,0E0,0E0,0E0,0E0,0E0,0E0,0E0,0E0,0E0],"parents":[2147483647,0,0,1,1,2,2,3,3,4,4,5,5,6,6,7,7,8,8,9,9,10,10,13,13,14,14],"right_children":[2,4,6,8,10,12,14,16,18,20,22,-1,-1,24,26,-1,-1,-1,-1,-1,-1,-1,-1,-1,-1,-1,-1],"split_conditions":[1.6174965E3,7E0,7.873561E-1,1.4872673E3,1.2894231E3,4.368985E2,1.737777E3,4.0097824E2,8.0572903E-1,8E0,1.3645043E3,-8.383336E-2,-3.7562855E-2,8.195773E-1,9.3877655E-1,1.9050894E-2,9.663634E-2,1.7180693E-3,5.6964368E-2,4.8181705E-2,-1.8795691E-3,-5.017376E-2,-1.22768514E-1,-2.9869193E-2,9.4054965E-3,-7.853141E-2,-2.832449E-2],"split_indices":[4,0,5,4,4,1,4,1,5,0,4,0,0,5,3,0,0,0,0,0,0,0,0,0,0,0,0],"split_type":[0,0,0,0,0,0,0,0,0,0,0,0,0,0,0,0,0,0,0,0,0,0,0,0,0,0,0],"sum_hessian":[1.313E3,1.223E3,9E1,1.32E2,1.091E3,2.4E1,6.6E1,3.7E1,9.5E1,9.94E2,9.7E1,2E1,4E0,4.7E1,1.9E1,6E0,3.1E1,6.2E1,3.3E1,1.54E2,8.4E2,7.2E1,2.5E1,2.4E1,2.3E1,1.6E1,3E0],"tree_param":{"num_deleted":"0","num_feature":"10","num_nodes":"27","size_leaf_vector":"1"}},{"base_weights":[-2.2401914E-2,3.040784E-1,-1.9108266E-1,1.04831316E-1,1.9339784E0,-1.1427568E-1,-1.9994626E0,8.4018874E-1,-6.358319E-2,1.4206334E0,1.1833705E-1,2.5153828E-1,-3.2720217E-1,-2.1884556E0,-7.527525E-1,2.2171738E-2,6.0175594E-2,-3.2885432E-2,2.2351988E-2,7.626227E-2,8.996741E-3,6.703224E-2,4.0524406E-3,3.0531824E-2,-2.5066389E-2,-8.911658E-2,-1.4464584E-1,9.096074E-3,-4.880358E-2],"categories":[],"categories_nodes":[],"categories_segments":[],"categories_sizes":[],"default_left":[0,0,0,0,0,0,0,0,0,0,0,0,0,0,0,0,0,0,0,0,0,0,0,0,0,0,0,0,0],"id":26,"left_children":[1,3,5,7,9,11,13,15,17,19,-1,21,23,25,27,-1,-1,-1,-1,-1,-1,-1,-1,-1,-1,-1,-1,-1,-1],"loss_changes":[6.9832985E1,1.4009048E2,1.1588872E2,4.7857536E1,7.0790863E0,6.2629166E1,6.3637085E0,9.845116E0,9.5856865E1,2.8405647E0,0E0,5.4852974E1,8.326341E1,3.1407166E0,1.4299517E0,0E0,0E0,0E0,0E0,0E0,0E0,0E0,0E0,0E0,0E0,0E0,0E0,0E0,0E0],"parents":[2147483647,0,0,1,1,2,2,3,3,4,4,5,5,6,6,7,7,8,8,9,9,11,11,12,12,13,13,14,14],"right_children":[2,4,6,8,10,12,14,16,18,20,-1,22,24,26,28,-1,-1,-1,-1,-1,-1,-1,-1,-1,-1,-1,-1,-1,-1],"split_conditions":[5.978072E2,2.1976726E3,1.2E1,4.3081927E2,2.9356393E2,-2.6739065E1,3.018553E2,2.3638905E2,1.4777906E3,5.947028E2,1.1833705E-1,9.8508386E2,6.5965894E2,6.266955E2,6.0165753E2,2.2171738E-2,6.0175594E-2,-3.2885432E-2,2.2351988E-2,7.626227E-2,8.996741E-3,6.703224E-2,4.0524406E-3,3.0531824E-2,-2.5066389E-2,-8.911658E-2,-1.4464584E-1,9.096074E-3,-4.880358E-2],"split_indices":[4,6,0,4,1,8,1,1,2,4,0,4,4,4,4,0,0,0,0,0,0,0,0,0,0,0,0,0,0],"split_type":[0,0,0,0,0,0,0,0,0,0,0,0,0,0,0,0,0,0,0,0,0,0,0,0,0,0,0,0,0],"sum_hessian":[1.266E3,4.31E2,8.35E2,3.85E2,4.6E1,8.02E2,3.3E1,7.1E1,3.14E2,2.3E1,2.3E1,2.95E2,5.07E2,2.8E1,5E0,3.5E1,3.6E1,1.45E2,1.69E2,2.1E1,2E0,3.9E1,2.56E2,7.9E1,4.28E2,2E1,8E0,1E0,4E0],"tree_param":{"num_deleted":"0","num_feature":"10","num_nodes":"29","size_leaf_vector":"1"}},{"base_weights":[-1.1018447E-2,4.789711E-2,-7.500825E-1,8.4402907E-1,-4.7272973E-2,-9.973935E-1,-1.9137554E-1,2.0507662E0,5.514587E-1,4.394499E-2,-1.829434E0,-8.038133E-1,-1.5194638E0,3.2340726E-1,-7.620377E-1,1.0719978E-1,5.1265713E-2,8.53461E-3,4.872517E-2,2.7050668E-2,-3.4164626E-3,-6.9487475E-2,-1.2715465E-1,-5.9767064E-2,-3.45727E-2,-8.1595026E-2,-2.2539632E-2,3.1611215E-2,-1.0403882E-2,-4.675177E-3,-4.6068963E-2],"categories":[],"categories_nodes":[],"categories_segments":[],"categories_sizes":[],"default_left":[0,0,0,0,0,0,0,0,0,0,0,0,0,0,0,0,0,0,0,0,0,0,0,0,0,0,0,0,0,0,0],"id":27,"left_children":[1,3,5,7,9,11,13,15,17,19,21,23,25,27,29,-1,-1,-1,-1,-1,-1,-1,-1,-1,-1,-1,-1,-1,-1,-1,-1],"loss_changes":[5.720706E1,9.224949E1,1.3212032E1,4.476631E1,1.7695122E2,5.5498276E0,9.353228E0,1.9177246E-1,1.6908272E1,5.785403E1,1.3096344E1,1.417057E0,1.3070297E0,2.9217885E0,1.5117264E0,0E0,0E0,0E0,0E0,0E0,0E0,0E0,0E0,0E0,0E0,0E0,0E0,0E0,0E0,0E0,0E0],"parents":[2147483647,0,0,1,1,2,2,3,3,4,4,5,5,6,6,7,7,8,8,9,9,10,10,11,11,12,12,13,13,14,14],"right_children":[2,4,6,8,10,12,14,16,18,20,22,24,26,28,30,-1,-1,-1,-1,-1,-1,-1,-1,-1,-1,-1,-1,-1,-1,-1,-1],"split_conditions":[1.6174965E3,7E0,4.4219476E2,1.4684266E3,1.3297655E3,1.737777E3,1.6972806E3,4.3372305E3,4.2659607E2,8E0,1.3816459E3,4.1683516E3,6.785774E-1,4.5518155E2,8.8742274E-1,1.0719978E-1,5.1265713E-2,8.53461E-3,4.872517E-2,2.7050668E-2,-3.4164626E-3,-6.9487475E-2,-1.2715465E-1,-5.9767064E-2,-3.45727E-2,-8.1595026E-2,-2.2539632E-2,3.1611215E-2,-1.0403882E-2,-4.675177E-3,-4.6068963E-2],"split_indices":[4,0,1,4,4,4,4,2,1,0,4,2,7,1,3,0,0,0,0,0,0,0,0,0,0,0,0,0,0,0,0],"split_type":[0,0,0,0,0,0,0,0,0,0,0,0,0,0,0,0,0,0,0,0,0,0,0,0,0,0,0,0,0,0,0],"sum_hessian":[1.312E3,1.216E3,9.6E1,1.29E2,1.087E3,6.6E1,3E1,2.4E1,1.05E2,1.035E3,5.2E1,5E1,1.6E1,1.6E1,1.4E1,2.1E1,3E0,5.6E1,4.9E1,1.9E2,8.45E2,3.4E1,1.8E1,9E0,4.1E1,1.4E1,2E0,1E1,6E0,3E0,1.1E1],"tree_param":{"num_deleted":"0","num_feature":"10","num_nodes":"31","size_leaf_vector":"1"}},{"base_weights":[-1.3539556E-3,3.4680295E-1,-1.401551E-1,-1.3125318E-1,1.0233307E0,-1.3780956E0,-2.3789873E-2,3.5172093E-1,-1.4280239E0,2.1416433E0,6.1111593E-1,-1.7731746E0,-5.1973844E-1,1.3168498E0,-1.20506406E-1,4.0350374E-2,-1.023534E-2,-8.556206E-2,-2.5102595E-2,2.704209E-2,1.1284103E-1,1.1951071E-1,1.6484875E-2,-7.101276E-2,-1.3274305E-1,5.0590965E-3,-7.6166466E-2,4.3426923E-2,9.003635E-2,2.9739249E-3,-3.6721464E-2],"categories":[],"categories_nodes":[],"categories_segments":[],"categories_sizes":[],"default_left":[0,0,0,0,0,0,0,0,0,0,0,0,0,0,0,0,0,0,0,0,0,0,0,0,0,0,0,0,0,0,0],"id":28,"left_children":[1,3,5,7,9,11,13,15,17,19,21,23,25,27,29,-1,-1,-1,-1,-1,-1,-1,-1,-1,-1,-1,-1,-1,-1,-1,-1],"loss_changes":[6.13725E1,1.172117E2,1.3076755E2,1.339056E2,6.783896E1,2.5529694E1,1.0790783E2,3.9685318E1,1.435144E1,6.1544647E0,5.478644E1,1.272113E1,1.6356031E1,1.0583954E1,8.578924E1,0E0,0E0,0E0,0E0,0E0,0E0,0E0,0E0,0E0,0E0,0E0,0E0,0E0,0E0,0E0,0E0],"parents":[2147483647,0,0,1,1,2,2,3,3,4,4,5,5,6,6,7,7,8,8,9,9,10,10,11,11,12,12,13,13,14,14],"right_children":[2,4,6,8,10,12,14,16,18,20,22,24,26,28,30,-1,-1,-1,-1,-1,-1,-1,-1,-1,-1,-1,-1,-1,-1,-1,-1],"split_conditions":[5.6451355E2,1.4777906E3,2.7383413E3,4.7204944E2,5.0261346E2,2.9110355E2,6.266955E2,4.4014728E2,2.7375946E2,2.3733257E2,1.2E1,6.087262E2,6.030284E2,2.9631647E2,7.218945E2,4.0350374E-2,-1.023534E-2,-8.556206E-2,-2.5102595E-2,2.704209E-2,1.1284103E-1,1.1951071E-1,1.6484875E-2,-7.101276E-2,-1.3274305E-1,5.0590965E-3,-7.6166466E-2,4.3426923E-2,9.003635E-2,2.9739249E-3,-3.6721464E-2],"split_indices":[4,2,6,4,4,1,4,4,1,1,0,4,4,1,8,0,0,0,0,0,0,0,0,0,0,0,0,0,0,0,0],"split_type":[0,0,0,0,0,0,0,0,0,0,0,0,0,0,0,0,0,0,0,0,0,0,0,0,0,0,0,0,0,0,0],"sum_hessian":[1.268E3,3.61E2,9.07E2,2.12E2,1.49E2,7.7E1,8.3E2,1.55E2,5.7E1,3.9E1,1.1E2,5.2E1,2.5E1,5.5E1,7.75E2,8.5E1,7E1,4.3E1,1.4E1,3E0,3.6E1,1.4E1,9.6E1,3.9E1,1.3E1,1.6E1,9E0,3E1,2.5E1,6E2,1.75E2],"tree_param":{"num_deleted":"0","num_feature":"10","num_nodes":"31","size_leaf_vector":"1"}},{"base_weights":[-4.319081E-3,4.5037124E-2,-6.9238615E-1,6.355592E-1,-2.489889E-2,-9.138873E-1,-6.478884E-3,1.536151E0,3.4118903E-1,1.00953095E-1,-1.1275936E0,-7.2216755E-1,-1.4127333E0,4.753262E-1,-7.552336E-1,1.8299857E-2,8.479759E-2,-3.2575731E-3,3.7028324E-2,5.225384E-2,-2.1125271E-3,-3.946077E-2,-1.0952306E-1,-8.285955E-2,-3.1258095E-2,-7.7932864E-2,-2.7440796E-2,-2.3259409E-2,3.3542212E-2,-4.4977773E-2,9.98354E-3],"categories":[],"categories_nodes":[],"categories_segments":[],"categories_sizes":[],"default_left":[0,0,0,0,0,0,0,0,0,0,0,0,0,0,0,0,0,0,0,0,0,0,0,0,0,0,0,0,0,0,0],"id":29,"left_children":[1,3,5,7,9,11,13,15,17,19,21,23,25,27,29,-1,-1,-1,-1,-1,-1,-1,-1,-1,-1,-1,-1,-1,-1,-1,-1],"loss_changes":[4.363631E1,4.9533035E1,1.3059994E1,3.314452E1,1.4902083E2,5.1962814E0,8.295567E0,5.1760254E0,1.5789722E1,1.3037881E2,3.7832886E1,3.4084167E0,1.2877121E0,2.8864944E0,1.4199371E0,0E0,0E0,0E0,0E0,0E0,0E0,0E0,0E0,0E0,0E0,0E0,0E0,0E0,0E0,0E0,0E0],"parents":[2147483647,0,0,1,1,2,2,3,3,4,4,5,5,6,6,7,7,8,8,9,9,10,10,11,11,12,12,13,13,14,14],"right_children":[2,4,6,8,10,12,14,16,18,20,22,24,26,28,30,-1,-1,-1,-1,-1,-1,-1,-1,-1,-1,-1,-1,-1,-1,-1,-1],"split_conditions":[1.6174965E3,7E0,4.4219476E2,1.4810046E3,1.2735715E3,1.737777E3,1.6972806E3,3.9316882E2,4.2659607E2,8E0,1.3645043E3,8.65034E-1,6.785774E-1,5.459395E3,4.5518155E2,1.8299857E-2,8.479759E-2,-3.2575731E-3,3.7028324E-2,5.225384E-2,-2.1125271E-3,-3.946077E-2,-1.0952306E-1,-8.285955E-2,-3.1258095E-2,-7.7932864E-2,-2.7440796E-2,-2.3259409E-2,3.3542212E-2,-4.4977773E-2,9.98354E-3],"split_indices":[4,0,1,4,4,4,4,1,1,0,4,3,7,6,1,0,0,0,0,0,0,0,0,0,0,0,0,0,0,0,0],"split_type":[0,0,0,0,0,0,0,0,0,0,0,0,0,0,0,0,0,0,0,0,0,0,0,0,0,0,0,0,0,0,0],"sum_hessian":[1.283E3,1.198E3,8.5E1,1.26E2,1.072E3,6.4E1,2.1E1,3E1,9.6E1,9.63E2,1.09E2,4.8E1,1.6E1,1.3E1,8E0,4E0,2.6E1,4.8E1,4.8E1,1.26E2,8.37E2,8.4E1,2.5E1,3E0,4.5E1,1.3E1,3E0,2E0,1.1E1,7E0,1E0],"tree_param":{"num_deleted":"0","num_feature":"10","num_nodes":"31","size_leaf_vector":"1"}},{"base_weights":[2.0506859E-2,6.9774806E-1,-4.2175483E-2,4.9354E-1,1.4004209E0,4.910064E-2,-9.11367E-1,7.644919E-2,3.5265714E-1,9.78911E-4,7.2980314E-2,1.5508411E0,-4.667674E-2,-3.984522E-1,-1.5869524E0,9.19046E-2,1.3379887E-2,1.1145729E-1,5.2943647E-2,3.0516968E-3,-3.350322E-2,-5.8752008E-2,-5.512346E-5,-6.618225E-2,-1.1761458E-1],"categories":[],"categories_nodes":[],"categories_segments":[],"categories_sizes":[],"default_left":[0,0,0,0,0,0,0,0,0,0,0,0,0,0,0,0,0,0,0,0,0,0,0,0,0],"id":30,"left_children":[1,3,5,7,9,11,13,-1,15,-1,-1,17,19,21,23,-1,-1,-1,-1,-1,-1,-1,-1,-1,-1],"loss_changes":[5.4621502E1,1.4949402E1,9.3503075E1,1.2006155E1,1.9328461E0,1.5354196E2,3.8177658E1,0E0,9.237097E0,0E0,0E0,1.8996689E1,6.745499E1,2.0056208E1,6.5593414E0,0E0,0E0,0E0,0E0,0E0,0E0,0E0,0E0,0E0,0E0],"parents":[2147483647,0,0,1,1,2,2,3,3,4,4,5,5,6,6,8,8,11,11,12,12,13,13,14,14],"right_children":[2,4,6,8,10,12,14,-1,16,-1,-1,18,20,22,24,-1,-1,-1,-1,-1,-1,-1,-1,-1,-1],"split_conditions":[4.4987595E2,2.5939218E2,1.4E1,3.824859E2,8.546025E-1,5.222726E2,4.772437E2,7.644919E-2,1.4E1,9.78911E-4,7.2980314E-2,4.9027158E2,8.4747285E-1,2.4782014E2,5.049522E2,9.19046E-2,1.3379887E-2,1.1145729E-1,5.2943647E-2,3.0516968E-3,-3.350322E-2,-5.8752008E-2,-5.512346E-5,-6.618225E-2,-1.1761458E-1],"split_indices":[4,1,0,4,7,4,4,0,0,0,0,4,9,1,4,0,0,0,0,0,0,0,0,0,0],"split_type":[0,0,0,0,0,0,0,0,0,0,0,0,0,0,0,0,0,0,0,0,0,0,0,0,0],"sum_hessian":[1.285E3,1.08E2,1.177E3,8.5E1,2.3E1,1.066E3,1.11E2,9E0,7.6E1,1E0,2.2E1,6.3E1,1.003E3,6.4E1,4.7E1,3E0,7.3E1,2.5E1,3.8E1,8.56E2,1.47E2,2.1E1,4.3E1,3.7E1,1E1],"tree_param":{"num_deleted":"0","num_feature":"10","num_nodes":"25","size_leaf_vector":"1"}},{"base_weights":[3.63377E-2,-4.109915E-1,8.179801E-2,-2.8153673E-1,-1.5526228E0,8.4991455E-1,5.200124E-2,-6.77701E-1,1.4983873E-1,3.8536867E-1,-1.978758E0,5.00227E-1,1.0318707E0,1.647656E-2,5.0292337E-1,2.3723966E-2,-4.6647053E-2,3.0782849E-2,-6.4289505E-3,-2.599585E-3,3.1502236E-2,-1.1510528E-2,-1.0737311E-1,3.6510505E-2,-4.0821545E-2,7.624784E-2,3.590214E-2,4.460451E-3,-1.5545267E-2,-5.0422218E-2,3.0636737E-2],"categories":[],"categories_nodes":[],"categories_segments":[],"categories_sizes":[],"default_left":[0,0,0,0,0,0,0,0,0,0,0,0,0,0,0,0,0,0,0,0,0,0,0,0,0,0,0,0,0,0,0],"id":31,"left_children":[1,3,5,7,9,11,13,15,17,19,21,23,25,27,29,-1,-1,-1,-1,-1,-1,-1,-1,-1,-1,-1,-1,-1,-1,-1,-1],"loss_changes":[2.6449722E1,1.7297634E1,2.6962925E1,1.8729162E1,1.0672705E1,2.283455E0,1.8205164E1,1.7205366E1,6.952839E0,3.5379186E-1,2.4555054E0,5.7439203E0,3.237852E0,2.5148645E1,1.4393028E1,0E0,0E0,0E0,0E0,0E0,0E0,0E0,0E0,0E0,0E0,0E0,0E0,0E0,0E0,0E0,0E0],"parents":[2147483647,0,0,1,1,2,2,3,3,4,4,5,5,6,6,7,7,8,8,9,9,10,10,11,11,12,12,13,13,14,14],"right_children":[2,4,6,8,10,12,14,16,18,20,22,24,26,28,30,-1,-1,-1,-1,-1,-1,-1,-1,-1,-1,-1,-1,-1,-1,-1,-1],"split_conditions":[2.4782014E2,1.8281143E3,1.7714426E3,8.9385855E-1,8.9689153E-1,8.7763274E-1,4.3580746E2,1.1839408E3,8.749053E-1,1.2E1,2.3733257E2,8.736334E-1,9.449821E-1,3.984392E3,8.693027E-1,2.3723966E-2,-4.6647053E-2,3.0782849E-2,-6.4289505E-3,-2.599585E-3,3.1502236E-2,-1.1510528E-2,-1.0737311E-1,3.6510505E-2,-4.0821545E-2,7.624784E-2,3.590214E-2,4.460451E-3,-1.5545267E-2,-5.0422218E-2,3.0636737E-2],"split_indices":[1,2,6,7,7,7,1,2,9,0,1,7,5,2,3,0,0,0,0,0,0,0,0,0,0,0,0,0,0,0,0],"split_type":[0,0,0,0,0,0,0,0,0,0,0,0,0,0,0,0,0,0,0,0,0,0,0,0,0,0,0,0,0,0,0],"sum_hessian":[1.298E3,1.19E2,1.179E3,1.08E2,1.1E1,4.3E1,1.136E3,5.6E1,5.2E1,2E0,9E0,1.6E1,2.7E1,1.054E3,8.2E1,1E1,4.6E1,1.9E1,3.3E1,1E0,1E0,1E0,8E0,1.4E1,2E0,9E0,1.8E1,8.63E2,1.91E2,5E0,7.7E1],"tree_param":{"num_deleted":"0","num_feature":"10","num_nodes":"31","size_leaf_vector":"1"}},{"base_weights":[3.526995E-2,5.043602E-1,-4.617479E-2,1.1196138E-1,3.0864766E-1,2.197992E-2,-1.4337546E0,6.621104E-1,-2.779548E-1,8.6073315E-1,-7.123836E-2,-1.7469339E0,-7.0463514E-1,2.2775633E-2,6.607652E-2,-4.972921E-2,3.1324513E-3,2.7396629E-2,8.4509715E-2,-4.51883E-2,1.3045265E-3,-6.037134E-2,-1.0455965E-1,-1.7093388E-2,-8.99081E-2],"categories":[],"categories_nodes":[],"categories_segments":[],"categories_sizes":[],"default_left":[0,0,0,0,0,0,0,0,0,0,0,0,0,0,0,0,0,0,0,0,0,0,0,0,0],"id":32,"left_children":[1,3,5,-1,7,9,11,13,15,17,19,21,23,-1,-1,-1,-1,-1,-1,-1,-1,-1,-1,-1,-1],"loss_changes":[4.881099E1,6.348103E1,1.0301836E2,0E0,3.5639534E1,8.129775E1,1.0414658E1,1.3975136E1,1.5927944E1,2.6057304E1,7.5866714E1,3.9755936E0,6.129095E0,0E0,0E0,0E0,0E0,0E0,0E0,0E0,0E0,0E0,0E0,0E0,0E0],"parents":[2147483647,0,0,1,1,2,2,4,4,5,5,6,6,7,7,8,8,9,9,10,10,11,11,12,12],"right_children":[2,4,6,-1,8,10,12,14,16,18,20,22,24,-1,-1,-1,-1,-1,-1,-1,-1,-1,-1,-1,-1],"split_conditions":[4.772437E2,1.4E1,1.4E1,1.1196138E-1,4.4807922E2,5.5273456E2,2.6917938E2,2.5939218E2,2.4782014E2,2.8519208E2,2.7383413E3,4.8192844E2,5.0731244E2,2.2775633E-2,6.607652E-2,-4.972921E-2,3.1324513E-3,2.7396629E-2,8.4509715E-2,-4.51883E-2,1.3045265E-3,-6.037134E-2,-1.0455965E-1,-1.7093388E-2,-8.99081E-2],"split_indices":[4,0,0,0,4,4,1,1,1,1,6,4,4,0,0,0,0,0,0,0,0,0,0,0,0],"split_type":[0,0,0,0,0,0,0,0,0,0,0,0,0,0,0,0,0,0,0,0,0,0,0,0,0],"sum_hessian":[1.276E3,1.88E2,1.088E3,1.8E1,1.7E2,1.038E3,5E1,1.06E2,6.4E1,1.03E2,9.35E2,3.4E1,1.6E1,8.2E1,2.4E1,2E1,4.4E1,7.6E1,2.7E1,9.7E1,8.38E2,1.5E1,1.9E1,1.3E1,3E0],"tree_param":{"num_deleted":"0","num_feature":"10","num_nodes":"25","size_leaf_vector":"1"}},{"base_weights":[-2.669349E-3,1.1221811E-1,-3.375756E-1,1.0331732E0,-2.2769617E-2,9.4018884E-2,-1.1346035E0,2.0978353E0,4.5522696E-1,1.2530352E-1,-1.9157904E0,9.391673E-1,-4.8775518E-1,-8.509136E-1,-1.2268849E-1,8.746966E-2,1.3836819E-1,5.56652E-3,3.8595438E-2,-3.5401186E-4,3.761158E-2,-6.998701E-2,-1.4518534E-1,7.363734E-2,2.9612122E-2,-1.3010911E-2,-4.65743E-2,-3.304591E-2,-6.721636E-2],"categories":[],"categories_nodes":[],"categories_segments":[],"categories_sizes":[],"default_left":[0,0,0,0,0,0,0,0,0,0,0,0,0,0,0,0,0,0,0,0,0,0,0,0,0,0,0,0,0],"id":33,"left_children":[1,3,5,7,9,11,13,15,17,19,21,23,25,27,-1,-1,-1,-1,-1,-1,-1,-1,-1,-1,-1,-1,-1,-1,-1],"loss_changes":[4.9711086E1,1.1961709E2,1.1362431E2,7.4729065E1,2.356967E2,1.0617045E2,4.1323227E1,5.190338E0,8.735432E0,6.474149E1,2.7034271E1,1.5417641E1,1.2681149E1,8.204895E0,0E0,0E0,0E0,0E0,0E0,0E0,0E0,0E0,0E0,0E0,0E0,0E0,0E0,0E0,0E0],"parents":[2147483647,0,0,1,1,2,2,3,3,4,4,5,5,6,6,7,7,8,8,9,9,10,10,11,11,12,12,13,13],"right_children":[2,4,6,8,10,12,14,16,18,20,22,24,26,28,-1,-1,-1,-1,-1,-1,-1,-1,-1,-1,-1,-1,-1,-1,-1],"split_conditions":[1.2735715E3,8E0,7E0,1.1894869E3,1.040722E3,1.5693511E3,1.3816459E3,4.051629E2,4.0204514E2,3.3896835E2,1.091009E3,1.4872673E3,1.6710342E3,1.3409653E3,-1.2268849E-1,8.746966E-2,1.3836819E-1,5.56652E-3,3.8595438E-2,-3.5401186E-4,3.761158E-2,-6.998701E-2,-1.4518534E-1,7.363734E-2,2.9612122E-2,-1.3010911E-2,-4.65743E-2,-3.304591E-2,-6.721636E-2],"split_indices":[4,0,0,4,4,4,4,1,1,1,4,4,4,4,0,0,0,0,0,0,0,0,0,0,0,0,0,0,0],"split_type":[0,0,0,0,0,0,0,0,0,0,0,0,0,0,0,0,0,0,0,0,0,0,0,0,0,0,0,0,0],"sum_hessian":[1.29E3,9.61E2,3.29E2,1.22E2,8.39E2,2.14E2,1.15E2,4.2E1,8E1,7.79E2,6E1,8.7E1,1.27E2,9.6E1,1.9E1,3E1,1.2E1,3.9E1,4.1E1,6.44E2,1.35E2,4.1E1,1.9E1,3.3E1,5.4E1,8.5E1,4.2E1,7.1E1,2.5E1],"tree_param":{"num_deleted":"0","num_feature":"10","num_nodes":"29","size_leaf_vector":"1"}},{"base_weights":[-1.3307229E-2,2.3736836E-1,-1.4158541E-1,5.496705E-2,1.7030338E0,-7.740375E-2,-1.6758934E0,5.2546793E-1,-1.5846208E-1,1.2211282E0,2.0975418E0,2.4805501E-1,-2.7457675E-1,-1.9054286E0,-2.8715762E-1,1.39864525E-2,5.489573E-2,-4.5780852E-2,1.50203435E-2,6.523958E-2,-1.7578209E-2,1.0945534E-1,5.3477455E-2,8.0229074E-2,6.388452E-3,3.7571315E-2,-2.0167733E-2,-6.885172E-2,-1.07591726E-1,1.0745036E-2,-2.1527473E-2],"categories":[],"categories_nodes":[],"categories_segments":[],"categories_sizes":[],"default_left":[0,0,0,0,0,0,0,0,0,0,0,0,0,0,0,0,0,0,0,0,0,0,0,0,0,0,0,0,0,0,0],"id":34,"left_children":[1,3,5,7,9,11,13,15,17,19,21,23,25,27,29,-1,-1,-1,-1,-1,-1,-1,-1,-1,-1,-1,-1,-1,-1,-1,-1],"loss_changes":[4.1225716E1,1.1593164E2,8.337661E1,3.8945263E1,6.5641785E0,5.2368034E1,1.029081E1,1.6714245E1,9.304017E1,3.616562E0,1.1856079E-2,5.005168E1,6.742335E1,8.126373E-1,5.2447176E-1,0E0,0E0,0E0,0E0,0E0,0E0,0E0,0E0,0E0,0E0,0E0,0E0,0E0,0E0,0E0,0E0],"parents":[2147483647,0,0,1,1,2,2,3,3,4,4,5,5,6,6,7,7,8,8,9,9,10,10,11,11,12,12,13,13,14,14],"right_children":[2,4,6,8,10,12,14,16,18,20,22,24,26,28,30,-1,-1,-1,-1,-1,-1,-1,-1,-1,-1,-1,-1,-1,-1,-1,-1],"split_conditions":[5.978072E2,2.1976726E3,1.2E1,4.5593375E2,2.9356393E2,-2.6739065E1,3.018553E2,2.5332257E2,1.4777906E3,9.321726E-1,5.921826E2,9.521973E2,6.4148944E2,2.2454197E3,6.0165753E2,1.39864525E-2,5.489573E-2,-4.5780852E-2,1.50203435E-2,6.523958E-2,-1.7578209E-2,1.0945534E-1,5.3477455E-2,8.0229074E-2,6.388452E-3,3.7571315E-2,-2.0167733E-2,-6.885172E-2,-1.07591726E-1,1.0745036E-2,-2.1527473E-2],"split_indices":[4,6,0,4,1,8,1,1,2,7,4,4,4,8,4,0,0,0,0,0,0,0,0,0,0,0,0,0,0,0,0],"split_type":[0,0,0,0,0,0,0,0,0,0,0,0,0,0,0,0,0,0,0,0,0,0,0,0,0,0,0,0,0,0,0],"sum_hessian":[1.28E3,4.33E2,8.47E2,3.86E2,4.7E1,8.14E2,3.3E1,1.2E2,2.66E2,2.3E1,2.4E1,3.07E2,5.07E2,2.8E1,5E0,8.5E1,3.5E1,1E2,1.66E2,2.2E1,1E0,2.1E1,3E0,2.4E1,2.83E2,5.6E1,4.51E2,1.1E1,1.7E1,1E0,4E0],"tree_param":{"num_deleted":"0","num_feature":"10","num_nodes":"31","size_leaf_vector":"1"}},{"base_weights":[-3.360769E-2,4.3306044E-1,-1.0855647E-1,2.0690022E0,2.4205467E-1,-4.9697462E-2,-1.2459601E0,2.7574826E-2,1.0613346E-1,1.0152332E0,1.84139E-2,7.518535E-1,-1.2923373E-1,-1.0196949E0,-1.0924055E-1,1.0595842E-2,5.819389E-2,-1.295233E-2,2.9966062E-2,2.3957452E-2,7.863639E-2,-1.3157311E-3,-4.5857333E-2,-6.821304E-2,-5.5028386E-3],"categories":[],"categories_nodes":[],"categories_segments":[],"categories_sizes":[],"default_left":[0,0,0,0,0,0,0,0,0,0,0,0,0,0,0,0,0,0,0,0,0,0,0,0,0],"id":35,"left_children":[1,3,5,7,9,11,13,-1,-1,15,17,19,21,23,-1,-1,-1,-1,-1,-1,-1,-1,-1,-1,-1],"loss_changes":[4.625058E1,5.668198E1,7.619008E1,3.7672424E-1,2.8512154E1,6.9204735E1,9.668205E0,0E0,0E0,4.1714706E0,2.0947319E1,2.1184326E1,8.001298E1,1.458107E1,0E0,0E0,0E0,0E0,0E0,0E0,0E0,0E0,0E0,0E0,0E0],"parents":[2147483647,0,0,1,1,2,2,3,3,4,4,5,5,6,6,9,9,10,10,11,11,12,12,13,13],"right_children":[2,4,6,8,10,12,14,-1,-1,16,18,20,22,24,-1,-1,-1,-1,-1,-1,-1,-1,-1,-1,-1],"split_conditions":[4.759055E2,1.4E1,1.4E1,2.2207405E2,4.0887936E2,5.480713E2,5.0731244E2,2.7574826E-2,1.0613346E-1,2.2207405E2,2.5712915E2,2.8449725E2,8.4747285E-1,2.700491E2,-1.0924055E-1,1.0595842E-2,5.819389E-2,-1.295233E-2,2.9966062E-2,2.3957452E-2,7.863639E-2,-1.3157311E-3,-4.5857333E-2,-6.821304E-2,-5.5028386E-3],"split_indices":[4,0,0,1,4,4,4,0,0,1,1,1,9,1,0,0,0,0,0,0,0,0,0,0,0],"split_type":[0,0,0,0,0,0,0,0,0,0,0,0,0,0,0,0,0,0,0,0,0,0,0,0,0],"sum_hessian":[1.32E3,1.82E2,1.138E3,1.8E1,1.64E2,1.083E3,5.5E1,1E0,1.7E1,3.6E1,1.28E2,9.7E1,9.86E2,4.6E1,9E0,6E0,3E1,8.7E1,4.1E1,7.4E1,2.3E1,8.73E2,1.13E2,3.3E1,1.3E1],"tree_param":{"num_deleted":"0","num_feature":"10","num_nodes":"25","size_leaf_vector":"1"}},{"base_weights":[-4.873412E-3,4.4173475E-2,-6.533281E-1,5.481789E-1,-4.0942434E-2,-1.3333E0,-3.858641E-1,1.7361885E0,4.4012663E-1,4.951174E-2,-1.0616006E0,-7.097711E-2,-3.5221167E-2,-9.944406E-2,-1.039658E0,1.0267117E-1,-5.574036E-3,2.5890702E-3,4.4845995E-2,-2.188524E-3,3.7203014E-2,-4.3127935E-2,-1.0335069E-1,-7.5400405E-2,-1.664959E-4,-6.877476E-2,-3.199185E-2],"categories":[],"categories_nodes":[],"categories_segments":[],"categories_sizes":[],"default_left":[0,0,0,0,0,0,0,0,0,0,0,0,0,0,0,0,0,0,0,0,0,0,0,0,0,0,0],"id":36,"left_children":[1,3,5,7,9,11,13,15,17,19,21,-1,-1,23,25,-1,-1,-1,-1,-1,-1,-1,-1,-1,-1,-1,-1],"loss_changes":[4.070705E1,5.1072117E1,1.5853649E1,2.1315006E1,9.4129486E1,3.5593033E-1,1.2255751E1,8.434952E0,2.8159119E1,6.073989E1,1.4826973E1,0E0,0E0,6.357976E0,1.8054028E0,0E0,0E0,0E0,0E0,0E0,0E0,0E0,0E0,0E0,0E0,0E0,0E0],"parents":[2147483647,0,0,1,1,2,2,3,3,4,4,5,5,6,6,7,7,8,8,9,9,10,10,13,13,14,14],"right_children":[2,4,6,8,10,12,14,16,18,20,22,-1,-1,24,26,-1,-1,-1,-1,-1,-1,-1,-1,-1,-1,-1,-1],"split_conditions":[1.6174965E3,7.544295E-1,7.873561E-1,1.1846244E3,1.2794202E3,4.368985E2,1.737777E3,3.6829437E2,4.249505E2,3.4549128E3,1.3816459E3,-7.097711E-2,-3.5221167E-2,8.6008805E-1,2.303123E2,1.0267117E-1,-5.574036E-3,2.5890702E-3,4.4845995E-2,-2.188524E-3,3.7203014E-2,-4.3127935E-2,-1.0335069E-1,-7.5400405E-2,-1.664959E-4,-6.877476E-2,-3.199185E-2],"split_indices":[4,7,5,4,4,1,4,8,1,2,4,0,0,3,8,0,0,0,0,0,0,0,0,0,0,0,0],"split_type":[0,0,0,0,0,0,0,0,0,0,0,0,0,0,0,0,0,0,0,0,0,0,0,0,0,0,0],"sum_hessian":[1.278E3,1.189E3,8.9E1,1.71E2,1.018E3,2.4E1,6.5E1,1.3E1,1.58E2,9.36E2,8.2E1,2E1,4E0,4.6E1,1.9E1,1.1E1,2E0,8.6E1,7.2E1,8.26E2,1.1E2,7E1,1.2E1,2E0,4.4E1,9E0,1E1],"tree_param":{"num_deleted":"0","num_feature":"10","num_nodes":"27","size_leaf_vector":"1"}},{"base_weights":[-3.4010254E-3,1.02715224E-1,-2.9777807E-1,1.0959204E0,-3.7414573E-2,1.3522765E-1,-1.0104326E0,2.0144496E0,5.146913E-1,7.760151E-2,-2.2526655E0,1.0108572E0,-3.8854545E-1,-6.2304366E-1,-1.7707212E0,1.3471082E-1,8.973282E-2,1.05015775E-2,3.8039245E-2,2.3132268E-2,-2.8172457E-3,-7.914233E-2,-1.4724688E-1,8.5643545E-2,3.8971E-2,-6.318569E-3,-4.5212965E-2,-7.4576684E-3,-3.6386754E-2,-6.7470305E-2,-1.0739207E-1],"categories":[],"categories_nodes":[],"categories_segments":[],"categories_sizes":[],"default_left":[0,0,0,0,0,0,0,0,0,0,0,0,0,0,0,0,0,0,0,0,0,0,0,0,0,0,0,0,0,0,0],"id":37,"left_children":[1,3,5,7,9,11,13,15,17,19,21,23,25,27,29,-1,-1,-1,-1,-1,-1,-1,-1,-1,-1,-1,-1,-1,-1,-1,-1],"loss_changes":[4.0202896E1,1.3170306E2,1.0536362E2,6.142665E1,2.1165005E2,9.808122E1,3.689081E1,1.8881683E0,5.3133717E0,4.077051E1,1.4350189E1,1.166272E1,1.8003435E1,4.207718E0,3.9338074E0,0E0,0E0,0E0,0E0,0E0,0E0,0E0,0E0,0E0,0E0,0E0,0E0,0E0,0E0,0E0,0E0],"parents":[2147483647,0,0,1,1,2,2,3,3,4,4,5,5,6,6,7,7,8,8,9,9,10,10,11,11,12,12,13,13,14,14],"right_children":[2,4,6,8,10,12,14,16,18,20,22,24,26,28,30,-1,-1,-1,-1,-1,-1,-1,-1,-1,-1,-1,-1,-1,-1,-1,-1],"split_conditions":[1.2632535E3,8E0,7E0,1.1894869E3,1.0579752E3,1.5572307E3,1.3409653E3,1.1098286E3,-1.1068953E2,1.5577456E3,1.0959236E3,1.4488088E3,1.6710342E3,1.2735715E3,1.3816459E3,1.3471082E-1,8.973282E-2,1.05015775E-2,3.8039245E-2,2.3132268E-2,-2.8172457E-3,-7.914233E-2,-1.4724688E-1,8.5643545E-2,3.8971E-2,-6.318569E-3,-4.5212965E-2,-7.4576684E-3,-3.6386754E-2,-6.7470305E-2,-1.0739207E-1],"split_indices":[4,0,0,4,4,4,4,4,8,8,4,4,4,4,4,0,0,0,0,0,0,0,0,0,0,0,0,0,0,0,0],"split_type":[0,0,0,0,0,0,0,0,0,0,0,0,0,0,0,0,0,0,0,0,0,0,0,0,0,0,0,0,0,0,0],"sum_hessian":[1.285E3,9.45E2,3.4E2,1.16E2,8.29E2,2.12E2,1.28E2,4.4E1,7.2E1,7.89E2,4E1,7.9E1,1.33E2,8.6E1,4.2E1,8E0,3.6E1,3.3E1,3.9E1,2.03E2,5.86E2,2.2E1,1.8E1,1.8E1,6.1E1,8.9E1,4.4E1,1.6E1,7E1,2.2E1,2E1],"tree_param":{"num_deleted":"0","num_feature":"10","num_nodes":"31","size_leaf_vector":"1"}},{"base_weights":[-1.4407422E-2,5.6288445E-1,-6.634166E-2,1.4132264E0,4.3929586E-1,-1.1416957E0,-1.3662998E-2,1.8451512E-2,7.347451E-2,1.12972654E-1,8.9659846E-1,-6.178852E-1,-1.4721789E0,2.8789112E-1,-1.18378006E-1,-1.906383E-2,1.1435338E-2,3.382573E-2,6.976554E-2,6.410177E-2,-5.4267198E-2,-7.667128E-2,1.2192798E-2,7.925781E-2,1.2016067E-3,8.566963E-3,-2.2232687E-2],"categories":[],"categories_nodes":[],"categories_segments":[],"categories_sizes":[],"default_left":[0,0,0,0,0,0,0,0,0,0,0,0,0,0,0,0,0,0,0,0,0,0,0,0,0,0,0],"id":38,"left_children":[1,3,5,7,9,11,13,-1,-1,15,17,19,21,23,25,-1,-1,-1,-1,-1,-1,-1,-1,-1,-1,-1,-1],"loss_changes":[3.850324E1,1.051899E1,6.6715996E1,2.2147179E-1,1.3926184E1,8.61145E0,3.55269E1,0E0,0E0,3.2904844E0,3.3366356E0,2.1818546E1,3.8422775E0,9.9227455E1,7.900682E1,0E0,0E0,0E0,0E0,0E0,0E0,0E0,0E0,0E0,0E0,0E0,0E0],"parents":[2147483647,0,0,1,1,2,2,3,3,4,4,5,5,6,6,9,9,10,10,11,11,12,12,13,13,14,14],"right_children":[2,4,6,8,10,12,14,-1,-1,16,18,20,22,24,26,-1,-1,-1,-1,-1,-1,-1,-1,-1,-1,-1,-1],"split_conditions":[4.4987595E2,3.824859E2,2.4725916E2,1.4188701E3,2.4782014E2,4.792864E2,6.087262E2,1.8451512E-2,7.347451E-2,2.2055977E2,2.65404E2,1.4E1,9.294179E-1,1.2E1,1.8829858E2,-1.906383E-2,1.1435338E-2,3.382573E-2,6.976554E-2,6.410177E-2,-5.4267198E-2,-7.667128E-2,1.2192798E-2,7.925781E-2,1.2016067E-3,8.566963E-3,-2.2232687E-2],"split_indices":[4,4,1,8,1,4,4,0,0,1,1,0,7,0,8,0,0,0,0,0,0,0,0,0,0,0,0],"split_type":[0,0,0,0,0,0,0,0,0,0,0,0,0,0,0,0,0,0,0,0,0,0,0,0,0,0,0],"sum_hessian":[1.282E3,1.05E2,1.177E3,1.2E1,9.3E1,5.4E1,1.123E3,1E0,1.1E1,5.5E1,3.8E1,2.2E1,3.2E1,2.89E2,8.34E2,1E1,4.5E1,2.8E1,1E1,4E0,1.8E1,3.1E1,1E0,4.8E1,2.41E2,4.42E2,3.92E2],"tree_param":{"num_deleted":"0","num_feature":"10","num_nodes":"27","size_leaf_vector":"1"}},{"base_weights":[-1.5341888E-2,1.8503023E-2,-8.780536E-1,6.513985E-2,-6.027887E-1,4.417824E-2,-2.315091E0,6.3394874E-1,-7.0546167E-3,-4.557457E-1,-1.0358347E0,3.9979857E-1,-4.2426205E-1,-1.056404E0,-1.299629E-1,8.2999706E-2,2.093001E-2,4.1542E-3,-6.214697E-2,-4.1003156E-2,-1.0526155E-2,-5.4097842E-2,-2.0691184E-2,3.8983412E-2,1.1147055E-2,-4.2477753E-2,-2.6129752E-3,-5.8750134E-2,-1.4550233E-2],"categories":[],"categories_nodes":[],"categories_segments":[],"categories_sizes":[],"default_left":[0,0,0,0,0,0,0,0,0,0,0,0,0,0,0,0,0,0,0,0,0,0,0,0,0,0,0,0,0],"id":39,"left_children":[1,3,5,7,9,11,13,15,17,19,21,23,25,27,-1,-1,-1,-1,-1,-1,-1,-1,-1,-1,-1,-1,-1,-1,-1],"loss_changes":[3.5579903E1,3.4027027E1,6.1065224E1,4.4847298E1,4.7493896E0,5.000639E0,3.692337E0,2.6482891E1,1.08162186E2,5.4557056E0,1.2602997E-1,9.6828747E-1,2.0123339E0,1.1194515E-1,0E0,0E0,0E0,0E0,0E0,0E0,0E0,0E0,0E0,0E0,0E0,0E0,0E0,0E0,0E0],"parents":[2147483647,0,0,1,1,2,2,3,3,4,4,5,5,6,6,7,7,8,8,9,9,10,10,11,11,12,12,13,13],"right_children":[2,4,6,8,10,12,14,16,18,20,22,24,26,28,-1,-1,-1,-1,-1,-1,-1,-1,-1,-1,-1,-1,-1,-1,-1],"split_conditions":[3.81491E3,1.6174965E3,7.031661E2,7E0,1.737777E3,6.6423016E2,7.2857874E2,1.4684266E3,1.3108923E3,8.984421E-1,6.785774E-1,7.862832E-1,7.9586166E-1,9.150271E-1,-1.299629E-1,8.2999706E-2,2.093001E-2,4.1542E-3,-6.214697E-2,-4.1003156E-2,-1.0526155E-2,-5.4097842E-2,-2.0691184E-2,3.8983412E-2,1.1147055E-2,-4.2477753E-2,-2.6129752E-3,-5.8750134E-2,-1.4550233E-2],"split_indices":[8,4,4,0,4,4,4,4,4,3,7,9,9,7,0,0,0,0,0,0,0,0,0,0,0,0,0,0,0],"split_type":[0,0,0,0,0,0,0,0,0,0,0,0,0,0,0,0,0,0,0,0,0,0,0,0,0,0,0,0,0],"sum_hessian":[1.217E3,1.172E3,4.5E1,1.091E3,8.1E1,2.8E1,1.7E1,1.22E2,9.69E2,6.2E1,1.9E1,1.6E1,1.2E1,4E0,1.3E1,2E1,1.02E2,9.04E2,6.5E1,2.4E1,3.8E1,1.7E1,2E0,4E0,1.2E1,5E0,7E0,3E0,1E0],"tree_param":{"num_deleted":"0","num_feature":"10","num_nodes":"29","size_leaf_vector":"1"}},{"base_weights":[-3.741065E-4,5.1922023E-2,-5.9613615E-1,-5.844157E-2,4.652357E-1,-1.2982987E0,-2.9940996E-1,9.7324856E-2,-6.041011E-1,1.0485065E0,2.3060966E-1,-1.5690116E0,-9.6336174E-1,-1.1578818E-1,-1.2231717E0,-1.3353181E-3,4.8501216E-2,-7.988798E-2,-1.3121939E-2,2.1352107E-2,7.657706E-2,3.2027416E-2,-2.1494461E-2,-1.6811896E-2,-8.165249E-2,-3.250644E-2,-5.976643E-2,-2.6784329E-2,4.1103065E-3,-6.6136755E-2,-2.417848E-2],"categories":[],"categories_nodes":[],"categories_segments":[],"categories_sizes":[],"default_left":[0,0,0,0,0,0,0,0,0,0,0,0,0,0,0,0,0,0,0,0,0,0,0,0,0,0,0,0,0,0,0],"id":40,"left_children":[1,3,5,7,9,11,13,15,17,19,21,23,25,27,29,-1,-1,-1,-1,-1,-1,-1,-1,-1,-1,-1,-1,-1,-1,-1,-1],"loss_changes":[3.9381046E1,5.3031567E1,2.086298E1,7.80846E1,3.3286583E1,1.2086258E0,1.2240833E1,7.7418915E1,6.88378E1,2.0359184E1,4.7929825E1,6.3508224E-1,3.8543606E-1,5.1985607E0,2.4401283E-1,0E0,0E0,0E0,0E0,0E0,0E0,0E0,0E0,0E0,0E0,0E0,0E0,0E0,0E0,0E0,0E0],"parents":[2147483647,0,0,1,1,2,2,3,3,4,4,5,5,6,6,7,7,8,8,9,9,10,10,11,11,12,12,13,13,14,14],"right_children":[2,4,6,8,10,12,14,16,18,20,22,24,26,28,30,-1,-1,-1,-1,-1,-1,-1,-1,-1,-1,-1,-1,-1,-1,-1,-1],"split_conditions":[1.5940941E3,4.0097824E2,7.873561E-1,1.0131978E3,1.2428453E3,7.67045E-1,1.7800487E3,3.6570474E3,3.299578E3,3.4071604E3,7.4962574E-1,4.0507766E3,1.6623295E3,8.111206E-1,9.275013E-1,-1.3353181E-3,4.8501216E-2,-7.988798E-2,-1.3121939E-2,2.1352107E-2,7.657706E-2,3.2027416E-2,-2.1494461E-2,-1.6811896E-2,-8.165249E-2,-3.250644E-2,-5.976643E-2,-2.6784329E-2,4.1103065E-3,-6.6136755E-2,-2.417848E-2],"split_indices":[4,1,5,4,4,5,4,6,2,2,7,2,4,5,3,0,0,0,0,0,0,0,0,0,0,0,0,0,0,0,0],"split_type":[0,0,0,0,0,0,0,0,0,0,0,0,0,0,0,0,0,0,0,0,0,0,0,0,0,0,0,0,0,0,0],"sum_hessian":[1.262E3,1.161E3,1.01E2,9.17E2,2.44E2,2.9E1,7.2E1,7.14E2,2.03E2,6.9E1,1.75E2,1.4E1,1.5E1,6.1E1,1.1E1,6.26E2,8.8E1,5.1E1,1.52E2,3.1E1,3.8E1,1.08E2,6.7E1,1E0,1.3E1,8E0,7E0,1.9E1,4.2E1,9E0,2E0],"tree_param":{"num_deleted":"0","num_feature":"10","num_nodes":"31","size_leaf_vector":"1"}},{"base_weights":[-2.9154057E-3,2.5569513E-1,-1.3466851E-1,8.980763E-2,1.605591E0,-1.667472E0,-7.612849E-2,4.0308985E-1,-1.3099627E-1,1.6874804E0,-1.579458E-1,-1.1795882E0,-2.1092422E0,6.9886273E-1,-1.4207165E-1,1.593644E-2,9.777818E-2,1.1812414E-2,-5.0302155E-2,6.366063E-2,1.0141899E-1,5.8671236E-3,-1.7713059E-2,-6.681334E-2,-1.4997325E-4,-1.0866336E-1,-3.032229E-2,1.2612139E-2,5.553856E-2,-5.103691E-4,-5.9450757E-2],"categories":[],"categories_nodes":[],"categories_segments":[],"categories_sizes":[],"default_left":[0,0,0,0,0,0,0,0,0,0,0,0,0,0,0,0,0,0,0,0,0,0,0,0,0,0,0,0,0,0,0],"id":41,"left_children":[1,3,5,7,9,11,13,15,17,19,21,23,25,27,29,-1,-1,-1,-1,-1,-1,-1,-1,-1,-1,-1,-1,-1,-1,-1,-1],"loss_changes":[4.3409035E1,9.614608E1,7.560548E1,2.6615597E1,7.0540314E0,4.193466E0,4.169906E1,2.0200665E1,7.2864174E1,3.7725067E0,2.0369981E-1,3.129881E0,1.2528229E-1,1.1493673E1,1.0366675E2,0E0,0E0,0E0,0E0,0E0,0E0,0E0,0E0,0E0,0E0,0E0,0E0,0E0,0E0,0E0,0E0],"parents":[2147483647,0,0,1,1,2,2,3,3,4,4,5,5,6,6,7,7,8,8,9,9,10,10,11,11,12,12,13,13,14,14],"right_children":[2,4,6,8,10,12,14,16,18,20,22,24,26,28,30,-1,-1,-1,-1,-1,-1,-1,-1,-1,-1,-1,-1,-1,-1,-1,-1],"split_conditions":[5.947028E2,2.1976726E3,2.1976726E3,4.7065274E2,9.400621E-1,6.087262E2,6.470433E2,1.9135098E3,1.4E1,2.9356393E2,2.5580121E2,2.8926614E2,2.4954517E3,2.9682254E2,3.4416426E3,1.593644E-2,9.777818E-2,1.1812414E-2,-5.0302155E-2,6.366063E-2,1.0141899E-1,5.8671236E-3,-1.7713059E-2,-6.681334E-2,-1.4997325E-4,-1.0866336E-1,-3.032229E-2,1.2612139E-2,5.553856E-2,-5.103691E-4,-5.9450757E-2],"split_indices":[4,6,6,4,7,4,4,8,0,1,1,1,8,1,8,0,0,0,0,0,0,0,0,0,0,0,0,0,0,0,0],"split_type":[0,0,0,0,0,0,0,0,0,0,0,0,0,0,0,0,0,0,0,0,0,0,0,0,0,0,0,0,0,0,0],"sum_hessian":[1.272E3,4.29E2,8.43E2,3.83E2,4.6E1,3E1,8.13E2,1.58E2,2.25E2,4.4E1,2E0,1.6E1,1.4E1,6.3E1,7.5E2,1.51E2,7E0,1.59E2,6.6E1,2.2E1,2.2E1,1E0,1E0,1.4E1,2E0,1.3E1,1E0,3.1E1,3.2E1,6.67E2,8.3E1],"tree_param":{"num_deleted":"0","num_feature":"10","num_nodes":"31","size_leaf_vector":"1"}},{"base_weights":[4.7233365E-3,1.1295124E-1,-2.9057106E-1,1.0300505E0,-4.2833355E-3,8.366668E-2,-8.552459E-1,1.7917761E0,5.297093E-1,1.0927709E-1,-1.7588192E0,7.9525185E-1,-4.1052678E-1,-4.7750437E-1,-1.5535631E0,2.5407914E-2,1.0169905E-1,4.2911546E-4,4.9551684E-2,-2.5550005E-5,3.9659556E-2,-6.35085E-2,-1.2920557E-1,2.0001648E-2,6.939693E-2,-5.4998696E-2,-5.233511E-3,-6.251743E-2,-3.8459783E-3,-9.184971E-2,-2.750937E-2],"categories":[],"categories_nodes":[],"categories_segments":[],"categories_sizes":[],"default_left":[0,0,0,0,0,0,0,0,0,0,0,0,0,0,0,0,0,0,0,0,0,0,0,0,0,0,0,0,0,0,0],"id":42,"left_children":[1,3,5,7,9,11,13,15,17,19,21,23,25,27,29,-1,-1,-1,-1,-1,-1,-1,-1,-1,-1,-1,-1,-1,-1,-1,-1],"loss_changes":[4.1228092E1,1.0149928E2,7.318918E1,3.9831017E1,1.671602E2,7.382356E1,3.5660286E1,1.2024155E1,1.5858461E1,5.9167862E1,1.7284927E1,1.9589508E1,2.6032988E1,2.8076479E1,1.2639915E1,0E0,0E0,0E0,0E0,0E0,0E0,0E0,0E0,0E0,0E0,0E0,0E0,0E0,0E0,0E0,0E0],"parents":[2147483647,0,0,1,1,2,2,3,3,4,4,5,5,6,6,7,7,8,8,9,9,10,10,11,11,12,12,13,13,14,14],"right_children":[2,4,6,8,10,12,14,16,18,20,22,24,26,28,30,-1,-1,-1,-1,-1,-1,-1,-1,-1,-1,-1,-1,-1,-1,-1,-1],"split_conditions":[1.2632535E3,8E0,7E0,1.1894869E3,1.0433695E3,1.5693511E3,1.3409653E3,7.8184986E-1,8.195773E-1,3.6808115E2,1.091009E3,7.837099E-1,7.873561E-1,8.169029E-1,8.681251E-1,2.5407914E-2,1.0169905E-1,4.2911546E-4,4.9551684E-2,-2.5550005E-5,3.9659556E-2,-6.35085E-2,-1.2920557E-1,2.0001648E-2,6.939693E-2,-5.4998696E-2,-5.233511E-3,-6.251743E-2,-3.8459783E-3,-9.184971E-2,-2.750937E-2],"split_indices":[4,0,0,4,4,4,4,5,5,1,4,5,5,5,5,0,0,0,0,0,0,0,0,0,0,0,0,0,0,0,0],"split_type":[0,0,0,0,0,0,0,0,0,0,0,0,0,0,0,0,0,0,0,0,0,0,0,0,0,0,0,0,0,0,0],"sum_hessian":[1.288E3,9.43E2,3.45E2,1.06E2,8.37E2,2.08E2,1.37E2,4.1E1,6.5E1,7.87E2,5E1,8.5E1,1.23E2,9E1,4.7E1,7E0,3.4E1,3.1E1,3.4E1,6.79E2,1.08E2,3.3E1,1.7E1,5.2E1,3.3E1,3.7E1,8.6E1,3E1,6E1,3.6E1,1.1E1],"tree_param":{"num_deleted":"0","num_feature":"10","num_nodes":"31","size_leaf_vector":"1"}},{"base_weights":[1.4408563E-3,2.293663E-2,-8.45672E-1,-3.5242373E-1,6.4917095E-2,7.214441E-2,-1.2079543E0,-1.6718058E-1,-1.0323176E0,6.7473423E-1,4.0866725E-2,-6.390559E-2,3.6418527E-1,-1.3828897E0,-3.1288385E-2,-2.0285286E-2,6.93332E-3,-2.1445293E-2,-9.3550794E-2,7.388888E-2,2.7723953E-2,-5.7423656E-4,1.5323438E-2,-2.687494E-4,4.1373968E-2,-8.303098E-2,-1.0878826E-2,8.66212E-3,-1.6122019E-2],"categories":[],"categories_nodes":[],"categories_segments":[],"categories_sizes":[],"default_left":[0,0,0,0,0,0,0,0,0,0,0,0,0,0,0,0,0,0,0,0,0,0,0,0,0,0,0,0,0],"id":43,"left_children":[1,3,5,7,9,11,13,15,17,19,21,-1,23,25,27,-1,-1,-1,-1,-1,-1,-1,-1,-1,-1,-1,-1,-1,-1],"loss_changes":[2.3545872E1,1.9893467E1,1.0727421E1,1.5822518E1,1.6618708E1,4.408769E0,4.6910667E0,7.424429E0,1.2861679E1,3.3331184E0,1.5201305E1,0E0,1.5453833E0,6.111534E0,2.9405856E-1,0E0,0E0,0E0,0E0,0E0,0E0,0E0,0E0,0E0,0E0,0E0,0E0,0E0,0E0],"parents":[2147483647,0,0,1,1,2,2,3,3,4,4,5,5,6,6,7,7,8,8,9,9,10,10,12,12,13,13,14,14],"right_children":[2,4,6,8,10,12,14,16,18,20,22,-1,24,26,28,-1,-1,-1,-1,-1,-1,-1,-1,-1,-1,-1,-1,-1,-1],"split_conditions":[3.8428003E3,2.4782014E2,8.7823457E-1,1.9340564E3,1.7714426E3,8.278439E-1,8.134788E-1,8.9385855E-1,2.4232211E2,1.4E1,2.5881033E3,-6.390559E-2,3.018553E2,9.233266E-1,2.8889526E2,-2.0285286E-2,6.93332E-3,-2.1445293E-2,-9.3550794E-2,7.388888E-2,2.7723953E-2,-5.7423656E-4,1.5323438E-2,-2.687494E-4,4.1373968E-2,-8.303098E-2,-1.0878826E-2,8.66212E-3,-1.6122019E-2],"split_indices":[8,1,7,6,6,7,9,7,1,0,8,0,1,3,1,0,0,0,0,0,0,0,0,0,0,0,0,0,0],"split_type":[0,0,0,0,0,0,0,0,0,0,0,0,0,0,0,0,0,0,0,0,0,0,0,0,0,0,0,0,0],"sum_hessian":[1.291E3,1.26E3,3.1E1,1.26E2,1.134E3,9E0,2.2E1,1E2,2.6E1,4.2E1,1.092E3,1E0,8E0,1.9E1,3E0,5.6E1,4.4E1,1.6E1,1E1,4E0,3.8E1,9.13E2,1.79E2,5E0,3E0,1.5E1,4E0,2E0,1E0],"tree_param":{"num_deleted":"0","num_feature":"10","num_nodes":"29","size_leaf_vector":"1"}},{"base_weights":[-1.7424187E-2,7.153047E-1,-5.523581E-2,3.925265E-1,1.0690686E0,-7.632856E-1,-4.025047E-3,5.9884258E-2,1.3942298E-1,1.1267039E0,2.1358585E-2,-3.8911825E-1,-1.3240694E0,3.0317453E-1,-1.3758494E-1,-7.836199E-3,1.4810167E-2,5.861981E-2,1.9279854E-2,-3.0522063E-2,5.2882165E-2,-4.9389046E-2,-9.0111755E-2,3.191753E-3,6.127146E-2,-4.081206E-2,1.1706389E-5],"categories":[],"categories_nodes":[],"categories_segments":[],"categories_sizes":[],"default_left":[0,0,0,0,0,0,0,0,0,0,0,0,0,0,0,0,0,0,0,0,0,0,0,0,0,0,0],"id":44,"left_children":[1,3,5,7,9,11,13,-1,15,17,-1,19,21,23,25,-1,-1,-1,-1,-1,-1,-1,-1,-1,-1,-1,-1],"loss_changes":[3.5004066E1,6.659973E0,4.3544914E1,6.761824E0,5.9158707E-1,1.6480762E1,4.603583E1,0E0,1.3000329E0,4.283638E-1,0E0,1.6655712E1,3.3654404E0,7.4970634E1,7.314203E1,0E0,0E0,0E0,0E0,0E0,0E0,0E0,0E0,0E0,0E0,0E0,0E0],"parents":[2147483647,0,0,1,1,2,2,3,3,4,4,5,5,6,6,8,8,9,9,11,11,12,12,13,13,14,14],"right_children":[2,4,6,8,10,12,14,-1,16,18,-1,20,22,24,26,-1,-1,-1,-1,-1,-1,-1,-1,-1,-1,-1,-1],"split_conditions":[4.2133658E2,2.3638905E2,2.4782014E2,3.824859E2,1.3809991E3,4.792864E2,6.301281E2,5.9884258E-2,2.2055977E2,9.6032876E-1,2.1358585E-2,1.844618E3,2.4394394E2,2.98915E3,3.2577887E2,-7.836199E-3,1.4810167E-2,5.861981E-2,1.9279854E-2,-3.0522063E-2,5.2882165E-2,-4.9389046E-2,-9.0111755E-2,3.191753E-3,6.127146E-2,-4.081206E-2,1.1706389E-5],"split_indices":[4,1,1,4,2,4,4,0,1,5,0,8,1,8,1,0,0,0,0,0,0,0,0,0,0,0,0],"split_type":[0,0,0,0,0,0,0,0,0,0,0,0,0,0,0,0,0,0,0,0,0,0,0,0,0,0,0],"sum_hessian":[1.261E3,6.1E1,1.2E3,3.3E1,2.8E1,8E1,1.12E3,7E0,2.6E1,2.5E1,3E0,4.9E1,3.1E1,3.39E2,7.81E2,9E0,1.7E1,2.3E1,2E0,4.3E1,6E0,2E1,1.1E1,2.7E2,6.9E1,1.31E2,6.5E2],"tree_param":{"num_deleted":"0","num_feature":"10","num_nodes":"27","size_leaf_vector":"1"}},{"base_weights":[-2.2629833E-2,3.7936693E-1,-8.7353036E-2,1.8397827E0,2.2280522E-1,-1.2001548E0,-2.9820867E-2,2.544154E-2,9.455826E-2,5.6542635E-1,-1.678293E-1,-1.5078725E0,-6.8402565E-1,7.740674E-1,-1.0815608E-1,1.5123441E-2,4.9985755E-2,-2.3531359E-2,2.343517E-2,3.4044625E-3,-7.796245E-2,-5.1270522E-2,-8.591147E-3,2.7645556E-2,7.313334E-2,-9.3049026E-4,-4.1992288E-2],"categories":[],"categories_nodes":[],"categories_segments":[],"categories_sizes":[],"default_left":[0,0,0,0,0,0,0,0,0,0,0,0,0,0,0,0,0,0,0,0,0,0,0,0,0,0,0],"id":45,"left_children":[1,3,5,7,9,11,13,-1,-1,15,17,19,21,23,25,-1,-1,-1,-1,-1,-1,-1,-1,-1,-1,-1,-1],"loss_changes":[3.320675E1,4.0060287E1,7.032427E1,2.0030975E-1,2.1643078E1,7.54496E0,6.5953224E1,0E0,0E0,9.518774E0,1.4868881E1,2.778099E0,3.6706905E0,1.3354069E1,6.249053E1,0E0,0E0,0E0,0E0,0E0,0E0,0E0,0E0,0E0,0E0,0E0,0E0],"parents":[2147483647,0,0,1,1,2,2,3,3,4,4,5,5,6,6,9,9,10,10,11,11,12,12,13,13,14,14],"right_children":[2,4,6,8,10,12,14,-1,-1,16,18,20,22,24,26,-1,-1,-1,-1,-1,-1,-1,-1,-1,-1,-1,-1],"split_conditions":[4.759055E2,1.4E1,1.4777906E3,2.2207405E2,4.4014728E2,9.3737006E-1,5.480713E2,2.544154E-2,9.455826E-2,2.4782014E2,2.631167E2,1.4E1,2.6917938E2,2.8519208E2,8.4747285E-1,1.5123441E-2,4.9985755E-2,-2.3531359E-2,2.343517E-2,3.4044625E-3,-7.796245E-2,-5.1270522E-2,-8.591147E-3,2.7645556E-2,7.313334E-2,-9.3049026E-4,-4.1992288E-2],"split_indices":[4,0,2,1,4,3,4,0,0,1,1,0,1,1,9,0,0,0,0,0,0,0,0,0,0,0,0],"split_type":[0,0,0,0,0,0,0,0,0,0,0,0,0,0,0,0,0,0,0,0,0,0,0,0,0,0,0],"sum_hessian":[1.274E3,1.76E2,1.098E3,1.6E1,1.6E2,5.3E1,1.045E3,1E0,1.5E1,8.5E1,7.5E1,3.2E1,2.1E1,9.2E1,9.53E2,5.4E1,3.1E1,5.1E1,2.4E1,1E0,3.1E1,1.2E1,9E0,7.1E1,2.1E1,8.5E2,1.03E2],"tree_param":{"num_deleted":"0","num_feature":"10","num_nodes":"27","size_leaf_vector":"1"}},{"base_weights":[-9.857119E-3,2.2371824E-1,-1.0216068E-1,8.1511706E-1,-1.5823556E-1,-7.7822256E-1,9.3569026E-5,1.6154581E0,4.7757348E-1,2.2747046E-1,-1.0539356E0,-1.315869E0,-3.2525575E-1,3.4513903E-1,-1.6354948E-1,4.119359E-2,9.031898E-2,5.500254E-3,6.390958E-2,2.5663733E-2,-7.992038E-3,-3.8863484E-2,-8.114765E-2,-1.95565E-2,-7.690822E-2,5.387218E-3,-8.5608885E-2,4.723601E-2,-2.0160982E-3,3.963321E-3,-6.709642E-2],"categories":[],"categories_nodes":[],"categories_segments":[],"categories_sizes":[],"default_left":[0,0,0,0,0,0,0,0,0,0,0,0,0,0,0,0,0,0,0,0,0,0,0,0,0,0,0,0,0,0,0],"id":46,"left_children":[1,3,5,7,9,11,13,15,17,19,21,23,25,27,29,-1,-1,-1,-1,-1,-1,-1,-1,-1,-1,-1,-1,-1,-1,-1,-1],"loss_changes":[2.7705687E1,8.235186E1,6.3668983E1,3.785994E1,7.693561E1,2.9039871E1,4.5284348E1,4.859268E0,2.9876152E1,1.7350492E1,9.286186E0,1.0704468E1,4.042048E1,5.9665802E1,1.5576062E2,0E0,0E0,0E0,0E0,0E0,0E0,0E0,0E0,0E0,0E0,0E0,0E0,0E0,0E0,0E0,0E0],"parents":[2147483647,0,0,1,1,2,2,3,3,4,4,5,5,6,6,7,7,8,8,9,9,10,10,11,11,12,12,13,13,14,14],"right_children":[2,4,6,8,10,12,14,16,18,20,22,24,26,28,30,-1,-1,-1,-1,-1,-1,-1,-1,-1,-1,-1,-1,-1,-1,-1,-1],"split_conditions":[5.6451355E2,1.4E1,2.9110355E2,5.0261346E2,4.7204944E2,2.7383413E3,1.0131978E3,2.4782014E2,2.8354956E2,4.4014728E2,4.9647165E2,5.7201825E2,6.681086E2,5.868217E2,8E0,4.119359E-2,9.031898E-2,5.500254E-3,6.390958E-2,2.5663733E-2,-7.992038E-3,-3.8863484E-2,-8.114765E-2,-1.95565E-2,-7.690822E-2,5.387218E-3,-8.5608885E-2,4.723601E-2,-2.0160982E-3,3.963321E-3,-6.709642E-2],"split_indices":[4,0,1,4,4,6,4,1,1,4,4,4,4,8,0,0,0,0,0,0,0,0,0,0,0,0,0,0,0,0,0],"split_type":[0,0,0,0,0,0,0,0,0,0,0,0,0,0,0,0,0,0,0,0,0,0,0,0,0,0,0,0,0,0,0],"sum_hessian":[1.283E3,3.63E2,9.2E2,1.42E2,2.21E2,1.2E2,8E2,4.1E1,1.01E2,1.55E2,6.6E1,5.4E1,6.6E1,2.57E2,5.43E2,9E0,3.2E1,7E1,3.1E1,8.9E1,6.6E1,4.6E1,2E1,1.1E1,4.3E1,5.1E1,1.5E1,1E2,1.57E2,4.51E2,9.2E1],"tree_param":{"num_deleted":"0","num_feature":"10","num_nodes":"31","size_leaf_vector":"1"}},{"base_weights":[-2.2040782E-2,9.5346236E-1,-4.40505E-2,5.473001E-1,1.1487025E0,-1.6892703E-2,-7.9965484E-1,5.1413983E-2,1.255575E-1,1.4863468E-2,5.906502E-2,3.9299917E-1,-8.090967E-2,-1.0376533E0,-2.3253992E-1,1.6033126E-2,-8.3085056E-4,4.5175653E-2,-4.004797E-3,-5.464211E-4,-7.612936E-2,-1.2989919E-2,-5.4196794E-2,7.6345564E-3,-4.7824703E-2],"categories":[],"categories_nodes":[],"categories_segments":[],"categories_sizes":[],"default_left":[0,0,0,0,0,0,0,0,0,0,0,0,0,0,0,0,0,0,0,0,0,0,0,0,0],"id":47,"left_children":[1,3,5,7,9,11,13,-1,15,-1,-1,17,19,21,23,-1,-1,-1,-1,-1,-1,-1,-1,-1,-1],"loss_changes":[2.7245182E1,1.591692E0,2.543197E1,2.1022375E0,1.4842415E-1,3.1467356E1,5.562523E0,0E0,1.9950116E-1,0E0,0E0,3.9198875E1,1.0460669E2,7.984276E-1,4.0505023E0,0E0,0E0,0E0,0E0,0E0,0E0,0E0,0E0,0E0,0E0],"parents":[2147483647,0,0,1,1,2,2,3,3,4,4,5,5,6,6,8,8,11,11,12,12,13,13,14,14],"right_children":[2,4,6,8,10,12,14,-1,16,-1,-1,18,20,22,24,-1,-1,-1,-1,-1,-1,-1,-1,-1,-1],"split_conditions":[4.0401874E2,2.2596428E2,1.6623295E3,3.7293958E2,1.4188701E3,7E0,8.3851886E-1,5.1413983E-2,1.7641168E3,1.4863468E-2,5.906502E-2,1.5572307E3,1.3409653E3,4.0045105E3,1.7800487E3,1.6033126E-2,-8.3085056E-4,4.5175653E-2,-4.004797E-3,-5.464211E-4,-7.612936E-2,-1.2989919E-2,-5.4196794E-2,7.6345564E-3,-4.7824703E-2],"split_indices":[4,1,4,4,8,0,5,0,6,0,0,4,4,2,4,0,0,0,0,0,0,0,0,0,0],"split_type":[0,0,0,0,0,0,0,0,0,0,0,0,0,0,0,0,0,0,0,0,0,0,0,0,0],"sum_hessian":[1.266E3,2.7E1,1.239E3,1E1,1.7E1,1.197E3,4.2E1,4E0,6E0,1E0,1.6E1,1.61E2,1.036E3,2.9E1,1.3E1,2E0,4E0,7.7E1,8.4E1,9.89E2,4.7E1,2E0,2.7E1,9E0,4E0],"tree_param":{"num_deleted":"0","num_feature":"10","num_nodes":"25","size_leaf_vector":"1"}},{"base_weights":[2.8375378E-3,2.8961137E-2,-5.3606516E-1,-3.4109882E-1,6.863215E-2,3.945442E-1,-8.076405E-1,-6.808173E-2,-7.3783034E-1,-2.4221817E-1,1.24531634E-1,-2.2494252E-1,5.1653725E-1,-1.244794E0,1.7879643E-1,-3.807087E-2,1.6023441E-3,-8.171553E-2,-2.5883827E-2,-2.6289297E-2,6.7005465E-3,-8.746355E-3,9.38399E-3,4.8247217E-3,-2.169541E-2,2.218013E-3,3.7354033E-2,-3.1220412E-2,-9.531354E-2,-3.3956256E-2,2.2493528E-2],"categories":[],"categories_nodes":[],"categories_segments":[],"categories_sizes":[],"default_left":[0,0,0,0,0,0,0,0,0,0,0,0,0,0,0,0,0,0,0,0,0,0,0,0,0,0,0,0,0,0,0],"id":48,"left_children":[1,3,5,7,9,11,13,15,17,19,21,23,25,27,29,-1,-1,-1,-1,-1,-1,-1,-1,-1,-1,-1,-1,-1,-1,-1,-1],"loss_changes":[1.7965075E1,1.7889763E1,1.52297535E1,1.2730875E1,1.9144176E1,1.1742141E0,2.0058887E1,4.9534154E0,8.627409E0,1.7993782E1,1.7676111E1,2.4337761E-1,1.2731469E0,1.194157E1,3.7939227E0,0E0,0E0,0E0,0E0,0E0,0E0,0E0,0E0,0E0,0E0,0E0,0E0,0E0,0E0,0E0,0E0],"parents":[2147483647,0,0,1,1,2,2,3,3,4,4,5,5,6,6,7,7,8,8,9,9,10,10,11,11,12,12,13,13,14,14],"right_children":[2,4,6,8,10,12,14,16,18,20,22,24,26,28,30,-1,-1,-1,-1,-1,-1,-1,-1,-1,-1,-1,-1,-1,-1,-1,-1],"split_conditions":[3.7518838E3,2.4782014E2,2.182198E3,1.7065385E3,8.0218744E-1,2.5620328E2,9.279761E-1,8.987165E-1,8.613174E-1,4.249505E2,8.9019495E-1,2.5500562E2,8.7042636E-1,8.886414E-1,7.8520846E-1,-3.807087E-2,1.6023441E-3,-8.171553E-2,-2.5883827E-2,-2.6289297E-2,6.7005465E-3,-8.746355E-3,9.38399E-3,4.8247217E-3,-2.169541E-2,2.218013E-3,3.7354033E-2,-3.1220412E-2,-9.531354E-2,-3.3956256E-2,2.2493528E-2],"split_indices":[8,1,2,8,5,1,3,3,9,1,3,1,3,7,9,0,0,0,0,0,0,0,0,0,0,0,0,0,0,0,0],"split_type":[0,0,0,0,0,0,0,0,0,0,0,0,0,0,0,0,0,0,0,0,0,0,0,0,0,0,0,0,0,0,0],"sum_hessian":[1.274E3,1.216E3,5.8E1,1.17E2,1.099E3,1.3E1,4.5E1,7E1,4.7E1,1.67E2,9.32E2,2E0,1.1E1,3.1E1,1.4E1,8E0,6.2E1,8E0,3.9E1,9.5E1,7.2E1,1.62E2,7.7E2,1E0,1E0,4E0,7E0,1.7E1,1.4E1,3E0,1.1E1],"tree_param":{"num_deleted":"0","num_feature":"10","num_nodes":"31","size_leaf_vector":"1"}},{"base_weights":[2.647899E-3,2.5418872E-1,-8.198541E-2,9.0291715E-1,-9.751382E-2,-7.0237595E-1,3.0636884E-2,1.6565874E0,6.3827354E-1,2.3283978E-1,-8.7727845E-1,-5.348357E-1,-1.8826758E0,7.880596E-1,-5.7357058E-2,2.3602784E-2,8.410165E-2,1.2644832E-2,5.9629858E-2,4.477719E-2,3.6042798E-3,-5.375997E-2,-1.6137142E-2,1.1172418E-2,-5.4326702E-2,-9.939068E-2,-2.3833157E-3,5.5055577E-2,7.2788047E-3,3.015651E-4,-5.9193708E-2],"categories":[],"categories_nodes":[],"categories_segments":[],"categories_sizes":[],"default_left":[0,0,0,0,0,0,0,0,0,0,0,0,0,0,0,0,0,0,0,0,0,0,0,0,0,0,0,0,0,0,0],"id":49,"left_children":[1,3,5,7,9,11,13,15,17,19,21,23,25,27,29,-1,-1,-1,-1,-1,-1,-1,-1,-1,-1,-1,-1,-1,-1,-1,-1],"loss_changes":[2.7398146E1,7.40117E1,6.730614E1,2.1680405E1,5.4557457E1,2.8259743E1,5.443047E1,8.0078125E-2,1.8070015E1,1.5808775E1,6.567501E0,5.5045856E1,3.3779755E0,1.6935814E1,5.2277847E1,0E0,0E0,0E0,0E0,0E0,0E0,0E0,0E0,0E0,0E0,0E0,0E0,0E0,0E0,0E0,0E0],"parents":[2147483647,0,0,1,1,2,2,3,3,4,4,5,5,6,6,7,7,8,8,9,9,10,10,11,11,12,12,13,13,14,14],"right_children":[2,4,6,8,10,12,14,16,18,20,22,24,26,28,30,-1,-1,-1,-1,-1,-1,-1,-1,-1,-1,-1,-1,-1,-1,-1,-1],"split_conditions":[5.505993E2,1.4E1,2.9110355E2,4.9027158E2,4.7065274E2,6.681086E2,6.5965894E2,2.3200418E2,2.777849E2,4.0772092E2,2.700491E2,1.2E1,3.3368762E3,8.3158803E-1,3.6433362E3,2.3602784E-2,8.410165E-2,1.2644832E-2,5.9629858E-2,4.477719E-2,3.6042798E-3,-5.375997E-2,-1.6137142E-2,1.1172418E-2,-5.4326702E-2,-9.939068E-2,-2.3833157E-3,5.5055577E-2,7.2788047E-3,3.015651E-4,-5.9193708E-2],"split_indices":[4,0,1,4,4,4,4,1,1,4,1,0,6,9,8,0,0,0,0,0,0,0,0,0,0,0,0,0,0,0,0],"split_type":[0,0,0,0,0,0,0,0,0,0,0,0,0,0,0,0,0,0,0,0,0,0,0,0,0,0,0,0,0,0,0],"sum_hessian":[1.285E3,3.23E2,9.62E2,1.13E2,2.1E2,1.47E2,8.15E2,2.8E1,8.5E1,1.48E2,6.2E1,1.3E2,1.7E1,8.4E1,7.31E2,1E0,2.7E1,5.1E1,3.4E1,2.8E1,1.2E2,4.5E1,1.7E1,5.5E1,7.5E1,1.6E1,1E0,5.6E1,2.8E1,6.93E2,3.8E1],"tree_param":{"num_deleted":"0","num_feature":"10","num_nodes":"31","size_leaf_vector":"1"}},{"base_weights":[1.10904975E-2,3.9498907E-2,-4.9039748E-1,1.3497233E-2,4.4073713E-1,-9.7366023E-1,-3.378451E-2,-2.9769304E-1,5.789433E-2,-5.707982E-1,5.9190303E-1,-5.6252563E-1,-1.7447907E0,1.9196336E-1,-1.1945177E0,-9.741954E-3,-4.9485203E-2,-3.2579952E-3,8.047092E-3,-6.937549E-2,-1.1281661E-3,3.6047973E-2,-4.772804E-3,4.9191206E-3,-4.0078726E-2,-2.640496E-2,-1.06751874E-1,-3.097496E-4,4.3612424E-2,3.5636586E-3,-9.2261575E-2],"categories":[],"categories_nodes":[],"categories_segments":[],"categories_sizes":[],"default_left":[0,0,0,0,0,0,0,0,0,0,0,0,0,0,0,0,0,0,0,0,0,0,0,0,0,0,0,0,0,0,0],"id":50,"left_children":[1,3,5,7,9,11,13,15,17,19,21,23,25,27,29,-1,-1,-1,-1,-1,-1,-1,-1,-1,-1,-1,-1,-1,-1,-1,-1],"loss_changes":[1.8069656E1,1.2513491E1,1.4972258E1,1.560162E1,1.1500261E1,9.48078E0,9.662495E0,9.842994E0,1.2538754E1,4.446191E0,5.7461376E0,3.7126155E0,4.095398E0,4.184333E0,5.0735207E0,0E0,0E0,0E0,0E0,0E0,0E0,0E0,0E0,0E0,0E0,0E0,0E0,0E0,0E0,0E0,0E0],"parents":[2147483647,0,0,1,1,2,2,3,3,4,4,5,5,6,6,7,7,8,8,9,9,10,10,11,11,12,12,13,13,14,14],"right_children":[2,4,6,8,10,12,14,16,18,20,22,24,26,28,30,-1,-1,-1,-1,-1,-1,-1,-1,-1,-1,-1,-1,-1,-1,-1,-1],"split_conditions":[3.7191816E3,4.3580746E2,8.994638E-1,8.029306E-1,8.809686E-1,3.1094113E2,3.3650945E3,5.294729E2,2.9238135E2,5.268654E3,6.3102593E3,8.7512547E-1,7.8889304E-1,9.288255E-1,2.9110355E2,-9.741954E-3,-4.9485203E-2,-3.2579952E-3,8.047092E-3,-6.937549E-2,-1.1281661E-3,3.6047973E-2,-4.772804E-3,4.9191206E-3,-4.0078726E-2,-2.640496E-2,-1.06751874E-1,-3.097496E-4,4.3612424E-2,3.5636586E-3,-9.2261575E-2],"split_indices":[8,1,5,5,3,1,6,8,1,6,6,5,9,5,1,0,0,0,0,0,0,0,0,0,0,0,0,0,0,0,0],"split_type":[0,0,0,0,0,0,0,0,0,0,0,0,0,0,0,0,0,0,0,0,0,0,0,0,0,0,0,0,0,0,0],"sum_hessian":[1.266E3,1.199E3,6.7E1,1.127E3,7.2E1,3.2E1,3.5E1,1.4E2,9.87E2,9E0,6.3E1,2.2E1,1E1,3E1,5E0,1.23E2,1.7E1,4.5E2,5.37E2,3E0,6E0,5.3E1,1E1,6E0,1.6E1,3E0,7E0,2.4E1,6E0,2E0,3E0],"tree_param":{"num_deleted":"0","num_feature":"10","num_nodes":"31","size_leaf_vector":"1"}},{"base_weights":[-4.257244E-3,2.352946E-1,-1.0223903E-1,1.8975286E-2,8.294348E-1,-1.6938834E-2,-1.0912491E0,5.4596984E-1,-1.19539306E-1,9.186751E-2,6.6929305E-1,1.0077503E0,-8.89861E-2,-1.3052919E0,-1.94169E-2,4.2540085E-2,1.4061624E-2,-2.3278063E-2,1.82342E-2,5.8948427E-2,2.4463018E-2,1.7955383E-2,6.7005716E-2,2.6288654E-3,-2.9755685E-2,-5.091233E-2,-9.857253E-2,1.7783226E-2,-3.4534004E-2],"categories":[],"categories_nodes":[],"categories_segments":[],"categories_sizes":[],"default_left":[0,0,0,0,0,0,0,0,0,0,0,0,0,0,0,0,0,0,0,0,0,0,0,0,0,0,0,0,0],"id":51,"left_children":[1,3,5,7,9,11,13,15,17,-1,19,21,23,25,27,-1,-1,-1,-1,-1,-1,-1,-1,-1,-1,-1,-1,-1,-1],"loss_changes":[2.999744E1,4.7666664E1,7.649853E1,1.9993292E1,1.4749794E1,6.180825E1,1.6492744E1,4.360651E0,3.652854E1,0E0,7.406143E0,1.137595E1,5.6060917E1,9.46563E0,3.5187688E0,0E0,0E0,0E0,0E0,0E0,0E0,0E0,0E0,0E0,0E0,0E0,0E0,0E0,0E0],"parents":[2147483647,0,0,1,1,2,2,3,3,4,4,5,5,6,6,7,7,8,8,10,10,11,11,12,12,13,13,14,14],"right_children":[2,4,6,8,10,12,14,16,18,-1,20,22,24,26,28,-1,-1,-1,-1,-1,-1,-1,-1,-1,-1,-1,-1,-1,-1],"split_conditions":[5.691261E2,2.7375946E2,1.2E1,4.231695E2,1.2E1,6.266955E2,3.018553E2,4.0401874E2,1.844618E3,9.186751E-2,4.9027158E2,2.8227325E2,7.218945E2,6.087262E2,5.947028E2,4.2540085E-2,1.4061624E-2,-2.3278063E-2,1.82342E-2,5.8948427E-2,2.4463018E-2,1.7955383E-2,6.7005716E-2,2.6288654E-3,-2.9755685E-2,-5.091233E-2,-9.857253E-2,1.7783226E-2,-3.4534004E-2],"split_indices":[4,1,0,4,0,4,1,4,8,0,4,1,8,4,4,0,0,0,0,0,0,0,0,0,0,0,0,0,0],"split_type":[0,0,0,0,0,0,0,0,0,0,0,0,0,0,0,0,0,0,0,0,0,0,0,0,0,0,0,0,0],"sum_hessian":[1.276E3,3.7E2,9.06E2,2.72E2,9.8E1,8.35E2,7.1E1,5.6E1,2.16E2,1.2E1,8.6E1,5.4E1,7.81E2,5.9E1,1.2E1,2.5E1,3.1E1,1.26E2,9E1,